{"strategyLayers":[{"neurons":[{"value":0.0,"weights":[-0.8171624447783523,-0.9125445949706315,-0.5324221245054239,-0.5310847211660141,0.37970532974375226,-0.0494337132592273,0.9658417250201021,0.8744769506761711,0.24422698011627286,-0.16124281376328264,-0.14152647238531646,-0.6749386021558388,-0.6615332786107104,-0.6937613419302067,-0.11002491577245777,0.8037324485295523,0.7051298570093609,0.499442340311252,-0.14872073599407654,0.6532213537899696,0.11558471372029522,-0.9896138287219831,0.6731211029152133,0.28520819711009837,0.17943586943080092,0.7642135476938479,0.5930269887623447,0.08140028369346597,-0.40621420779464756,0.17656326918869092,0.4211292281351877,-0.33555250201124975,-0.9924121801717682,-0.4706824441683486,-0.21647066650209346,-0.664125375647538,0.9862589757464777,-0.4613340424773109],"bias":0.0960970989443557},{"value":0.0,"weights":[0.4098514824454511,-0.6160132931636699,-0.5726856882081446,0.834919887612708,-0.5842378157437496,-0.9340711162682052,-0.5369429005573128,0.7887929996954095,-0.30082435159981746,0.36977311354253173,-0.11117618906526228,0.4263349557341487,-0.18003970767308286,-0.044114445642126965,-0.5553000939889572,0.9967308395487746,-0.6720744489982018,0.7675465044140293,0.2703124129790293,0.05529949984294569,0.9905149091701999,0.7075343143442343,-0.12363668522931293,-0.5257424255587704,0.3537145064815821,0.334586092361711,-0.9130179170243664,-0.31262042658334743,0.636482580691478,0.3930279347295138,-0.6200393088675795,-0.7085818128267269,-0.6093543005081179,0.31113473949543,-0.11017519973891798,0.10566386039712672,-0.8976518653379879,0.9385431658777241],"bias":0.8879484661171262},{"value":0.0,"weights":[-0.4179610432712959,0.9677811810077213,0.7403090911102745,0.8259040580871435,-0.9383630905633507,-0.55493932935673,0.42496482515725575,0.9718031029598182,-0.2103673631565297,0.8657602811221856,0.5561980770104786,-0.5790731854149342,0.8290064229094056,0.38375013290685245,0.0825395751245539,0.582770299099018,0.05453846954584329,-0.15437006128534714,0.9167124581700075,0.6231678624643453,-0.7379528237581334,0.7861869720543682,0.7060616567042697,-0.46626993054839283,-0.9061395227858935,-0.31605048297385796,0.7577476273422583,0.647808949924384,0.9600239121476231,0.8560475575038027,0.7171537135756239,-0.5285409123424223,-0.5742340655722464,-0.07176764619888831,0.04522286315855273,-0.33924399401307803,-0.360743991162374,-0.3149521683544305],"bias":-0.510914917158074},{"value":0.0,"weights":[0.2522213119487995,0.2897066137921953,0.2867869875590161,0.7015585161709681,0.8409959235590891,-0.685613867319063,-0.6659926239035312,0.9385269934693985,0.3017934959171291,-0.8858745628301292,0.06701999573055684,-0.3168454799057281,-0.13944402968709202,0.3904155998811347,0.10690693219770608,-0.22270270899903233,0.8501243806481169,0.8832112308058875,0.5762635203323971,-0.8145677419545232,-0.678871482512535,-0.7329313870600023,0.18200138227242268,-0.4601599485085972,-0.1703099465644411,-0.7457366633874212,0.8991895808280461,-0.5479975829234427,-0.8135769906898256,0.5570484690026418,-0.7359489301238826,0.22381986909922036,-0.2733916170247519,-0.22277052154432075,-0.034126301494284306,0.16452132273484166,0.7493079376491543,-0.480252526277946],"bias":0.6002045997277543},{"value":0.0,"weights":[0.10390286937432891,0.1735744947125335,0.06797885922391966,0.3245706919800777,0.8897983422431379,0.17280577277326414,0.8119738216499777,0.7742984735810543,-0.3325495180373894,0.5736800919339085,0.28687312756552696,-0.46673532358959324,-0.43928349469259853,0.1440022886284773,0.15725716189092642,0.19152886462996088,-0.9901921788397021,0.5441791972248482,-0.2258025268045083,-0.41594403787073686,0.46752936327767247,0.6799342318849335,0.0352962143344131,-0.3289304975887606,-0.5842505694517321,0.4692624493318649,0.19401507080237224,-0.7255523249642584,-0.26390363021945284,0.6245160430064534,0.9931102297079764,-0.4428135531203703,0.35364476795676647,0.9509029621846739,0.03800631189463721,0.9395937066626765,0.7696188051711108,-0.12442981045553747],"bias":0.4217334804565738},{"value":0.0,"weights":[0.26502003416497244,-0.391094215340664,0.4468357470059876,-0.15914373186727082,-0.5404281853503727,0.6304397349166455,0.8810216261930144,-0.7959199014327676,0.6743930605646424,0.7832791985638747,0.8847334807474148,-0.04124759336785999,-0.04425695060264001,0.8384696219287,0.44332036066157454,-0.07665222934133786,-0.14276261903399612,0.8865463666425648,-0.4583587672734113,-0.7374449081871519,-0.9097391939049899,0.5628002633919602,-0.6288462425106589,-0.7461541912431311,0.3027009133131735,-0.7528077314161694,-0.022267827255215034,-0.40279664378359725,-0.6172082045172731,0.6830703857400477,0.0175116200846126,-0.3845130164263404,-0.696001700119494,-0.5313925841211016,-0.6865527251085022,-0.6410809737910268,0.45851147258176606,-0.30285635392310706],"bias":0.6794569584115124},{"value":0.0,"weights":[0.1056998132294833,-0.3289333045735534,0.6573838257970888,-0.3609185573534053,0.04177044819526632,-0.3585636491347144,0.9516638489087634,0.8446292973314808,0.00625862831874624,-0.5669099627017082,0.6502686509449929,-0.1541221077052195,0.10515954201156075,0.8071555473867085,-0.8279526334736207,-0.014349360954191148,0.7243178766080187,0.6949539679160808,0.4663375724391443,0.6676946358733031,-0.9862058129180131,0.9090245674841977,0.7684777358149659,0.6713173409316204,0.2692132429206755,0.31169358751442156,-0.2890501066415574,0.22230393209216004,0.8017084014075944,0.09188327224675885,0.8944627625583808,-0.19618075461962192,0.8665914817586808,-0.4550024662261756,-0.8419509352674877,-0.1586114684534321,-0.988107308498632,-0.19263909674994384],"bias":0.24316614504897194},{"value":0.0,"weights":[-0.1410583512199617,0.8114320597557041,0.3658293890286104,-0.7626300302153548,0.47829658303876155,-0.6369024451206242,-0.1551697581420841,0.9975399660657547,0.7223480313488619,0.16152296744826966,0.5672305822352184,-0.34688400166906974,0.4826178799394705,0.9953721406921812,-0.30792596908266057,0.09242626841042645,-0.27528476169995053,0.3729530076975869,0.35136571188217935,-0.13933143674243276,0.030643656132846253,-0.3540992628176851,0.13972578084648335,-0.03748506870003587,0.41478401105967366,0.47918317356850615,-0.4451258260964872,0.6278910031932028,7.730128065406294E-4,0.606699911115808,-0.4564528806320447,-0.9446047065888832,-0.8906135067888934,0.915259676317981,-0.8234105768918341,-0.5924099551610758,-0.41707200808438727,-0.1842620305042213],"bias":0.7345182864513047},{"value":0.0,"weights":[0.4046592221788776,0.7595144294522864,0.5887311915960038,-0.6283106799464184,0.7476968733808798,-0.5889602631679638,-0.06695967133470382,0.45941029556755963,-0.699847099700885,0.1714894289192732,-0.7011676370292466,0.5763393538120072,-0.5342697457087398,-0.49233118600907577,0.753342416404033,-0.13991809798810162,-0.4767078139103702,-0.8777015401805217,0.10549698024710463,0.9268916114123467,0.8141046937157681,-0.17017850470468265,-0.1931471274379426,0.7485961365608325,-0.375996027611077,0.4081568556988522,0.7497620819287016,-0.3622979854369368,0.36284549960802304,-0.2949749398105126,-0.5003101787753033,0.24918689602480515,-0.7841442622960382,0.36536141914112186,-0.27287337718984017,0.5016280834913307,0.8262738649194754,0.9467243492962782],"bias":-0.34139510532835704},{"value":0.0,"weights":[0.6269570739186265,-0.23406343634757887,-0.09750417128243827,-0.8845734032004711,0.17726994221903425,-0.43977597127962076,-0.06193819103542819,0.7401904153765795,-0.25123527844440297,0.8560513504746887,0.5830514565260327,0.7587893767890721,0.4270169294189441,0.9563551448220735,0.47310437620948687,-0.16976681377667768,-0.48555429098521374,-0.6082092851004304,0.7975255190157042,0.9092294149942348,-0.030037545334138382,0.4601203757121184,-0.3554213761724636,-0.6720568621258727,-0.8275636658157359,-0.26395998422748623,-0.4359410021160557,0.9274481996893089,0.11374947912722111,-0.561044203330946,-0.43282249973181064,-0.376546726474398,0.9338574281850285,-0.7565110960544656,-0.003322181636280286,0.14440086507940508,0.829409066792848,0.6272516129671695],"bias":-0.35444751178650136},{"value":0.0,"weights":[0.8460528653030572,-0.20087708635989432,0.17270435009932572,0.9801982464730274,-0.5148081415010801,0.4332548174220361,0.3746676640904354,-0.7643082298206534,-0.3739161889331182,0.01113560088994725,-0.5476700373929428,0.09086039487605713,0.9568620467749491,0.539895165371646,0.4243567758484341,0.8098329123348045,-0.7909905547168801,-0.9508679985731348,0.27797331231397493,-0.6982485007178212,0.6016302172888013,0.45042666840776824,0.44765723395887047,0.7121624264964026,-0.2267809387600801,0.5772392863763374,0.016344776696862517,-0.4879180539383763,-0.9828490467572959,-0.36012968463185446,-0.938181866295416,0.49617506664018163,0.3031298894236605,0.26180663123392134,-0.606790662844567,0.4393759961260151,0.04535164494976773,-0.49208675337900964],"bias":0.22550078439863763},{"value":0.0,"weights":[0.8116689689882495,-0.13085025536705785,0.8715733743310314,0.4417147673938939,0.9136404092700343,0.7314112276019065,0.057019152983776245,-0.9386544559987919,0.07080135306292878,0.6660625187779212,-0.42526330782568333,-0.8123418914192453,-0.8874270412741352,0.15444297520010264,-0.338031072516227,0.36398910619306357,-0.7377846286062051,-0.3386013558415908,0.846981204230731,-0.45174698012106584,0.7768733397721177,-0.7685563420203416,0.5948946419088061,0.13372274218689495,0.2023010028747878,0.2053540303715624,0.9045328675763278,-0.5790391611926118,-0.055280479868665466,0.09607221257868215,-0.530130877115409,-0.2512737235125164,-0.9873479124435343,-0.5461813093282526,0.07629988690525313,0.43894744828799803,-0.7555290219846811,0.15381965113716634],"bias":-0.4426812846831234},{"value":0.0,"weights":[-0.5293832257116957,-0.8872179448561266,-0.0439212155491715,0.02916304502045408,-0.6302712002599002,-0.7153371856744495,0.41513337347606827,0.1288871250904573,-0.812850782440085,0.5171611751419951,0.2587536641904935,-0.7395221336218063,-0.36643294503405577,-0.8196483664750287,0.20805774265419918,0.5071161591750593,-0.5495507539691127,0.7256373891809429,-0.12246913620668232,0.7718512423253032,-0.0818193120722086,0.7548768667640069,0.8719540731511737,0.9668338577634341,-0.962659258356857,0.9963035683640127,0.48826143620804885,0.3382550945140381,-0.6336698335667865,-0.543900301624179,-0.466137884508359,-0.8305155914348425,-0.24166943432301524,0.28987347968817745,-0.311021765470892,0.28653909418586054,-0.6871577282927455,-0.4738183251005874],"bias":0.27111379709576555},{"value":0.0,"weights":[-0.7158403748893041,-0.2581869367850895,-0.32537103834656134,0.18439944017765675,0.19740577376823376,0.04763549543188472,-0.5360337544696776,0.847424184914586,-0.5371721803680578,0.920056599436019,0.4810012636628651,-0.2555201421615765,0.4449096163420774,-0.4186914261464052,0.3190250300354991,-0.63296476814927,-0.45238096364013036,0.943535353357706,-0.005151889443419488,-0.21142713809507696,0.9875434445228088,-0.11014449248959446,-0.14356810088068506,0.3767861321888839,0.6742279141472756,0.2501675755340069,0.9784900280268174,0.946764873357332,0.32497382842306743,0.6150686046384921,0.13132673778308557,-0.41063841043303384,0.9354976899493475,-0.48397570471348517,-0.1914322266206414,0.4499453859361058,0.034488819338889476,0.697192613687639],"bias":0.5690655458091192},{"value":0.0,"weights":[-0.4137328529896438,-0.23075310480791766,-0.7859302415169676,0.5197833792083668,0.7001747036576607,0.8012195947169771,0.9163925707904892,0.692885401031168,-0.983568138564815,0.23440200324155658,-0.4925031189146929,0.5435880104555884,0.8729122148201127,0.3561996935738594,0.8195973100277165,0.7295462874326231,0.6899524829748152,0.8394983399632954,-0.795780389571378,0.4308778758222287,-0.09733270996041088,0.2363229957909161,0.009281634863113508,-0.35365239847973395,0.1685419456510462,-0.9123888404209326,0.9990855539603953,0.34776209435906735,-0.2963642066221197,0.7802639307409636,0.2707493221081414,0.6442461363284022,0.9542443575134043,-0.5982194163816501,0.7303701862552754,0.6334640115228449,-0.023115899613151525,0.2744223054667554],"bias":0.5123323193917966},{"value":0.0,"weights":[-0.5452604156738474,0.87797898384367,0.5949916048172124,0.8771162771559453,0.20941886714669078,0.4556439250547495,0.6629544348265899,-0.9898989757757555,0.8767106926943484,0.7894760224966071,0.5487725706397988,-0.9761196564045556,-0.8713698112188613,0.9402794769508529,0.7359544390423394,-0.11145047573397204,-0.9644383312286182,-0.8498336777526587,0.26447416783902433,0.5194487993747445,0.05434758933607631,-0.02550958553371152,0.2098468397221247,-0.6110165537456222,-0.5962991373274467,0.630587828315192,-0.048708139204330037,-0.9439136345893953,-0.042871612816340665,-0.4856875716281075,0.6140539174615987,-0.17299252606735815,-0.878555195380665,-0.6861289301528242,0.31509358153507216,-0.604120659778357,-0.18065470448113397,-0.5585217489612755],"bias":-0.4855200879135497},{"value":0.0,"weights":[-0.23922544473854046,0.6573975196749628,-0.39313383939339785,0.7121159072826533,0.9707358908362906,0.6362031504806835,0.2727012682687391,0.17251409411381946,-0.6684744244605081,0.34736997390535485,0.46047408958597646,0.33159062776561754,-0.4173938423943344,0.5023266715108605,0.9164450804242439,0.4996974417290776,0.25513048238312597,-0.1490979037975857,-0.9992554507277869,-0.9286351363837435,0.9304846460294169,0.07298241716831777,0.8287402510304769,-0.8546886851856721,-0.5588074652641988,-0.9355502023449609,0.17230261634737598,-0.7294235258285893,0.19075717753693033,0.1889964381378264,0.41961169384805896,-0.7922450901862543,-0.28372124376266683,-0.46970049278929893,-0.504332498871574,-0.036552247889240386,0.3774553938725964,-0.045568628203664474],"bias":-0.6020002183400675},{"value":0.0,"weights":[0.037691251007364146,-0.37216130274243886,-0.11972722037663175,0.5400250695815887,-0.18174006700996803,0.7089804760799137,0.056084167151172704,0.5524923283931846,-0.6376144198071716,0.8053743028026314,-0.6467164608658815,-0.7869830779188598,-0.5744293918590264,0.707859653878421,0.6138683484262715,0.38216494337362916,-0.4711822510821435,-0.1445767560820197,-0.07418982784649342,-0.5308912092693265,0.09973697132551806,0.26009700251545653,-0.6488583366160563,-0.3421320445853402,0.279631696387757,0.266918047860337,0.09434516650248748,-0.4618994523216755,0.8578072409357371,0.36068170055538396,0.3740435461989917,-0.9632534676795981,0.9759844181695125,0.3034839658080908,-0.15111496797840096,0.27533997529640697,-0.2601573632159486,-0.22818402415481565],"bias":0.06167911378139146},{"value":0.0,"weights":[0.5188219759379269,-0.31864331074708385,-0.6407623101350708,0.8765226189599189,-0.2647964109652601,0.1347326258043109,-0.6795748766424914,-0.63321975591264,-0.5485585826151693,-0.9796116212760602,-0.2453505740075841,0.5342041964244679,0.5694061422774737,-0.7244342289952612,0.061512671516278594,0.2842061518314669,-0.4031617514644379,-0.7731994846973025,-0.5509687756120434,0.6297146739002808,-0.6482977916791761,0.5686187042782536,0.03392202272348688,0.829178172107286,-0.3856350101231776,-0.7055331335046251,-0.3537864475968173,0.5499522403370465,-0.5694587547158945,-0.07997407005980439,0.8350687920816948,-0.738520786994725,-0.19103817778861099,-0.3543026454747411,-0.2300270629866079,0.7755560571322766,-0.588760058597174,0.7241925772676159],"bias":0.34890286844364726},{"value":0.0,"weights":[0.8763797989463815,0.4974227058380969,0.23079599728643996,0.7857730642644314,-0.6790515267779964,-0.13076688759421984,0.6780130324275755,-0.4002247123146223,-0.8592135099216802,-0.15597790883008944,0.4729556527818277,0.34538184978327324,0.13885532410316292,-0.6040335135110921,0.08495746376048352,-0.7795615176969346,-0.24910101533274154,-0.4829357512740422,-0.02744775961210233,-0.2690730279131992,-0.9716341126932173,-0.42100647224363197,-0.18691060567666118,-0.508702299121722,0.40043888143849027,-0.9820817328370692,-0.6150990590747734,-0.9250474533121746,-0.9144044653945032,-0.9821611859222752,-0.42892409647477026,0.9469210704580542,-0.45148810582265897,0.03410055356663699,-0.614463502465731,-0.16696102920314448,0.23601329422444084,0.9771906715746621],"bias":-0.25879556012602123},{"value":0.0,"weights":[-0.9852960685429564,-0.02383360876423235,0.6679678101632995,0.13708093889929795,-0.01445107045697358,-0.1125028601783804,-0.22101488024987126,-0.091184513062466,-0.33386121593300855,-0.5792891877848798,-0.10741688856707321,0.17176026567467706,-0.05493800415594241,0.24317917480332896,-0.4650557085906777,-0.17382947454566833,0.6995547342497692,-0.9231474486515479,-0.9136831214073753,0.10363325774361432,-0.3539401537268245,0.31314342443259036,-0.6788689613412902,0.8515573354495924,0.3808895382707813,-0.7462798703040407,-0.0022539838179036487,-0.9154052670748958,-0.20657453617397903,-0.8359613423840786,-0.6039169469547314,-0.3490447442679958,-0.3309437505057704,-0.023167785747589376,0.9924134100505586,0.4182155951953477,0.7463177687901921,-0.5543314217026296],"bias":-0.3337458666994011},{"value":0.0,"weights":[0.25236678135854973,0.7524667766355269,0.8240750229580829,-0.06698985749351527,-0.7545177734432271,-0.9860149066760748,0.733622568304358,-0.714835377485511,-0.8584694692348978,-0.8767243166043162,0.7847512117760693,0.5445430560630791,-0.2835017986291244,-0.15992044810582473,0.7270082039871681,-0.3666939364083368,-0.011873291189848256,0.9159058383183853,-0.5692374572133048,-0.38394978474401054,-0.43779003168282893,0.8520349036167318,0.8403494586535252,-0.2954418337331235,-0.8334611396135436,-0.26358106812980275,-0.8110112708926667,0.8904269426696418,0.48021949369563877,0.25207021196837176,-0.7712878441331896,0.5764848976411243,-0.26476666747979727,-0.29070680025848583,-0.9960747526733278,-0.0060758409151557835,-0.7512532817709947,-0.4736178487665734],"bias":-0.4359117441743776},{"value":0.0,"weights":[0.4205895824254777,0.0388197478741501,-0.031829062764979765,0.17964220033734324,-0.7431173573428054,0.9828032862626459,-0.8509115411301422,0.1493202322637872,0.8692527009686051,-0.40314554108269385,0.31713803943114116,-0.30987275522661895,-0.22273510766454319,0.4466414873032174,0.2574843549771002,0.26697155195232236,-0.7612514160423531,-0.556550414676968,0.2890985543286104,0.7470745914306138,0.5785471524469974,-0.16346077195612874,-0.22482445436214626,-0.4617000392342554,-0.2900962865435641,0.5817503936196684,0.3278062005275699,0.9141829289636867,-0.7864651517186305,-0.052014801665424715,0.9596491395777631,-0.9046979933063908,-0.9320408910229379,0.7173433683358412,0.3201158515544873,0.5570244431505873,0.6656626037911466,0.14132533236745926],"bias":0.7851195276269101},{"value":0.0,"weights":[0.24654729621029592,-0.8968003874430963,-0.06534278787610392,-0.7949830467025327,0.9175479459311504,-0.10065714879968524,-0.9800656439933189,0.5972962870262881,0.6286469867559807,0.27391173197325425,0.4804196158419374,-0.11398795943598028,-0.39772196680933125,-0.0890756920525484,0.2349733278176318,-0.8636188594986463,0.10344941180328049,-0.26676647338007653,0.3182324384092765,0.1734020063054713,-0.22672699762697235,-0.36817651861218503,0.3307976650795552,-0.794717393462911,-0.05997380083195836,-0.6785414918976724,0.6183271092356424,0.9830416024444686,-0.16909564213468053,0.5353915644663367,0.04507613020272294,-0.8408150364393547,-0.6794896566753041,-0.37464398810467814,-0.15343646621111184,-0.481873069842107,0.8775197560698467,-0.700921055987513],"bias":-0.14915397959063714},{"value":0.0,"weights":[0.5732890121919254,-0.29115006488863404,0.7060707720795132,-0.38326546138103446,-0.3394225998261715,-0.24894755837711013,0.3734605938398394,0.04243816574823889,0.10520280285711325,0.12153884567236828,0.5971640511921783,-0.029761444742384402,0.29857548555683144,-0.08236045178321394,0.8096835461211809,0.615718283193315,0.5942703894101224,0.839388053122134,-0.8256410470996045,0.247182683619676,0.8168256895577013,-0.9876886828931013,0.19690044337889145,-0.2039320654326624,-0.12559796818094648,-0.40060101671599546,-0.5014477751709665,0.21297947507538217,-0.5239039340968437,0.31681454553317767,-0.9387495013281086,-0.3111935056696651,0.2769675796929474,0.8058020612496004,-0.766344776045315,0.6044987860580209,0.9086042654445821,-0.036367845774883056],"bias":0.9776848963052145},{"value":0.0,"weights":[-0.8702666342483145,0.3003157295490244,0.7993230521062755,-0.7591735139913556,0.7598381168821213,-0.5441891048017071,0.15526136665594348,0.9480612671118565,0.7619809577348851,0.42248224360137066,0.7237390017703695,0.9506584073872428,-0.5042263341949509,-0.42481740416985647,-0.8121866422096775,0.29148321368903085,0.8800792935304456,-0.46635153303441146,-0.9712128539646898,0.6148804363091525,-0.10304575359151125,-0.957512599900479,-0.43200306050278026,0.4077577834252313,-0.04470500081485684,0.9649140506242397,0.14848843485950214,-0.9608584649622827,-0.8190987330918418,-0.8238153259925818,0.01254784397118014,0.2562233065015589,0.2563076654449994,-0.4100550958767879,0.39394905490422283,-0.10156594341181657,-0.6971234828631114,0.8104724564833639],"bias":-0.4220491022565951},{"value":0.0,"weights":[0.5070963424586028,-0.5207149952431345,-0.02393961034803227,0.5997015228406508,0.2367219318483329,0.4646807978966365,-0.7564456347545401,0.9980327786753145,-0.9849626565845264,-0.1985795919663993,0.06132070697199832,-0.43735125266259245,-0.7476648533803789,0.1914457195698538,-0.11231104082589671,-0.3470605147455237,-0.4332350740397979,0.2719945463451361,-0.6658215042523963,0.8126728557651599,-0.02930634217293271,-0.8595188764595074,0.8475833821069383,-0.5988577900017562,-0.2457201218728795,0.9550243092760273,0.992255887865386,-0.24602842741794673,0.9059227731084751,-0.6937593231675143,-0.8463051510521287,0.12095317126175176,0.3252624195132148,-0.26243925998705,0.056810246535027975,0.7161847053957415,-0.6870774083117273,0.7854679594055372],"bias":-0.3808325014629905},{"value":0.0,"weights":[0.6161617453719932,0.8622045413036425,-0.7823009944170001,-0.08054908745748057,-0.045626668049307595,0.13145393307790187,-0.2334137349316907,-0.14819523927490663,-0.11366127898181166,-0.8581595474799133,-0.413636909513625,0.2976693748845307,-0.8630863371087552,-0.7761961865559623,0.9073933178617539,0.23312881116943052,0.5920858843609902,0.026437123174911648,-0.08307313366368985,0.07574520105626048,0.3603687844967056,0.007591987215743057,-0.234875353586683,0.6152740396315384,-0.9957049929505521,0.23850787613898516,0.7767350751160296,-0.9924089766100321,0.2304000327215483,-0.9147181627107492,-0.5570524517283366,-0.06190741053469018,0.2264779325994426,-0.12948872827412417,-0.42541410643325195,0.7580978289317462,-0.9522183949316534,0.9719580701746364],"bias":-0.12299866293830419},{"value":0.0,"weights":[-0.09245465155459986,-0.020769522683155905,-0.018902284740355935,0.5582380053688802,0.2595442217827817,-0.3614206281350316,0.5229329646234708,0.6076740756668129,-0.8428964452131624,0.7358925117713548,0.12946667237887022,-0.12399530200332731,0.8596312481193589,0.8675578660026906,0.16274489668041525,-0.33970457529817755,0.876557791924597,0.49846698370777776,0.19939646040814085,0.6164973297631338,-0.7622937110949146,-0.6261230955549217,-0.48288963184279,-0.9025537730352204,-0.8652031920916992,-0.9971398261051343,-0.6354904249445597,-0.7594195395819399,0.565737148573598,-0.4318588797902849,-0.450606991847724,-0.49119066965310654,-0.37688160589847786,0.6425057222810713,-0.4536641365066203,-0.6803982492247496,0.8906002768289014,0.4298641412546884],"bias":0.11694817972859095},{"value":0.0,"weights":[-0.35849318472105685,-0.954365106848696,-0.10056506052522662,-0.7832640184579356,0.993958731016616,0.21424477338223835,0.14441068007075786,-0.14767055506644233,-0.8446416917439024,-0.11666369892572881,-0.42814404418054,-0.10375233047104526,-0.9339354254262049,0.24829460775536583,0.11847825550994795,0.5606485276814466,0.9070703780128975,-0.24162728613892104,0.5873040293663485,0.19991741865396762,-0.8582235773523785,-0.6803478208159064,0.4131818851572977,-0.748230842942486,-0.5725809865867362,-0.874880752641648,0.6904259971485969,0.7821801369409815,-0.2656524232978137,-0.5963348131840396,-0.8661963961130374,-0.6082199263181542,0.7554875173965394,-0.4854143572341483,-0.20553956889963287,0.032348894865675604,0.744966850674101,0.7614194732999096],"bias":-0.19684843562407628},{"value":0.0,"weights":[-0.11442124878327142,-0.7059772451824207,-0.9412671628581601,0.285477093972502,0.8722777024675659,-0.7660525417838491,0.15772024409551322,-0.6575838173975308,-0.4112929966319896,-0.15002795618159048,0.5212597096321743,-0.9315624900921811,-0.492240378446404,-0.1033725696850809,-0.8636752720690399,-0.5558879650510351,-0.8637974409649893,-0.47573671415722907,-0.43857823872453383,0.644139216847657,-0.5147773269371807,0.1580448773747236,-0.6710124964543824,-0.6997097414206528,0.6900296356479474,0.6148904898206087,-0.5425554334292,-0.9938934563871957,0.9052862157285622,0.30044986759003667,0.27488258632651164,-0.6990382069392962,0.7066516971940264,0.19736789658143783,-0.9839056641943638,0.6464898678828344,-0.8552601462237452,-0.46228422623727483],"bias":0.8152693273455336},{"value":0.0,"weights":[0.49626766743528616,-0.6736923164647,0.5466142182737121,0.8949686200454927,-0.5399634593563161,-0.06149177965443142,-0.5492872604452055,0.9218253076004093,0.7766334229137881,0.4855551806415077,-0.9356693690171973,0.06406870802147835,0.8351951502054396,0.1731631430320868,0.6977052381644648,-0.2103726909099437,-0.6779106538390647,-0.6453572130835257,0.8759339310165828,0.6332171193463114,0.7214165646799047,0.24354637432437154,-0.5861631636477433,-0.4193541521345605,0.3598176908117474,0.20127372963097456,-0.23889187947780122,-0.22811785437375964,-0.03828664848589103,0.32406521289552126,0.21376409210143543,0.8850124619100348,-0.23100999054163318,0.28232380620450104,-0.4179633177307891,-0.05202776704810397,0.6795407000449478,-0.5937767402480754],"bias":-0.27303624670572924}]},{"neurons":[{"value":0.0,"weights":[-0.4777958451228015,0.5719571297514834,-0.13492401252909625,0.8733778108848784,-0.7878374999377993,0.009061116223365584,0.45394924614591625,0.9715476554933622,-0.7231530322862123,-0.14914565448671646,0.9795339679088024,-0.24195446907096407,-0.2456839484460931,0.9578553151186944,-0.47171380784380035,-0.1946692011774087,0.9573955586003784,0.12868368595370172,0.0033773426984411437,0.8528588647862005,-0.5414375748656188,0.6911420124852394,-0.7669966588955774,0.3270773133902134,-0.24574862765043948,0.7539366534507661,-0.3188789308850817,0.32812151882635976,-0.3164041230063135,-0.9734310633064087,-0.6673066775731304,0.6831244215051837],"bias":-0.7884973458639972},{"value":0.0,"weights":[-0.6721806325073754,0.6790412215672086,-0.21480472100779413,0.9947558293924161,0.4286376580006277,-0.10508252009202756,0.3687643602345301,-0.0744983531725425,-0.2868574931357575,-0.7225699296780619,0.11612825806091709,-0.925547979371437,-0.7081753392311843,0.8079612963539615,-0.953325524710128,-0.9631162966417974,-0.3360608053295884,0.3017427465410727,-0.9905979946978816,-0.46250297579341937,0.8014613301145832,0.025762777107557477,-0.7190035654215376,0.17585356833777022,-0.3851272734602522,0.8941979425271893,0.2658588740998624,0.8779081856336026,0.16143499547430396,-0.6084237847796612,0.6011275402349687,0.654038833842622],"bias":-0.6261183697734976},{"value":0.0,"weights":[-0.7726048070724438,-0.41112713150128055,-0.7262577155840904,-0.5222259547056238,-0.6080663506592741,0.8092864697497033,0.28943005400848953,0.32643060114862443,0.7615113199011447,0.012825736770847751,-0.5234757604762905,0.08717918082813259,0.6924667500586008,0.9459157842595867,0.20431827275975034,0.9825121202966811,-0.8533614865060133,0.6339516670745835,0.5118338960542177,0.619563301705419,0.8071518182935309,0.8269840561581947,-0.2648291039409585,0.7519906720774518,-0.6281735634880907,0.8076123682025824,-0.5823883995865013,-0.41633691036462084,0.7525396330898186,0.5672497603760822,-0.06899162194011588,0.6408223467379877],"bias":0.6694967948629937},{"value":0.0,"weights":[0.47606533914708793,0.7467468550667908,-0.23521600685325939,-0.9614664374377564,0.0035494983656652046,0.6168448536467626,0.6151306470171287,-0.07294828037168699,-0.20921192094416186,0.06051107310216386,0.22374166482497837,0.8472778690708127,0.4321735187057232,0.49875409896066114,-0.39710561152525203,0.25646220194772207,-0.30658016568787416,0.13939787429104267,0.18606219470058094,0.7517189220138096,-0.4256099248203169,0.28712456334210934,0.9679257419565317,-0.9253073627297392,-0.3806150990887729,-0.8620669395224649,-0.3894963302928445,-0.17459843775815354,-0.8158176836003592,-0.6853350712044537,-0.5047991971732924,-0.954769463726207],"bias":-0.7376091301604566},{"value":0.0,"weights":[0.41001686261391,-0.2740387908515003,0.495063644406589,-0.7877408862801671,0.6257235082733836,0.4266052280633348,0.9330595897678806,-0.3550626338432856,0.2313606121753251,-0.674180965726499,0.9875907181248018,0.9404029105639069,0.013483341214923117,-0.41384251023865937,-0.6756191315455184,0.9156818785987297,0.14558115942804806,-0.8911898129216147,-0.2771064088506827,2.1723670608109202E-4,0.9815958953071613,0.1337718540042403,-0.5944625404785207,-0.5569157437936445,-0.8394854494656596,0.8554488124408473,0.504271197363573,0.6903359126480941,0.10681578424560167,-0.013375636193373008,0.9027062779131623,0.4640332994326781],"bias":0.9882582593028495},{"value":0.0,"weights":[0.7290952163742315,-0.14217847230751546,-0.4938434272691201,-0.22080123028782994,0.44718344335004656,-0.2160815270087999,-0.30526656436264976,0.2868814636092034,0.4907176459308171,0.37246270401958825,0.29616135168672963,-0.20357393170403082,-0.923031731896107,0.8249718555058538,-0.5131577564724168,-0.5637658295532113,0.9164128959898481,0.3921267902904493,-0.041113158269763916,-0.21118320055971007,0.35509715880387316,0.6407971381199988,-0.5812113751440025,-0.2686961351139916,0.20674821324440518,0.9116894192700684,0.09460606058565335,0.9515915206358099,0.16068841372277554,-0.7161591369372737,-0.013665990129609451,0.062796125243201],"bias":-0.47868784814220366},{"value":0.0,"weights":[-0.9718031990458362,0.5257845822524507,0.06094935649564981,0.6181762693397677,-0.9889724298856704,0.5564392586819662,0.5056331902531626,-0.4827409206580957,-0.20104673439213872,-0.899625996959631,-0.7494788834107442,0.3446044485464401,-0.6791365920528141,-0.7514999228192383,-0.18944419222316555,-0.08825499674655024,0.8580317269955393,0.6920043433327931,-0.4752395532652194,-0.36204053504482014,-0.13775615366753424,0.907012343066113,0.5584450510821313,-0.6940756781983939,0.6427693992114989,0.8111388407318125,0.48583670502795373,0.6456069322096343,-0.6834719948384327,-0.1702685131757573,-0.2960738712288682,0.11096308177087755],"bias":0.6769866175239196},{"value":0.0,"weights":[-0.25874725005505694,-0.7494093612683608,-0.9481075938870827,0.8544422428910481,0.41538692088945695,0.7348170861447885,0.6342958126257867,0.09626451163076699,-0.3859007078574994,0.0341163595889733,0.32397026179305977,-0.7306249117737251,-0.6049852173474739,0.17398446878186435,0.5254659479051256,-0.23447559791867278,-0.6618751093137645,0.3765319304806587,0.05492214862251443,-0.6113735294230522,-0.18902859983694942,-0.34983078134771883,-0.47371168039324796,0.5093373298401729,0.7940965528361628,0.4895004367627418,0.44322830159380344,-0.13582656259214665,-0.592309983967515,-0.7356558566153113,0.814394772816128,-0.8623396292831216],"bias":-0.41818862380738664},{"value":0.0,"weights":[0.6990650323971799,-0.5523462861958863,0.9445150010936114,0.5982428654602387,0.4781666611421147,0.7292266672937193,-0.8801181936013645,-0.8567053138283103,0.4613598193103643,-0.34338789397578107,-0.6708412644655539,-0.3292282451628641,-0.7489115551524312,-0.8304644334058071,-0.07503589224063933,-0.05748088107191629,0.927758902702496,0.41106956389408555,-0.2926888458058572,-0.6011508078548329,0.6526850274635256,-0.5485443122825644,0.784072835802623,-0.8275767755078258,-0.4639729844374181,-0.7799491765759745,-0.9176648992351772,-0.28016754435140245,0.6767673645961936,0.9162100824165866,0.22725260900575406,0.8465765036003505],"bias":0.21200325121412833},{"value":0.0,"weights":[-0.9921890156854187,0.48353575198602594,-0.3547262601198726,-0.5161615987726684,0.07651261814582355,-0.7542856668800371,-0.07641770628656719,0.4025897122690172,0.23173421616369905,-0.8331612828575254,0.06744803526027487,0.7984565643387143,0.5907295924182443,0.4312943802578155,0.9669385888568063,-0.31601790116149364,-0.5899772413849877,0.9059218784714904,-0.37393789612890704,0.6880693921447818,0.8538617819578853,-0.05535010157825271,-0.615389634379863,-0.8572534723220333,0.09823848087036935,0.47536408447541056,0.2992062822281967,-0.5501210614234897,0.4944110137359574,-0.3362486891660046,-0.8376233003933033,-0.21473664398584202],"bias":-0.39596700287049735},{"value":0.0,"weights":[0.9273726830966771,-0.1173879883637845,0.8323022680401717,-0.4338077172072434,-0.6357640969004459,-0.4949855558455465,0.684725575794346,-0.7727859276247981,0.7636528726405005,-0.9787223236621654,-0.682411156993213,0.7241553996272048,-0.7168167255595195,-0.7006184082938183,-0.9019539513158432,-0.6800448917360091,0.6039811107225108,0.9575250688962558,0.692158015147815,-0.8267225546247838,-0.08212277841459259,0.81346255158675,0.4212654394844413,0.946636350946126,-0.5469549028097034,0.6595487500968524,-0.3687815029213104,-0.3204108318073431,0.4111146676398152,0.5454375555940021,0.960023891044627,0.9419545517529591],"bias":0.8537594522542415},{"value":0.0,"weights":[0.49452153177868596,0.5242324740827793,0.43239762724421693,-0.6253746746475888,-0.36316075527474134,0.9916585971309448,-0.34938164754866174,0.2220929291867233,0.11031770913172512,0.2677871716505391,0.046767636568674886,0.5021641823181269,0.7638586633470159,0.0954896457747485,0.13960792747822226,0.38455045981672176,0.6899172261669511,0.2524361954797214,0.49532465794858016,-0.17616097768188,0.9208629541706446,-0.772142652458238,0.17178644141279742,0.38723709455814714,0.24255289263351165,-0.7299272405831607,-0.741558826485806,-0.04676357365703465,0.010187829707858587,0.518472333462707,-0.5200726769054969,-0.7892976787785606],"bias":-0.8328872647909791},{"value":0.0,"weights":[-0.4316020922527086,0.4818695597387437,-0.8210926202853503,-0.34773358678582245,0.26464230761839436,-0.6197817043932508,0.07254534143918989,-0.7482865072925027,0.779045832413183,-0.5691162531254306,-0.2482235794081229,-0.8698418344559165,-0.9000631267698118,0.2643060294242747,0.7258712795554925,-0.2260523562303598,0.9459292276534763,-0.9700078658557449,0.2200355903847493,-0.11746085180061017,-0.18614656191958634,-0.9910567926898795,0.16851397387108036,0.8651329051557333,0.38036626110486416,-0.2227157913509037,-0.8369134597819594,0.4592169664654919,-0.2009534729155531,0.8423003036382459,0.36458787364373735,-0.19663945039893194],"bias":-0.904336804659825},{"value":0.0,"weights":[0.8224735618264154,0.17609302254461223,0.3532327307017882,-0.3973166560737089,0.706005371745033,0.0799315726940375,0.39896448817505803,0.8649422311464212,0.4976997067145905,0.45670588525180156,-0.3763879167200901,-0.4415126715659148,-0.3480264987642179,0.43300527949847956,0.13662075210760327,0.17709310611228735,-0.9098489528693978,-0.15447611485289703,-0.27717152139775614,0.9760333115665734,0.3130891047389954,0.2628051867537464,-0.3333100773143063,-0.5964481186704689,-0.8544281360450354,-0.32814799396769967,-0.5569591916021339,0.8638554931463387,-0.013197020843393581,-0.08464339183951819,-0.1901345901946212,0.816327990035691],"bias":0.5695529532241905},{"value":0.0,"weights":[-0.7436796550673759,0.39516765075753724,-0.3370681408880094,0.3707070475832177,0.5503490987300548,-0.2608101088316448,-0.8644726011935209,0.4708054714770584,0.42192559441680455,0.934861471901262,-0.032893095824959584,-0.510850811121498,0.5694752326476078,0.503502142156041,-0.48429470329082647,-0.4299295077772962,0.865058199475754,-0.05055596904006743,0.7070154272874669,-0.15004954988178576,-0.731963759906302,0.5563775071435497,0.1715014970834019,0.7394095618022711,-0.26192288741238,0.4198671065261088,-0.2259303914675852,-0.629712518958347,0.31137693701704894,0.45462354193185295,-0.13087989136403633,-0.8147436534151671],"bias":-0.9082846730978678},{"value":0.0,"weights":[-0.8282408454944787,0.5610722093498313,0.11080232180823812,0.13771179325505334,0.390394092961708,-0.9897832910830267,-0.4702990932625182,0.9518363876367044,-0.2703778498651994,0.39601829842458147,0.3570023384775627,0.8889053925584101,0.7209841625515032,-0.465244841990744,0.923933255800804,0.6132308013101204,-0.311760046146083,-0.6543521763917943,0.08701278025229509,-0.029230467752111355,0.16036746981692862,-0.6306032956470058,0.0050703422566078515,0.6168043225617965,0.5153611873001329,0.3653116259169549,0.3647441419506767,0.8444392772864453,0.7965401741017168,-0.35201634535199355,-0.5145704358480638,0.14693103659597728],"bias":-0.7050049682781516},{"value":0.0,"weights":[0.2717137673202288,-0.302462762118332,0.15039064862836593,-0.4012673741261237,-0.5693194571222826,0.6633111306312596,0.46940748363328,-0.3415496292490099,-0.48490811080645346,0.8973483046999391,0.7666624543437499,0.5785514347249268,-0.85166536173647,0.6443513830630749,-0.16138747693552102,0.3179771462941092,-0.772601362937053,0.4845366370824058,0.9028448688742035,0.2691152542461619,0.4986192189319749,-0.43748967161403174,-0.5712851362227929,0.7824115673831908,0.5230471053113248,-0.8266828516906897,-0.16860343143651524,-0.3137541865397675,-0.9794791598442605,-0.41024499437795714,0.14049126461750583,-0.9964512925333509],"bias":0.1997189872920755},{"value":0.0,"weights":[0.47794070231825914,-0.6421456747800083,0.43577737106465175,0.07373472430552885,0.02350222130483237,0.6353172541081566,0.8665084092716222,0.11923602079260309,0.9786640877735724,0.6314958674770317,-0.868953415898486,-0.5504710201667808,-0.759118216968715,-0.5521066415154365,0.6050890420041362,0.834746986524505,0.2865731512716134,0.39801992660892793,0.7846257139902921,0.33964170191744825,0.808884497041835,0.529269238513085,0.9608956354916556,0.957974972270685,-0.7536797103278041,-0.7041950230765193,0.33836162347399634,0.8897725114582946,-0.46054458171178436,0.07172799399568364,-0.4996950620494418,-0.7740943421840909],"bias":-0.4712187039854838},{"value":0.0,"weights":[-0.7026901129657448,-0.004217481159912495,-0.935768592139548,-0.22140312778722904,0.9670935579664359,0.0033301601279194237,-0.8462120766078858,-0.6378959730313165,-0.1028213969191718,0.520935799937257,0.04830719264612937,0.7185419006116929,-0.24997678403364842,0.33844710313396176,-0.5524268206288745,-0.18802033695696285,-0.8513887691657229,-0.8322812213656308,-0.08508161595943231,0.02206218886994482,-0.6221519617084037,0.7374452224760935,0.48141835177218284,0.1972523579063643,0.1495644275175838,-0.5962347442863454,-0.21789137374834078,-0.45202817270512563,-0.30147615825315,0.8843653405120531,0.3168145012287311,-0.3671236087082317],"bias":-0.5841600472128095},{"value":0.0,"weights":[0.09295005957115232,-0.8120505013145973,-0.5331099153322341,-0.04174523155567922,0.7325867700715429,0.23990422280007562,-0.13248461767962372,-0.6058522203455237,0.3005745516176521,-0.09058719667551363,-0.4436746933004454,0.20035238130221034,0.4641263810277316,0.29354978937119314,0.24543535046858023,-0.737865514754589,0.38529485902642757,-0.04822445156388344,0.9641428939925369,0.9068923786843084,-0.4947877317401177,-0.21928500768879022,-0.7811870587446135,-0.12544067656736435,0.5418563016570084,-0.06488111272748509,0.2294792486768833,0.7347319917472903,-0.9878060581591228,0.2157228060466061,-0.5504791116420975,0.699560303729714],"bias":0.08034333616778988},{"value":0.0,"weights":[0.6044853177149747,-0.14983540037970267,0.6974500328269404,0.7418523088385018,0.6999515172952746,0.039453923801823665,0.3011451472406417,0.25447310379074106,0.6902544925540637,0.18571729573421103,-0.3552277737037983,-0.2798286473368976,0.19853193735581276,-0.07154313479175589,-0.18205470370177457,-0.6423991737908326,0.8453021996766035,-0.015028372091331565,0.3910446395924634,0.6236343472168013,-0.3053919151215674,0.9989179874355258,0.7042990931876685,0.4928221691752126,-0.1144964973980549,-0.6725977987670388,0.3443171156900886,0.28710688430591746,-0.3022763852148338,-0.07391027947806594,-0.16477349020619125,0.4389130542349833],"bias":0.45869540127225306},{"value":0.0,"weights":[-0.7327932756809232,0.987600046256234,-0.7476306719456456,-0.9171028890773558,0.3131997067619663,-0.42314200372502375,-0.27843775243301194,0.5787965610899561,0.9692105801117248,-0.9361441347746777,-0.22863868249368635,-0.2630518544139038,-0.8495860541022999,0.9238798455030748,-0.09450480686048657,-0.8787591405337722,-0.3743452083177323,0.8162890639662175,0.1782004096154559,-0.011363387449755402,0.1367154337871168,0.3055589244949186,-0.3500965997745704,-0.44303634460350105,0.942930434465931,-0.8645040859376318,0.0440380947564698,0.29917844373979485,0.9037600384318858,-0.8380912923615662,-0.8087578258991588,0.6008265768939618],"bias":0.06014330423714731},{"value":0.0,"weights":[-0.034962286219872185,-0.9711854233983985,-0.81030045437706,-0.31922750281407564,-0.1084404625554447,-0.582541169446519,0.6314496714338371,0.6788209324434502,0.816998699542036,0.8439761296433894,-0.11780924746380372,-0.5604549908158816,0.2728954499597882,0.1977141383237806,0.39887792275059075,0.7220756819529002,0.7490923639744644,0.2402163815026721,0.630526303576247,0.058600874678844894,0.9600202372505215,-0.868340467564132,-0.1519078103139062,-0.7364653658287745,-0.34512230562456314,-0.565695158435205,0.21810820813342957,-0.45441453839141843,-0.8448850500163907,0.38233223159381624,-0.21507243826257527,0.06384999801177882],"bias":0.48732180879419884},{"value":0.0,"weights":[0.8890645446237271,0.5986992600222867,-0.14305246776846392,0.05874955721779518,-0.24326861625431961,-0.38903840303820547,-0.5253973733510702,0.3865591190389983,-0.13943812224272745,-0.842993247640567,-0.6460271027758082,0.19971116014558854,0.6981369110546509,0.8539344981141435,-0.9915899021959169,0.7055443346252361,0.6265707124328268,-0.4344200041291377,0.43423308735099697,-0.7540885976056364,0.35423455090888734,0.7202642440178528,0.7914817182434608,-0.6183949835498439,0.8103733885262216,0.7145835884708207,-0.6224882001333625,-0.6020644816702281,-0.6148913102964422,0.39621862773598915,0.1876817232582646,0.40901228804996337],"bias":-0.7813512099500306},{"value":0.0,"weights":[-0.3089908337346603,-0.05472889059745767,-0.033204770163435704,-0.324834184525606,-0.6756924685320869,0.383164333534205,0.6219990018481032,-0.9253035466537483,-0.716111775427513,0.7727203048071909,-0.7625515156371196,0.6130515123196301,-0.8185430721973284,0.2206420742914672,0.020498623848299147,-0.840499860735985,0.9920684559903648,-0.9074502261744521,0.2196484086158721,-0.8963772352928041,-0.2144721074494773,-0.9276491448106712,0.2214943749552143,-0.38937543319713597,-0.9888842082264375,-0.1706072774186127,-0.6123167064970165,0.9760385393075113,-0.3432572404660579,-0.9592265606060875,-0.6124585384786869,0.9570771287892441],"bias":0.7139610745844622},{"value":0.0,"weights":[-0.3959237870253258,0.0105714301193931,-0.04796891699899142,0.460581032007207,-0.7238154530164485,0.4840245795179825,-0.794244903409353,-0.6645368413796346,-0.3132744582458511,0.17427200142832988,0.8384203831600887,-0.9412925953966738,-0.2999206447992977,0.2167130629934928,0.42635509977692965,0.13662078832797642,0.4377831314528944,0.09747532789412738,0.10793409474418447,-0.6055052362028492,-0.07645116556002352,0.5011767105820462,0.7441195331318537,-0.3069528287459087,0.2760051373831658,-0.1574654193144407,-0.46760403854707455,0.9397041184520798,-0.3503368092570931,0.815624109383529,0.654482206729385,0.11621791807189186],"bias":-0.8240945868870397},{"value":0.0,"weights":[-0.9768983204359638,-0.9676553370529526,0.9288844029450065,-0.6510727141773054,0.2887267731002796,-0.9263238417136685,0.38488586865943386,-0.5101417866393414,0.6100298616032358,-0.5928541677400219,0.10805465577988027,0.4968692010814244,0.8739906008260978,-0.9606343694185204,0.5296152689920599,0.3654754011068453,-0.5628948240812519,0.10965993536896246,0.2242305774113742,-0.8371742280604881,-0.5377618925157348,-0.5246347625390713,0.608941734230976,0.5780650531393299,0.5081696140717282,-0.2704720327128831,-0.017641448665678405,-0.7610137559612944,-0.7162366653588486,-0.06549187249530886,0.45372090697501855,-0.46350999781815116],"bias":0.7124981180699996},{"value":0.0,"weights":[-0.6508617920117588,0.6962194748871182,0.09875765412099424,-0.5482780162786589,-0.2662733691897441,0.6562278032212219,0.7699347294763141,0.012894503590737072,-0.5636640521777114,-0.6401354847507235,-0.026486182698363114,-0.0016802616666951042,-0.6045932043631701,-0.2194301406906578,-0.3215053387512259,0.819360243519553,-0.5620613044235694,-0.6338541327617746,0.8367907933817695,0.25536058757464764,0.8090800768485362,-0.7290240444819873,0.12324321196828225,0.4644131881831648,-0.26188004396865083,-0.4010954461202616,-0.9150092711800328,0.9307182213340885,-0.9724854187219165,0.03452369943078204,-0.6051612868380662,0.5671043342584527],"bias":0.7071985336564888},{"value":0.0,"weights":[-0.8746217877533695,0.8036576175604675,0.7322927415928775,-0.8887321942541584,-0.8251319654987399,-0.40026611936061807,-0.7239966806210425,-0.42543004934803896,-0.7846093477796321,0.9083861173782157,0.8910151795975187,-0.06423569896404224,-0.14646712420966557,0.0030502420121580887,-0.9701869982090703,0.08082149667954641,0.9138866522108726,-0.050572573125568177,-0.5655377135760769,-0.6250402643715478,-0.2446707891662916,-0.632819509714504,0.9318754158443892,0.921461489021548,0.8933736155763923,0.8690532554747346,-0.43735565987540004,-0.22434519260991137,0.1344612633046005,-0.17481987257446496,-0.6598682689731965,0.7979570044740907],"bias":0.14572333020846906},{"value":0.0,"weights":[0.5007413998252002,0.9775283028685584,-0.8634790312387219,-0.08211606608756505,0.32801260047598246,0.7740991775231176,0.9491640315265377,-0.09033499073998574,-0.9007546552536156,-0.4821414204727883,-0.09409973374759995,-0.1575264814662829,0.20470868317950397,-0.2595733727634091,0.2575376986182336,-0.9487751237206385,-0.30939031149285423,0.9508385604821419,-0.18755762262611309,0.10257451568457032,-0.12549627546736697,0.5785921657832043,0.03271171357172897,0.9725208701089805,-0.46880548906712205,-0.7277655598512047,-0.3573588392853808,-0.515515223349132,0.2500150222467481,0.9283045083068624,0.6365073964913703,-0.07337145016635449],"bias":0.8128332388543318},{"value":0.0,"weights":[0.36646507513725557,-0.6206671364801786,0.4644418848912444,0.8705215865382436,0.9201711624944846,0.61343677878488,0.4743885756353061,-0.5332473874271975,0.3782390010151342,0.6152187048143591,-0.7533272948954679,-0.6955911050528525,0.6911955045625924,-0.509239387467191,-0.3600507865821929,-0.8353829273157074,0.6473023268902405,-0.34452526161815467,0.2180691822920071,0.859841335740986,-0.6733341942950648,-0.08783481828180251,-0.8412842169806176,0.6235949512160861,-0.4421408516812868,0.22351080467462703,0.7960523759094689,0.14272462767876548,0.8299979724414133,-0.7308806295110633,-0.955729888283146,-0.8133265499442208],"bias":0.46477136327849755},{"value":0.0,"weights":[-0.816058598540748,-0.8538122948685889,0.5010208391860655,-0.7779049467409982,-0.5060249992033412,0.20082201909475783,0.6579865404262017,0.8742936179656828,-0.8031686895473895,-0.2538865649742037,-0.10552180959201585,-0.6282139948581706,0.17887298236940952,0.30775564166358627,-0.38134919839412307,-0.747675291234589,0.7172774835500055,0.2723453051558773,0.228838782731569,0.6589058038056379,0.6845173187864593,-0.2971671829845355,0.16411041203146848,0.942707348249435,0.25439120309207786,-0.21348026726106228,-0.30641384387758275,-0.9284203554464763,-0.5971199658468538,0.49061655941887206,-0.1479471905780103,0.9161690169146923],"bias":0.15422761661099016}]},{"neurons":[{"value":0.0,"weights":[0.6976374935005905,0.1422952377217901,-0.16072583306563337,0.8378992578591999,0.602676235693113,0.14995898780556893,0.1800483661682064,0.8673228036641583,-0.5231283912444693,0.05464766983368641,-0.7968228760824967,-0.3317671982384536,-0.9638620349975333,-0.8286509608822845,-0.12582410344669093,0.9751108379250808,-0.398499418105835,0.11917443999829791,0.42546930793356696,-0.5438698919750302,0.9971419557188552,0.9897875778041303,-0.9060728671190958,-0.8777340526859452,0.7045305488932347,0.9757885479615478,-0.360949979615409,0.16648458903724817,0.17576960263837615,0.31970958159120144,-0.7079885656618485,0.03605002352139808],"bias":0.3037414386265582},{"value":0.0,"weights":[-0.8428296078036492,-0.36072035634643695,-0.8398705984550878,-0.12099706313094716,-0.14686944329966756,0.6105585122139252,-0.313483028820116,-0.19349347371117376,-0.23193197035998248,0.21930088533859138,0.825438899943661,-0.7517213592724599,0.04130267825632861,-0.004934579215607249,0.9550403151087297,0.10758869449839925,0.9415749167976308,0.1505017918058673,0.5122978124917852,-0.7118006161250905,-0.38962012460716333,-0.5582338314961219,0.8747402331615717,0.35540747578161236,-0.38855195416496136,0.40968303955974594,0.9325017711886201,-0.06703502384868298,-0.3998456686310705,-0.7700130018335825,0.8568725166574891,0.7644077340510416],"bias":0.40656806717514393},{"value":0.0,"weights":[0.7544915435416824,-0.3093495804774822,-0.12291457721257881,0.21492631021738395,-0.5089506509272814,-0.18275812158225024,0.6094516614313885,-0.16267503842978992,0.24868329318769655,-0.8904036735009957,-0.6030608327861002,0.275570897825836,-0.03471700147503043,0.6167022743001116,0.1590101450744903,-0.07916899046244463,0.838777827885137,0.014512465973215427,0.8897381154086128,-0.4381370717785742,0.29871242386433083,0.729806464538258,0.6265424156302946,0.937623776359414,-0.4163331992775845,-0.3603603729478717,0.35646277170624363,0.8341237872682499,-0.2690216987717322,0.5556677042956195,0.6166268341867629,-0.794678217890791],"bias":0.6395280556311691},{"value":0.0,"weights":[0.3217777513870619,-0.4446708752865509,0.8232513198447475,-0.4739432796934393,-0.7149042847646467,0.042405175302765,-0.6995450532408827,0.5960846620107108,0.1445823694068673,-0.9476490440189425,-0.021803154365279687,-0.0026608511397570034,0.7380695443936685,0.9909028010109233,0.1368130357683881,-0.7176585793282657,-0.8022705392399745,0.8955586289310629,-0.740049833127588,0.4786348471137891,0.08561001350123698,-0.4872126334634612,0.6723335479182813,0.6157440457008876,-0.38498909060612174,0.13943819460272078,0.7710963794602443,-0.9073411299070666,0.8701138733015557,0.8131283781037499,-0.7164073480787416,0.6239410805103951],"bias":-0.36126103233331897},{"value":0.0,"weights":[0.9461521846398833,-0.4899936606248816,-0.3314322694525287,0.23821238091215924,0.8197204968947944,-0.6530390619613446,0.22414049243886058,-0.20868816451766836,-0.5098942656312166,0.03872329938085173,-0.339894213974381,0.8002171449344528,-0.39446752260014617,0.06548668226363574,0.8671469136907919,0.06763335149047389,0.39241948089421097,0.3536085365381374,-0.5840761286036833,0.030214779166325423,0.6418449173454099,0.08056920886751695,-0.35314696144435365,0.896398957512704,-0.08812779148896288,-0.2521919168017537,-0.346365969852404,0.6208740589895023,0.35863869253743585,-0.09251517465114545,-0.0232525455632826,-0.04963942962398016],"bias":0.055423237789272495},{"value":0.0,"weights":[-0.0453966031269839,0.4891613442167555,-0.29297286381304044,0.9887970600922511,-0.2661722781317204,0.43500181751953004,0.7200028747084055,0.7790463132913927,-0.6392918438268445,-0.12704326941837585,-0.6279122834991855,0.17268364611807385,-0.380071526878756,0.8796993972903286,-0.4020966315792942,0.17292777718457164,0.5785740629108929,-0.2153678336953424,-0.6486312757385064,-0.7003410116042856,-0.35968748016948493,-0.564232054562191,0.05452310806507987,0.5784421281378493,0.16676773325086702,-0.9624185198977571,-0.6536379843281175,-0.9369019859657863,0.005261133700116272,0.4551789282498373,0.569490868390647,-0.3573834633411497],"bias":-0.381123868228338},{"value":0.0,"weights":[0.045149081101793165,0.8640421435366219,-0.7945291306698656,-0.29846220564447745,0.051976092939468144,-0.517557456202163,-0.63084284617364,0.5902401977247644,-0.6000913845304026,0.995257286363213,-0.06994999665305257,0.6913415135363314,0.31369548151781346,0.4274789977503759,0.948430129004671,-0.8891324254647697,0.6176150987637361,-0.9537303722528387,0.9558054009025789,-0.7914494433931438,-0.20926045027631157,0.5153045305731261,0.15641224914473084,-0.5252271475749182,-0.10260821546186638,-0.5624924311890731,0.6920511496036275,0.1913188268077637,0.3652680261682246,-0.07289155846218609,-0.9508264166268139,-0.8063780184335319],"bias":-0.21251854630283873},{"value":0.0,"weights":[0.7835921937193544,0.5094052217131508,-0.6099130830984345,-0.8988322927316148,0.08425240700783054,0.17945497105583286,0.34445453517120384,-0.15623879652848727,-0.43129904781335715,-0.41637489585243004,0.19007097280359853,0.1766638678310517,0.05782574821278108,0.06190304996095075,0.42031013458763233,0.9256714993879613,-0.6686693041245362,0.2888824239882908,0.6872915675663938,0.501136004402259,-0.6178683468493189,-0.8864755442850241,-0.35857475087868274,0.159309112325428,0.7725223322487116,0.6170381150188238,-0.9427949998478233,-0.8823001985182914,-0.06383364831733296,-0.20407732106246734,0.016064636483581918,-0.25894145419997483],"bias":0.24971536175554054},{"value":0.0,"weights":[0.5994810491555864,-0.24500041010957507,0.9931185294554525,0.05715423381231188,-0.8141205056296597,-0.05995143202136122,-0.8597618706471026,0.23355839436970682,0.20809297468418753,-0.41338006760181045,0.2966059580619733,0.5502006568946762,0.7008435096138637,0.6240388675369539,-0.1833156829201772,-0.8480538789045473,0.7119015377799711,-0.8104195191339476,0.7690831150760451,0.7581258937031801,0.20588877596634125,-0.8623534670678461,-0.23292819632254091,-0.1483345671122207,-0.03401533864170747,-0.03736755333245467,-0.7155478487826672,-0.6444579583947674,0.2287051596128753,-0.6405770896933227,-0.7484687077729912,0.7753930953559318],"bias":0.7016102311522938},{"value":0.0,"weights":[0.9833450106658754,-0.795551297805039,-0.9687644747891602,0.5091838477928907,0.6217971158376747,-0.4478722909390258,-0.24210054456108665,0.6472188511074848,0.9526647050653305,0.6286365006333268,0.7229179217159585,-0.38984020749822434,0.34002246542989756,-0.8852389275371901,0.19225667821119874,0.39767796553925394,0.7055144489195289,-0.8588945351223833,-0.431592690828855,0.8158742130352707,-0.5858060642851695,-0.07394690633279999,-0.5679910552008871,0.2735929580098011,0.3264950987660873,-0.8445632060931152,-0.7626970883992523,0.04471885562429012,-0.3066003294374533,-0.5232188046298691,-0.6566329685694583,0.3820146227887664],"bias":0.6091880130298177},{"value":0.0,"weights":[0.45949717452166006,-0.1927847736979693,0.002825414590806652,-0.7089313989109784,0.16342319012926065,-0.5785100942925114,-0.5857604317394145,-0.4979291829883603,-0.9383757557740489,0.8486146307668989,-0.6949380228147457,0.040576880441003604,0.47937464659045803,-0.61508452299791,0.8042213622541541,0.2682585791315082,-0.06023352604694021,-0.11763986698503404,-0.21000080381849373,-0.11982427711818167,0.8474016345780531,0.6622036586062408,0.6317323725318769,-0.582116224163929,-0.2048603114391203,0.8739720227398584,-0.24459127705786443,-0.5436972028827649,-0.5551084822653984,0.6848533867971198,0.24683919650396113,0.9324264742780761],"bias":-0.5902476762967821},{"value":0.0,"weights":[-0.07129067290172397,-0.6591436184874033,0.7343401657161337,-0.12653627521151578,0.40055697796619105,-0.9077455375248851,0.6319082822912827,-0.2751675501149822,-0.14848382872959087,0.7839525419512308,-0.09411906453374508,-0.9754962507195704,-0.0791464267179034,-0.2998736383300935,0.6200616124778153,0.19530956908195618,-0.26410153083812316,0.776822218157218,-0.6184330004278358,-0.007817884887811655,-0.2827552906916935,-0.6601702784759342,0.6471017305741609,0.59926163990706,0.24579365856779112,0.6493574527115034,0.15856088590190276,-0.6144783081411065,-0.7201657740180578,-0.7066795287736904,0.9291638311671926,-0.17345763827508565],"bias":0.4119622418566762},{"value":0.0,"weights":[0.6058142606730827,0.3517136898581015,0.8910748438885983,-0.34744497116600415,-0.7653841950193168,-0.5365325193108446,-0.20544029139992248,-0.995297817563308,0.7413170673747072,0.17749185276029356,-0.5622262474729562,0.7590454085956817,0.6899632797819959,-0.6217286288824306,-0.9227016823333412,0.45373187419421934,0.06483256943367821,0.17972522625019383,0.8155160062587508,0.9332370923444329,0.055260333610477774,0.35668035177995727,-0.6486409995135578,0.967999043265712,-0.7448238224607833,-0.01376118892234568,0.09904809784791824,0.5687179230493782,0.1472879227742292,0.6733676677881963,-0.7394234105071522,-0.9692166391495196],"bias":-0.2455036186159274},{"value":0.0,"weights":[-0.614568837877969,0.728708997876025,0.30093117775703715,-0.23468057842111545,0.883274655624456,0.8007803193008496,0.12737186011737878,-0.7193851728782441,0.011861028442798016,0.5995971439341956,0.6362746745968071,-0.7603313530341649,0.7013505114791401,-0.17374247715353386,0.47163100659293455,0.9203408414599399,0.42990583116175873,0.010722046391747897,0.4421613957249202,0.44373840461817404,-0.8876053340151413,0.779484320595299,-0.26192811155126505,0.3043949468128313,-0.09544667554672737,0.8257044609265907,0.21210479128760595,0.24613283803041752,0.25006394881317173,0.2456853791847584,-0.036528930354676525,0.3164319257680259],"bias":-0.6233872830876648},{"value":0.0,"weights":[0.6965863734423772,0.5198908640511635,0.8793954985818115,0.08410759831877179,0.4337851809430755,0.2821097457474073,0.12716941600542198,0.8338495760368616,0.7023141962151134,0.5768997676460066,-0.7980640438267212,-0.5451078046102802,0.18531340219038173,-0.3413067463706885,0.42536964598835003,-0.8402220803519649,-0.7465430575652263,0.3066393309967723,-0.6702924013752853,-0.5057208852475938,-0.38717308372924397,0.2830139176121875,0.19435353729576055,0.2613888113651437,-0.3852772369165438,-0.14944727965508853,-0.38580140997350143,-0.028083173790412808,0.969411063924011,0.7904198643971965,-0.7393904948575079,0.7526606589635731],"bias":0.6483903553692274},{"value":0.0,"weights":[0.9191634709997198,-0.5567010508336867,-0.3939887499922188,0.8508221854054709,0.9721513439235441,-0.6589406443101167,0.190243937062597,0.8693335845380508,0.9026195488812625,-0.15839379003653908,-0.12236441015845823,-0.6681655109038083,0.13960830610267294,0.8155440736297443,-0.25206012829938995,-0.5541440407329763,-0.8453005495262673,0.3467318650725433,0.3876430116036631,0.1383535043316133,-0.19338918473902922,0.9510919433474376,-0.10918727381778326,0.1934736555254155,-0.6356570897764682,-0.8618285728822703,0.29524438115038154,0.4568585524411637,-0.14628473751923687,-0.19546911182374815,0.8379983224240359,-0.2823666485909937],"bias":0.8968353897982169},{"value":0.0,"weights":[-0.1046996763793615,0.8773133116035345,-0.5172629947325518,-0.16135131217115584,0.5300087078451916,0.10327152888364255,-0.7257268992704726,0.7422387839139173,-0.6389414654111407,0.7474814934179661,-0.6909277265807776,-0.3830760806574265,-0.6820173931059437,-0.0975650530328489,-0.5393264238154636,-0.6854572472923834,0.08788590570608434,-0.22591363597895686,0.2574488150674248,-0.06330256156855985,0.6922409640010248,-0.28340866671523157,-0.6633928829983886,-0.36675471510146385,-0.6575289986126103,0.23603413495605174,-0.7476640265719832,0.17193352793031114,0.39152006119996985,-0.19963754841418058,-0.17265295142300685,0.683779092618181],"bias":0.4287681362158431},{"value":0.0,"weights":[0.2556398608073154,0.3406136208165207,0.8579360611193023,0.5622778437642066,-0.07588354039110556,-0.2398998038857847,0.04143400720767887,0.9256008313342623,-0.9524919702252053,0.9578016111330983,-0.8066886461639651,0.4891874744373832,0.13926692700997667,-0.6145758193856632,0.4493082060032525,0.756145827773355,0.022515345274850107,0.04255621237815865,0.1724237509196036,0.5899130657126035,0.8557053958891037,0.7351931493802173,-0.20371581839181396,-0.33535888688199833,0.28595877610358,0.6009952081329497,0.512407354210856,-0.09926975046763986,0.020430356561001117,0.6686735144852902,0.9090915234966723,0.978099853657395],"bias":-0.3541238094001453},{"value":0.0,"weights":[-0.1775849964821028,-0.9612045111574941,-0.22044616600008204,-0.3135650773807259,0.958272502003084,0.0725189170710494,-0.8111395348913626,0.13198637837448568,0.34796164808056207,-0.3061688786714156,-0.9470646296124996,0.7609156160035977,0.2665224116512914,-0.3081614821974139,-0.6852201655195214,-0.31984207728798775,0.7938184405737279,-0.16847962247029025,0.3335926565144989,-0.7781343660957436,-0.6341376385334829,-0.9884958331958318,0.23074028389920365,-0.17160828412799511,0.13047257941845247,0.963491524637502,-0.26496568729455583,-0.40788652660612446,-0.5472196573423018,-0.6958129922036076,-0.5519678949704911,-0.8435432111459864],"bias":-0.43106887431530394},{"value":0.0,"weights":[-0.38027752577455143,0.7098412328835411,-0.04012895442008957,-0.09212128474000547,0.44421019533284567,-0.681825367337964,0.3923960656361154,-0.2897039044762182,0.48819861916658325,-0.7618318486823663,-0.6651472636869722,0.3534242263012828,0.2794456731007844,-0.8622611963125084,-0.2364204170976385,0.5957180209962323,0.49756410616877256,0.0930271126772435,0.6290284276578522,0.35994653046924396,0.7157354125175694,0.1307323073838773,-0.9455773187591034,0.03252951846691432,-0.993171598568549,0.4089156537798708,-0.9489274220888582,0.6534467867294926,0.9278993602821737,0.785111510033133,-0.5901680452234794,0.5238824392497428],"bias":-0.9803763122746312},{"value":0.0,"weights":[-0.7196473083207424,0.20357247868200212,0.17477901448171518,0.6113929470381121,0.5199814535088143,0.42344100859397926,0.8679941389940098,0.8130496826831715,0.6168834214615235,0.672057324883196,-0.15723289109238658,0.6886765995222097,0.1600469336593744,0.5496989152238829,0.37371807332529583,0.9672436358102541,0.9811169783570954,0.3949114694679037,0.37261943913839946,-0.615640562196696,0.19387695650646886,-0.6211264761443309,-0.25530691007461837,0.08961369044749246,0.6363587188783029,0.603233841487699,0.0012038841921515608,0.08318000231664513,0.2925454737747266,0.8140326178576343,-0.26636512822678693,0.7679221005868213],"bias":-0.23380840609868958},{"value":0.0,"weights":[-0.3802940990717063,0.47074572204709897,-0.11511349477751942,0.06521008482479806,0.6890648209487129,-0.8316690030360472,-0.40579379536056503,0.4420249763674575,-0.6944685947001594,0.12251091387676238,0.2700787504400084,-0.47180772294162665,0.8668031432939005,0.4509029059154035,0.6976252126990401,0.016806947554518725,-0.5554905475324876,-0.547962816088148,-0.20892529137649407,0.2641206385472459,0.35631355960631517,-0.8681032668828461,0.6968619749334939,0.9187395041693842,-0.14669591039968455,0.9774754220536908,-0.7981361532716653,0.7477005404493056,0.48841122740573506,0.6607660409119882,0.7361435034078803,0.8242823117878153],"bias":0.5303994897825699},{"value":0.0,"weights":[-0.2273959965808381,-0.058790084688434385,-0.18532829193762534,-0.3115334561984904,-0.08569160243624374,-0.23105817827920005,0.48537379044468576,0.46881566730098245,-0.48392152256385823,-0.617034244849076,0.7505174910031602,-0.11443606792825656,-0.395381535427791,-0.24658190480693953,-0.4120236829185586,0.9136094688569254,-0.5915209134410371,0.7676623047861506,0.9754869086355231,-0.9029245180991532,0.16812074248305553,-0.07632765385255902,-0.36728363167448674,0.03328678308761779,-0.1912815668875778,0.22943468349087182,0.8024930577179239,-0.7722875611445208,0.2372431649387896,-0.19913860590566457,0.5641817041807144,0.11412482507967181],"bias":0.5069727424853878},{"value":0.0,"weights":[-0.16765233461048012,-0.7555500134256343,0.6221163242342713,-0.703704609426886,-0.8917523915159937,0.37543829670468076,-0.42549493566798513,-0.473503792959888,0.03018310630301313,-0.6523895544330398,-0.5899472148205189,0.6231133252212235,-0.7457595269096735,-0.585670404009293,-0.7476931373589926,0.6834881066353127,-0.536248524875035,0.027467169517402024,0.18327080555215836,-0.881966946503483,-0.45250589897029725,-0.381879385987385,0.7309973214072463,0.9605638188905821,0.5097909602829611,-0.11622000245265074,-0.9569113063722428,-0.8782438854626486,-0.1918771664094907,-0.5969511624952757,0.9934798906345348,0.84140360816004],"bias":0.941372424886131},{"value":0.0,"weights":[0.9712917393047338,0.5577708927240845,-0.17633110135694086,-0.46090251926855985,-0.5646548492098644,0.19276441855137016,-0.4194652919710993,0.992873556750719,-0.9973052198783836,0.6687569563127185,0.36217891916670575,0.32188476855777926,-0.9897127583346061,-0.17147923800824993,-0.28098832137947927,0.10658534914152984,0.9604112893671262,0.08480546712708215,-0.7813702321916691,0.6003923281165859,-0.7341529827741495,-0.8814212294238986,-0.8680429305744941,-0.8299886083149974,-0.4062506625345166,-0.7968842531644114,-0.9936419409808868,0.5172820441395278,-0.04250396244060761,-0.1455626838278994,0.9595248328212604,-0.237075317779204],"bias":-0.5044847846980887},{"value":0.0,"weights":[0.09648943543846777,0.2564543355729785,0.9667140235685574,-0.9792699677431356,0.5298440928914145,0.2728493581334568,-0.5347569098953495,0.21202049693455605,-0.39440522794447586,0.30179030224293335,-0.4724166084544461,0.6478761351378168,-0.9684903213339964,0.8265421094718115,-0.7392135823206145,0.43091822704901417,0.07539567116460355,-0.13912428435568702,0.4413134412998274,0.10574454288984159,-0.318982312031858,-0.25070133731416044,0.005120486419324388,-0.3896891335001247,0.7748084706615002,0.4231062988044274,0.2982661684228747,0.02068747306090435,0.9169936871539279,0.5241786760159364,0.8715504442534017,0.13881230881099516],"bias":0.777997502720583},{"value":0.0,"weights":[0.03696626184053131,-0.4031660009136553,-0.6423721427401636,0.40659552155831036,-0.8898789019528588,-0.8106736973145066,-0.5647452291674044,0.670931438983098,-0.397252979176977,0.8392745324541464,0.8196203618823306,0.8753872042807589,0.556257400860672,-0.4118776213234141,-0.012773305367701937,-0.3514168223994676,0.2713452640721232,0.32835101905988995,0.8945069487001862,0.4446593883186345,-0.039414962317545266,0.8628542906572545,0.08748670054359264,-0.33536360303542057,-0.9492974608897788,-0.6711593810819869,-0.724770238653756,-0.23474150251841763,0.12456362980167679,-0.5271051590916396,-0.755183857289099,-0.45003989981796555],"bias":-0.46135103265828104},{"value":0.0,"weights":[0.75797401050597,0.8803638033524956,0.7369869565987162,0.7551968122154866,-0.9102479686529172,0.7458723192814889,-0.8874053205989159,0.6633132700225945,0.06886748541500354,0.20143173183781338,0.10263756502739585,0.566161751034546,0.10727154333399702,0.344605588937962,0.43375134170081253,-0.30613719510688053,-0.5089888554896418,0.20356336661323104,-0.29427606756527624,0.12954885977420827,-0.4715740400371624,0.5558019839856068,0.1595392673381142,0.52113379693701,-0.7081249096423197,0.5060625815279336,-0.29903035166847003,-0.17022524425384877,0.14275358298929786,0.5293146461941112,0.3274826093129519,0.9117169767799813],"bias":0.2214488985705354},{"value":0.0,"weights":[0.06944374569021217,-0.4933809866991903,-0.22876980608630593,0.40850907815702175,-0.018453653839817452,-0.23310977447614656,-0.8241409869716703,-0.18049148453650443,0.11550042609002098,-0.21236866715187408,0.9912261535360751,0.9535885179550778,0.16074493717564242,0.6121403269803869,0.07114342879872781,-0.2975216212583145,-0.4930309592019617,-0.7411786217014782,-0.17020011052926964,0.10929133868713214,-0.6773246098244978,0.9679427396294187,-0.2736870421213764,-0.4273912250229397,-0.6866507049006432,0.5970091630568708,-0.192055742430701,-0.609018323421517,0.6932297690122817,-0.7343589622323037,-0.8132038827635317,0.03487385621293759],"bias":0.22369623337866074},{"value":0.0,"weights":[0.25124037205750493,-0.13417776965548,0.3397118829232366,-0.6054611626654407,0.34961755952194484,0.6835001542027983,0.9328462861276359,-0.5068143191931569,-0.5598591241578872,0.31252915238453216,0.6388700422478535,-0.6888536566083718,-0.16713701877626397,-0.7735665122318969,0.351880966755139,0.7692958048180307,0.12546784428348468,0.33896547125560184,-0.08008533397762108,-0.6271900726380089,-0.2392259874967213,0.6247193105801885,-0.04408366973040745,0.32536760379298246,0.2509188797373294,-0.5546178791592373,0.17125881802925713,-0.7695096617225041,-0.877759543204282,-0.4654364246049103,0.8219567669710084,0.12690626058334042],"bias":-0.2105551801063963},{"value":0.0,"weights":[-0.3648381259993214,0.16436590514788896,0.8020913107165968,-0.7529145177938461,-0.3632604756974336,0.43629771169989073,0.3379062998102065,-0.3911437070406669,-0.2736025443037764,-0.1888797609689774,0.6645134125651191,0.6289204517350933,0.545151373532627,0.016556855510030166,0.5335228344841183,0.782600685751695,-0.36716873172130926,0.8665342299021046,0.7685834540587837,0.21247742765365074,0.5480392376583043,-0.17642674185308205,-0.08859987451779738,0.23841585315660074,0.9657168495348716,0.8908550944322651,-0.5465773349022547,0.684481935826589,0.7833889341812537,0.62723721721342,-0.27178016986698394,-0.06972088592949843],"bias":-0.964736780540653},{"value":0.0,"weights":[-0.11486650973097356,-0.7631843964235692,-0.192872191628509,0.9501073069027623,-0.009686659877584436,-0.31196864658750756,0.9849007004939234,0.013546377941538124,-0.4856834431559427,0.35814286760847924,0.3332176292253095,-0.8434721137415269,0.5343190637704331,0.5089271399375053,-0.10890554603789049,-0.12051820411718683,-0.6680721802644514,-0.44956067892967155,-0.4579698609294116,-0.9921930561258774,-0.14847841042737264,-0.6053749032569593,0.2669081814627927,-0.45096414759166503,0.920396631927624,0.01814121826763948,-0.06502180130158863,-0.4662254937991386,0.22711549369429074,-0.3624794769064994,0.9935745020274565,0.9906230440870221],"bias":0.80816654266389}]},{"neurons":[{"value":0.0,"weights":[-0.9029157201251932,-0.8698810794198921,0.05880174049312292,0.835643220160027,0.07977085490121394,0.005345973062945042,0.9082207366874115,-0.05182481643391568,0.5733146605391106,-0.5054209538158689,0.6152471769238779,-0.4242785531673259,0.6589743930086225,-0.4757236442100936,-0.5665588288027681,0.5601785144182183,-0.8627230982411549,0.5539576705484599,-0.997955195673184,0.20713572565820115,0.7650068146455395,-0.9709893981391311,-0.048973656532002474,0.6036312216653497,0.9499393352120167,-0.28223062325622394,0.08999627984286862,0.9543654185931896,-0.3654227815367699,0.7466462698906258,0.9093278524757207,-0.05746358651925676],"bias":-0.6389006142750553},{"value":0.0,"weights":[-0.6400106100005503,-0.5246703209869918,-0.7593977008134005,0.5100662656603363,0.9567285814426965,0.9673351309416023,-0.27208314508446496,0.8106829553692569,0.7937641866566134,0.08308707129822257,-0.28367573991285333,0.789209314991806,0.8964419593149904,-0.6701864874461334,-0.458559730823233,0.22684242778516017,0.17934957005171315,0.8219042863417518,-0.7535123396392367,0.8921866224375308,-0.44393993604665183,-0.3778843163549501,-0.23280616599292636,0.16867961255458974,-0.09566158830156679,0.8917442767859798,-0.9795999639884705,-0.9273167798002131,-0.8462825162395313,0.15622798846706876,0.6056710307961712,-0.08110740125653426],"bias":0.7974212238600469},{"value":0.0,"weights":[-0.15385275075603322,0.4483361860499091,-0.10051881344388391,0.5785649014138026,-0.06038505779671555,-0.3559676276228467,-0.33433335839077216,0.4594834889235282,0.010559937813497733,0.008959759833026881,0.6351464891030691,0.591370698244825,0.2784237635865974,0.39670350986445246,-0.8038805551300672,0.5168749821242533,0.3583064615767344,0.7116129556894708,0.23837312781860587,-0.9283686894684122,0.32661229616394527,0.7303724680038886,0.5141847213696857,0.059626853490732046,-0.5542367850208536,0.33753724631489757,0.21654698399599392,-0.8997470727720669,-0.5674384808713655,0.5874490176533442,0.8594970677673084,-0.42003450524349595],"bias":-0.5247583953090114},{"value":0.0,"weights":[-0.8759131978222294,-0.9449080028311267,-0.8331330229082792,-0.36526328288454746,0.9220481583819069,-0.8961601745811163,0.18441358077197,0.31855311585151447,0.055997871148217415,0.45016085256290794,-0.7091583777935788,0.15795831616489298,0.2625607347071768,-0.9982805153782814,0.37379843636565946,-0.09141750422349548,-0.5722237524746705,0.07123302471111215,-0.6549473851707435,0.2618460529200928,-0.1851264387100644,-0.7283719489293679,0.6080504866677103,-0.24250673152038593,-0.15873455207403597,0.0801826428903345,0.37147488519405836,-0.707001755777966,0.5203011120303955,0.9845566187697157,-0.3051460032859581,0.5460661228833539],"bias":-0.4916994843471223},{"value":0.0,"weights":[-0.8666215571292997,0.17765817249853932,-0.7075310848042269,-0.017707942643943264,-0.7636773141624325,-0.4587868519346874,-0.9200303206927603,0.5816118334075462,0.09337837494362322,-0.9968509647203809,0.010105491766407848,-0.32402772748828146,0.5802727438156132,-0.6930046844675664,-0.5168854665919891,-0.4992631815037665,0.1767817734701207,-0.45507862378522246,0.6773090855406467,-0.6454123541548451,0.19692409252782128,0.49951484506247135,0.26271059632297056,-0.687490932641315,0.7648007191418862,0.13087848810532288,-0.6102198186991816,0.06690856321874272,-0.7228926932066981,-0.9517811468499979,-0.652408292720855,0.8346805653621274],"bias":0.3024578613208184},{"value":0.0,"weights":[0.33048883058535283,-0.5481876340052045,-0.3003411538024148,-0.4048280787678935,0.8985385127405241,-0.29863094140889723,0.504043763844582,0.6175667737695447,0.7916179929693379,0.5336962687187385,-0.5409682496986792,0.7488185923085418,0.16396750990376674,0.6119761129091048,-0.9859857024881253,-0.9277259200722843,-0.4073803362702926,0.9937961866633611,0.20535513041790354,0.042119484288448916,-0.6245691468785657,0.2591679682507406,-0.30010566487833734,0.29669863493957793,-0.10125237011630284,0.21686238608448782,0.05496875219557773,-0.5117104428905204,-0.13299393780606406,-0.33846311789775263,-0.6641206626202656,0.7082578034230491],"bias":0.6031142293537519},{"value":0.0,"weights":[0.32014115093725515,-0.8366241285875071,0.9087714416139709,0.8370592182560603,0.604607521070269,0.5078703179709949,0.35702599914925615,-0.9968799549530145,-0.9211550725152069,0.10373177701811787,0.6051963268237095,0.12385904929556069,0.6515728576087152,-0.773845841867024,0.7190946501087672,0.01582997569395128,0.4225457253055065,0.7547317327702865,-0.41921685762516026,0.23473062369377518,0.8382353382839192,-0.057985258753459945,-0.0348484416124244,-0.9693296133322022,-0.6459464283331704,-0.8880390613437714,-0.21226095806251033,-0.332188456939817,0.15371357455050116,0.6323373237411622,-0.5691571865856819,-0.6208021759399207],"bias":0.21195173108896692},{"value":0.0,"weights":[-0.0632313659029684,-0.6227769613953078,0.06547368209498505,-0.5915211026209264,-0.8837316425535011,-0.4845210953276633,-0.0034112823784535617,-0.8589103860082257,-0.3432704547308254,0.4284356341624076,0.23847183193200006,-0.40871685570471694,0.2679935820189754,-0.26435125621897315,0.302050678936014,0.0843799736369184,0.4317542173972928,-0.8666027381992993,0.5998827864342897,0.3165406343633388,0.28969685589484606,0.16030278010408816,0.6960548006324907,0.2111564669539343,0.7999117472761994,0.9139772963931079,0.04789698785402141,0.46372666824899333,0.7087619632531699,-0.04613130372830021,-0.036548029157954076,-0.930040120091735],"bias":0.6423429561721554},{"value":0.0,"weights":[-0.5522630861597504,-0.1634751442813298,-0.38964465501764156,-0.7367195832168818,-0.7460381338479634,-0.628464580106235,0.35553297001538886,0.10411258953471769,-0.920852550703408,-0.5267189968601651,-0.6399013101711903,-0.6600731768131916,-0.8897472049395498,-0.24788812729365706,-0.3711539627499236,-0.2832939785127795,0.5927477592938315,0.18290844950560947,0.16761028721971782,0.12826571038058532,0.7110543654916577,0.3566443136312052,-0.7278912214007589,-0.7498391001576294,0.8248022524809699,-0.023794845415726185,-0.23838519779634848,0.1555508617853052,-0.37580842990073804,0.7735283348723565,0.03032903858393987,-0.9050314244739213],"bias":0.8170265909867751},{"value":0.0,"weights":[0.8630157429594647,-0.23217232784544617,-0.6339194648720974,-0.7212845027744978,-0.3034353568948278,0.990982741212314,0.2561642240014037,-0.10008562612279448,-0.7515491220649533,-0.3667348249941935,-0.5908289434425709,0.41402507026942037,0.8336907534017735,0.35335613722966874,0.650882798925718,-0.05068500830968303,-0.9486034571177742,-0.5464902631080322,0.29981069228288737,-0.2770419471233929,0.74503359571902,-0.16087643565728382,-0.7018732537814782,-0.15232115985788353,-0.41562435553634836,-0.19550909101548197,0.11605704849527032,-0.5845854618833533,-0.10065386243744001,0.0957231208828806,0.3148084648066998,-0.42832149788558893],"bias":-0.9099776063600271},{"value":0.0,"weights":[-0.8196537941488562,0.8972397676706771,-0.07092489581632133,0.7378900312050389,0.9440926310218238,-0.867870743932935,-0.8843185997836938,0.4798503644206147,0.13892284607250427,0.4070317869180775,0.5137762736409097,-0.9651725066199657,0.822328555323832,-0.15364190904030695,0.31666433276768635,0.29451952673296455,-0.24351572547837486,-0.07454902882791958,0.9161055034479788,-0.6568159168968923,0.2768300310331251,-0.8819280184246283,0.33012965535676764,0.45776053764807023,0.49318276035960396,0.733854954760603,-0.1092214634929003,-0.1845547273828405,0.852490979002793,0.5339209135616418,-0.2664154284738931,-0.17007682912964972],"bias":0.7338251344802018},{"value":0.0,"weights":[0.4569917939093395,0.7653615058796628,0.187849684107533,-0.7664974936330962,-0.15502035230860334,0.7341464639058395,-0.8799313371442343,-0.5352528167067128,0.9261686527653177,0.7849002200778648,-0.7825593198100034,0.9863280203218439,-0.0042509360835514265,-0.5431632424713437,-0.810950862943637,0.6105995637723192,-0.27239885959739873,-0.5369807857018576,0.36093949374143475,0.7564140420776599,-0.6421307779404157,0.7901257549069651,0.4264400364265406,-0.07112633060906326,0.10000586411913659,-0.33394716791178825,0.9845020172100536,0.270198435990886,-0.9173931428089983,0.765290889903272,-0.2596129974002843,0.2674640268696422],"bias":0.07086130940284252},{"value":0.0,"weights":[-0.34322855614487713,0.8934220048412558,-0.006020703740638567,-0.013819964814392849,-0.05384884710139359,0.19943079336186664,0.36458951736506284,0.417860999180077,0.8242643365492377,0.47084303147340756,0.8012064893125905,-0.11801810325447049,-0.19426050645990456,0.8653719003480487,-0.5666178004978573,-0.14776301443422435,0.3265429620768294,-0.7854583813870544,0.4997588409584077,0.7737665581110358,0.5664769221479937,0.8562380562570009,0.9697431105742198,-0.29967651113066984,0.37242576585182063,-0.03915560701630971,0.5707688025067259,-0.17614076914534693,-0.51959058429131,0.17841639781807617,0.3850267646477634,-0.36488381401535475],"bias":0.3454986227727055},{"value":0.0,"weights":[0.5847410773122022,0.9705576594369378,0.5104534352665877,-0.9739286653671588,0.36701336949748176,-0.4348823467177869,-0.11072660145137836,0.6631004391575019,-0.5347430614967321,-0.6527563020249671,0.8880575932436652,0.9985367989318632,0.4735047153233438,-0.0425395174971408,0.1911609325676329,-0.9022674776833537,-0.4948540285732854,-0.47641445621918366,0.36515335364923884,0.9692226554861192,0.43973782425272634,0.2876073474290737,0.36263976273743603,0.11939529533823623,-0.006031929059394869,0.5976233712333494,0.9131285172015766,0.09200423173829564,0.39734935760540013,-0.4931561982867494,-0.2573401505281676,0.6534731371314717],"bias":0.36926841714981173},{"value":0.0,"weights":[0.512680450834742,-0.879453071240663,-0.267792358404239,0.9316602302723929,0.07245641224515786,-0.899278523242663,-0.5201047505641556,0.30533022578904867,0.4482878375285442,0.006817563311710462,0.8950403604160342,-0.15088943870026106,-0.8377951559381773,-0.7957322286217974,-0.6662536633954752,0.4973371775607769,0.8835939372959669,0.009325695082479601,0.9300225086558149,-0.5127025148806794,-0.07543993246014269,0.7040703727743456,-0.5423404555389535,0.13205192615767003,0.6848222465645031,-0.9419115792409389,0.48798221508659445,-0.8933222017227131,-0.6337280436722372,0.5016702302452996,0.8325543176018624,0.1320290694059445],"bias":0.10361252835446022},{"value":0.0,"weights":[0.15199711333139043,0.20717632196556268,-0.5970021588063734,-0.02117152095727648,0.26293729980325176,0.8132810671075514,0.8836516201092632,0.7908960603198931,-0.6492907883378292,-0.8949000628247148,0.6795141246229817,0.7053687250093139,-0.7581896425709302,0.39573591898285265,-0.902355152711301,-0.581397103056764,-0.4037478542092392,-0.8474530847152719,0.7180658933562212,-0.6503870643598961,0.07828026890069406,-0.1579923411942723,0.8254735701486011,0.026204973126206843,0.2784014901678378,-0.9935161662280505,0.8880630027224119,-0.9716286205957689,0.7346786929070253,0.8901191445278276,0.4206860456347101,-0.82178411869682],"bias":-0.9316605362718295},{"value":0.0,"weights":[0.3782996208668432,-0.4675488204007838,-0.23080524975438776,0.23433521488997977,0.2749263906913306,-0.2657334749821556,0.543475290884033,0.16155159358195026,-0.9860058089842041,0.16971737293909883,0.8547289555769766,0.36666502243828636,-0.21326319375701464,0.3330590392242152,0.9946912295760506,0.6633393292453884,0.7628677526883234,0.5509980552809175,0.015336332961469079,0.02274950872809156,0.594210131937033,0.030324980084013964,0.5445308737256742,-0.8345153415391682,-0.2887264664200624,-0.8886484439722921,0.07154581888129674,-0.6745269675789609,0.058104021443840415,-0.4825028286702191,-0.03017878748569891,0.7936557892729759],"bias":0.9578958020964057},{"value":0.0,"weights":[-0.1457408493946124,0.12789513688528542,-0.7817225990489829,-0.23757345444278744,-0.6138074654197996,0.4754226272229565,-0.6796990112612866,0.30782116634286183,-0.7915847140713868,0.9197265897416689,0.6765973503137317,-0.010441139981752556,0.3295459696350247,0.24933813620803358,0.5301974897768178,0.45984888331278606,0.8958707275153617,0.4144998656146839,0.2060387224007456,0.3659097352034084,-0.18807177513097262,-0.739379860191127,0.6422750292110704,0.16713054958979856,-0.649409337294641,0.26918363660638733,0.7913630451258145,0.9046650242819068,0.996110093928626,0.15163760954446204,0.20177626566615436,0.34417364415731244],"bias":-0.14200341369088676},{"value":0.0,"weights":[0.2452891659671741,-0.03966057337637863,0.17219431943303465,0.216935073769142,-0.42373374382538875,0.3568166612517636,-0.0011111628082682845,-0.9659887343342053,0.18310732978738464,-0.8734722481092017,-0.1953228276260377,-0.20943636019979794,0.8355639504306314,0.933406150200049,0.16553688244243991,-0.5557017386584613,-0.36328697056730164,0.8750548829108844,-0.8984880516474913,-0.5516488907355208,-0.8375060839102957,0.22299534230462625,-0.284760662278726,-0.6999560815947912,-0.2287017931793951,-0.6445538033957874,-0.07793121911543688,0.18442202509985917,-0.49274141985441666,0.8966085396227836,0.5206151805529062,-0.12794105662026345],"bias":0.7264904575391622},{"value":0.0,"weights":[-0.5544241545244075,0.6123504861522133,0.8060031059160333,-0.8251942794186939,0.9596263291902754,-0.04889407007007063,0.4006329716610031,-0.667437684054379,0.8507971961322689,0.1881224722085817,-0.024422618588779255,0.16607055645577495,-0.8387201337024328,-0.8244484054561894,0.4607480372751034,-0.5749340283286279,-0.1976833333677488,0.5010755466089072,-0.9660774129598548,0.574515435711048,0.7729197451873668,0.24858043096454074,-0.8097930301315379,-0.21383146928954933,-0.481126702995996,0.6145828811312963,-0.606904590921157,0.8895297372320765,0.1491217058327603,-0.5426258086097937,0.4197394164876005,0.3875378217685481],"bias":0.6243965596321448},{"value":0.0,"weights":[0.1156145752706792,0.7884246389962675,-0.4417471504402124,0.9856918799406893,0.905372365979962,-0.7558521048672875,0.3923686850677488,0.9854326805578719,0.5893718669309413,-0.8214243819601856,0.6573824106555699,-0.3113663390726815,0.8094769056765279,0.07355614550817702,0.7327698727305567,-0.26677952304473096,0.9832034336209641,-0.41725134158430466,-0.9734697014109628,-0.23186075626326508,-0.5126790843694677,0.7038229439133856,-0.23802002238057995,-0.8668860546096067,-0.9136334372635555,-0.3559265207554172,0.7146893473086664,-0.3283317976284097,0.5111629690455959,-0.5548168142389867,-0.9170249593088968,-0.5332202423554493],"bias":-0.9042139330964638},{"value":0.0,"weights":[0.20826241817925784,-0.9086276912082929,0.9701749440130736,-0.9950300197864874,0.8481788811254711,-0.8449698632520353,0.9904129177406762,-0.2107605574235134,-0.29341466396680627,-0.5260132937147817,0.31154873380216963,-0.4387489236800295,0.0659430440004043,0.7797977227559483,0.3333056707100832,-0.8520668757695933,-0.36777220188492654,-0.37699273615260487,-0.9446724519856957,0.7542050640634554,0.3918984203133944,-0.9315351749060783,0.9722223689793157,0.1293614044976812,0.899095881751848,-0.04349114345353011,-0.9972505950041515,-0.2742563822566002,-0.9880663073499738,0.9915523416424936,-0.554357540645251,-0.1573180748931462],"bias":-0.14780452967954405},{"value":0.0,"weights":[-0.1643779311422977,-0.8637974044926435,0.8209531871915687,0.5101198666946973,0.11291771551307828,-0.5280660303505791,-0.7622331286259221,-0.6418121689192526,0.7724742609122572,0.7821380893129781,0.7495576776969413,0.16702913461361946,0.6095248970752636,0.6355203880866318,-0.2603727355051868,0.3465666590923582,-0.08782124832087157,-0.8884935513682448,-0.7500550549984377,-0.41028133293234315,-0.8214570446086116,0.8051029419957665,-0.18881815181885808,0.7882144258231605,-0.3595663670740843,-0.6082186519014923,0.7323186955816254,-0.2875577599719463,-0.06666344463819596,-0.05199866715234691,0.17093329607250007,-0.7972946792656364],"bias":-0.6278703741709917},{"value":0.0,"weights":[0.90463282161156,0.8775394462388728,0.7071515669374115,-0.11008972736266465,-0.49532505095393065,0.8921140863680213,-0.5979657761872574,0.4456802324824449,-0.05668782819775564,0.6682160885130863,0.8428504063017428,-0.854630141705712,-0.012512788808639153,0.1098645763931907,-0.8797043355010838,-0.7448184089226197,-0.19618841200237735,0.8286111904001165,0.8328635387733758,0.3499623806250354,-0.03222419861032022,0.5630059364733917,-0.16169145653185724,0.8377235370163068,0.18386027430091323,0.14992198321757355,0.7090834304908007,0.5742578046965652,0.11529073096923281,0.6969701629026608,0.09225018281306485,0.9016553697933563],"bias":-0.3317058507570405},{"value":0.0,"weights":[-0.3224999382054994,0.7622568406480044,-0.8269648559759228,0.4540634303107214,-0.4455501855209316,-0.9446387787318136,-0.6331755743962872,-0.6364554619093319,-0.7634280008531054,0.5873740559489313,-0.25256528316811,-0.5012313189570892,-0.8196698456689604,-0.3182153034918984,0.6951976260052519,-0.3507418205900199,-0.7269765879229286,0.7732229354138118,0.8069399541731328,0.4356424700023869,0.7674658199653921,-0.7983989453233313,-0.8404063805847457,-0.29547165949304866,-0.514191067821516,0.2751709399313178,0.2327503072816408,0.012017808725849344,-0.7301351626281467,-0.7438778539429067,-0.5979122778080044,-0.5206178308749005],"bias":0.903820357178484},{"value":0.0,"weights":[-0.9897634001336137,-0.8558911644620177,0.29854128494961896,-0.29015773397239175,0.4625066175923662,-0.8663478284751753,-0.5283627307666188,-0.8501116892795308,-0.28648585353936573,-0.7308541712920595,-0.0118670289700058,0.9057062161308373,0.6967586435789253,-0.6734057901930843,-0.4254936538304863,0.0701410132395186,-0.4049873439729208,0.4218019703295688,0.3957515467883004,0.8465384504009839,0.8841736420393715,-0.24864532337291867,0.6445391227915411,-0.46415267076098154,0.8359730899493785,-0.8136072017614997,-0.17697185913722224,0.4406321478619408,0.5862920389285993,0.20922919592115474,-0.29603687290353964,-0.9362578002975592],"bias":0.22755075279444248},{"value":0.0,"weights":[0.4113775965785966,0.4518302563328309,0.8641498317074403,0.1734249511965813,0.31257491754139166,0.191486806959277,-0.47026452462324575,0.6441471530959397,-0.386105539613544,0.4308195082152084,0.23656286147309924,0.8718131041819157,-0.8359349353028231,-0.8243729060080551,0.6864536796351726,0.9307896339767523,0.8966247416026729,0.31906431508021194,-0.15056383783334026,0.47448263084195696,0.7865538739964497,-0.0553766328417149,-0.7150919423437103,0.5097285171184069,-0.5214507714540224,-0.44922859350204436,0.675120022714552,-0.9951408870028828,-0.34488577575537693,0.8870015921732259,-0.2231492221946576,0.9792064058546752],"bias":-0.5362747499604403},{"value":0.0,"weights":[-0.914802487919804,-0.6180884812107736,-0.8777968306315429,-0.8171893251591436,0.0768496485493062,0.0743822612398557,0.7031276960644359,-0.2083226283376436,0.9058045722871078,-0.41775160924681254,0.5579299191616276,0.5117706420621351,-0.5221324243847005,-0.6566279430316311,0.2774680439404025,0.44487533247622824,-0.46727979070644254,0.5404974102435314,0.37187453819151606,-0.5388845643027855,-0.8197454608685548,-0.692744491772395,-0.8513383589132739,0.2250094112569614,-0.7874330678052992,0.06689996182478875,-0.6824333315656679,-0.016685474929185817,0.5844950726344096,-0.9622309106572227,0.9230284655110543,-0.5105222552760109],"bias":0.4411580309067693},{"value":0.0,"weights":[0.8242377822047133,-0.8944237294694837,0.9805250102398613,-0.053892368067158136,-0.29081353477870286,-0.5936959280426042,0.47573755501041504,0.043066961567501005,-0.22621968315788687,-0.14600713943865906,-0.16752103295241372,0.19541704831116968,0.29261843576664326,-0.0876655075232804,0.9730520920048118,-0.7076972340815766,0.9870772175866511,-0.48489834060425685,0.4874811633579226,-0.5535855595968566,-0.33306158496869775,0.8799985573619029,-0.5793704440436205,-0.46213054889873395,0.5501579329180319,-0.4326821044243183,0.4680795618362652,-0.8912341128292909,-0.8771033479009733,-0.6625796883479169,-0.9662840276000193,-0.3014433094835953],"bias":0.949721323107136},{"value":0.0,"weights":[-0.2385571950622809,-0.3570287890928323,-0.9829661161142837,-0.26301466474636603,0.2525339714434769,-0.9407952560337904,0.9708536664693284,-0.47326439056246206,-0.789696731706302,0.11670607336548988,-0.5088276975952453,-0.40838276491836534,0.309063961101276,-0.2376747167333202,0.3541048965087168,0.6474379875827847,-0.3891622189979773,-0.9112488590481715,0.7423588329311421,0.31818028138565335,-0.8530175690938075,0.2459730788906649,-0.834465517889218,0.6125847090331991,0.8876911874907358,-0.9665228391486713,0.5382267163391257,0.9395305358408288,-0.3934931888685702,0.7042441798485597,0.7092009501380951,0.23722607836836707],"bias":0.786700975651347},{"value":0.0,"weights":[0.05263126119986539,-0.4584416415536745,-0.5115136721998075,-0.9853000936082206,-0.7882638922284118,-0.23705465821113614,-0.5958584272858736,0.5320956048549523,-0.2481431074141467,0.23650327605941723,-0.6211142381385284,0.05373516076642182,-0.34982227973276614,-0.9526052656339588,0.9586399365285727,-0.137806247724515,0.4928243875328435,-0.14361681030350248,0.005770141083894398,0.24988916540346318,-0.1260489668823903,0.34108425291358624,0.5082666902937423,-0.14354403335636112,0.3725343447127041,0.2271462508751334,-0.44874408320120196,-0.37767543935157777,-0.2839332352389681,0.4057594739271948,-0.6460186898458073,0.21916253111339556],"bias":0.04738065104648537},{"value":0.0,"weights":[-0.05946664702000848,0.4726577238037797,0.5307251808872844,0.9361567746567834,0.38592202486707583,0.2793663727966098,0.7830531665014104,-0.10863447496957312,0.7710188563257521,0.6494247691574797,0.26084646003588796,-0.28795452810228617,-0.15331877954674678,0.42443189118714075,0.19723309392996535,-0.07346063158954386,0.7505881846908873,-0.3345468517340977,-0.6129568008140058,0.7764628739323485,-0.8860268761393495,-0.029423415882385173,-0.6509116896121261,0.5663776665270659,0.8154148176531051,0.20333675880871382,-0.5491625091776067,0.8004615258715992,0.08121108078849626,-0.13673127596793244,0.3092717428607299,-0.6654925244132561],"bias":0.7813563501129983}]},{"neurons":[{"value":0.0,"weights":[-0.9728808075186732,-0.005410845558860622,-0.874899399008318,0.14642883139924723,0.2990096918927212,0.08882362306252034,0.3238361737680717,0.16233224060640317,0.5301090813861171,-0.5106688051388033,0.4429583647282127,0.44397963715395417,0.2031418255743902,0.9974876739141874,-0.8901852478061905,-0.5543547202385084,0.324321204542775,-0.8041671980276295,0.5310369337206953,0.03485325769616798,0.4250636458429822,-0.1077135949023258,0.20337399862011174,0.7383100428996416,0.8481064422987445,-0.5020476116893586,0.6366204674988878,0.2196739614915717,-0.12258519363371567,-0.8945823696283142,-0.10490397353815495,-0.8015499109090953],"bias":0.43849924031016285},{"value":0.0,"weights":[0.7473430788956468,0.6176506498644563,-0.361558579723404,0.34579336007438655,0.34053477382079755,-0.1578163907764496,-0.03417315798673859,0.05507822704148957,-0.8414264181448958,-0.5608192981324687,-0.6789226717035044,0.19556749460283496,-0.6735266689561163,-0.750210063132217,-0.5944374724772932,-0.4987964660326538,0.7937260943116982,0.12747123208861066,-0.6471597330616012,-0.29765514932349246,-0.4825135750174707,-0.001728790513102041,-0.7637375367471626,-0.8296416886797127,-0.8244653660067747,0.7832903433171581,-0.681328895603156,-0.7673387069547528,-0.37094866934292203,-0.4320754194981149,0.956599291629971,-0.2570078837256824],"bias":-0.531467458616951},{"value":0.0,"weights":[-0.24402002486600383,-0.8094682659006218,0.0014519349048547348,0.2983098936098172,-0.8872261501468464,0.48442172533808603,0.44112710866076754,-0.5355758676238607,-0.4201482789472908,-0.1782006329760777,-0.367132954626302,-0.34179455352014854,0.5349656727266188,-0.5775500057117482,0.10705741446689387,-0.6807136407773386,0.7744739358143784,0.7127788091064517,-0.7490048805820972,0.11437800111975682,0.91133860977418,-0.1353789749371639,0.11273640684331965,0.06742379959673106,-0.8895868222242278,-0.7886040627515014,-0.6729445731290105,-0.8861185915366709,-0.8762727073663759,0.1571450501508449,-0.4235843146947307,0.4651787733948405],"bias":0.5681256745589325},{"value":0.0,"weights":[-0.18686637206871737,0.00962334812104948,-0.805216168579153,0.0445647310616204,-0.4716628005146819,-0.13690340916678068,-0.20478468751769396,-0.2913734629737035,0.7242739926959159,0.1644496955242325,-0.8942854475410886,0.12934484176974403,0.0012855778840437093,-0.1546413216921505,-0.02681222148432627,-0.7936958459230903,-0.6474916913930635,-0.1495619715277845,0.2844197277399785,0.7675077633412,0.5034189487708371,-0.0988739117069557,-0.4045506886267385,-0.26923284740288933,0.8889780062202952,-0.5416589729380241,-0.5156106206782489,0.24331079727740224,0.5870362579355501,-0.8750651462061609,-0.033137149545882094,0.6939617116911352],"bias":0.44199211490970036},{"value":0.0,"weights":[-0.7612604402334948,0.838618073378778,-0.3417533396164294,-0.3251392846213004,0.7292640062528541,-0.35222270025767055,-0.1846835642868867,-0.68680155732849,-0.554133670381344,-0.8504379025129412,0.6665728273156573,0.24468047528378745,-0.8875075117680107,0.5592310871586432,-0.5105877059002069,0.8001284476526147,-0.17616344288497743,0.6943551229980116,-0.6244869922521694,-0.1328608462961549,0.5700445135255021,-0.8145541171885702,-0.5683930655190563,0.8227486028073174,-0.3381513278631858,0.3343454188623436,-0.7383055077206524,-0.4892620889191148,0.1252858738895648,0.912672771372437,-0.2968246812277888,0.9045105158399678],"bias":0.6458084160974378},{"value":0.0,"weights":[0.2180168562499183,0.45538308209229594,0.02811208586505587,-0.5432659135458371,0.04345347927658483,0.7175297122893916,0.9521044339145179,-0.7732999268126559,-0.133644049237706,-0.7559216320964441,-0.7623551336885985,-0.6018562365846614,0.5253592052909957,-0.6709189797076287,0.07126481364324833,-0.2490164260126999,-0.07027208825907238,0.14703207160026954,0.5144799585409023,0.988031334870022,0.9332694614374111,0.6063044870965424,-0.21349366143634185,0.04838672471357408,0.4053239603688801,-0.5877484544500919,0.30499679592613993,-0.45479983633525234,-0.255746661297259,-0.6094282329388969,0.32885315802877235,0.7348480687831547],"bias":0.14491721977488092},{"value":0.0,"weights":[-0.7124488421246133,0.4788095773360106,0.7468292145450213,-0.5558839335421057,0.24231215907463066,-0.8443761393342029,-0.06154300657410783,0.657265973652678,0.9172140312153514,-0.06764642500829776,0.18568797050552366,0.504672758478989,0.8760656247949514,-0.6336653863983319,-0.3188074305405466,0.8483978521684923,0.2158267291496332,0.3581207296252573,0.38303955163386383,0.7708125274154856,0.6859896819091136,0.17878278689532845,0.642131678306272,-0.4347806406107777,-0.42915080610277934,-0.4063928458709296,-0.26620513654148326,0.29641499470978494,0.46338295658326256,0.12937392650895463,-0.971310087360477,-0.8448690517480297],"bias":0.6042424241330184},{"value":0.0,"weights":[0.4640350551259631,0.36048037084359064,0.16818182646987112,-0.09221217090506606,0.16175443996144967,-0.2175432522598837,-0.5234601331541291,0.6933969636691686,-0.4670883212529764,0.35258168369112686,0.3564457842355415,0.03323479290478737,0.2678122470488147,0.8461881272250278,-0.5659436088697456,-0.9431165376588655,0.6744874473201459,0.3678257144063488,0.13201996584328435,0.07119088665449169,-0.15489189749857313,-0.28148116060251693,-0.7132385832153989,-0.5000104738517759,0.8821762359831635,-0.9280364215145926,-0.9118506471986823,0.9717744468187579,0.4348003943057952,0.02295691890846774,-0.9813920822427162,0.9282035224850642],"bias":0.7254824549609411},{"value":0.0,"weights":[0.39361754952399575,-0.6933723774980871,0.10479947927138,0.004125215589991349,0.31772303112537337,0.5600185183097692,0.026249379242521798,0.3801200654397736,0.07075327143090959,-0.29285858381167973,0.2622111375340628,0.4374948565270367,-0.1270032390271325,0.14974202884998822,-0.3944459292908067,0.6135183394197992,-0.5346591181283689,0.1189045590674278,0.5634755016597681,0.4002767376728553,0.6421330765661768,-0.3739688821542628,-0.4070498752912619,0.6928900399994185,-0.8772329605124467,-0.8863551741831821,-0.634513856102842,0.23931579708262984,-0.8465894831271519,-0.06379607459166592,0.012176475309947588,0.576810820604627],"bias":0.2269999708256738},{"value":0.0,"weights":[0.13900606080173938,-0.22145056170851274,0.08426236752332561,0.5488744184266579,0.6536518653432055,-0.19026064623070238,-0.6637588829251406,-0.7930066775872819,0.9914273670821521,0.890011830525423,0.8137681239925465,-0.5031625693156923,-0.20864374265515395,-0.12330386028848128,0.2084295816156745,0.13412107843256815,0.16756257585670964,0.2970907420330793,0.05061289782071432,-0.7954006613524434,0.7009761404409602,-0.8820754046351669,-0.800721208282194,0.28182353241888136,0.1333023809760947,0.05047272702209815,-0.15017540515998107,0.25794979834709686,-0.6534298075147102,0.9204397045018198,-0.8517652102020907,0.9294091813601686],"bias":-0.9474395192641929},{"value":0.0,"weights":[0.6102400646987469,-0.7561453586318942,-0.4859850839739486,-0.25798562335296404,-0.12767876074287465,-0.3302356586519495,0.22334558560244555,0.993191657650593,-0.08431063937262429,-0.6911282829694079,-0.22598799322369545,-0.15882100034439373,-0.9161859768467508,-0.11451914359834214,0.29367805730839636,-0.7858103339509146,-0.8293957217076364,0.9162363620831477,-0.5375267004472317,0.6699266984404575,0.9621633131510394,-0.6390173614144348,-0.07230024718760153,-0.5352489659424293,-0.5544554706187381,-0.16678189932985932,0.039502223964216654,-0.011005779639091884,0.7917484164455417,-0.8385345354516873,-0.22256527816723515,0.9427438077472485],"bias":0.0494611431785128},{"value":0.0,"weights":[0.33701908329090413,-0.6273755088215678,0.27682063125277834,0.9710764730855208,-0.5598279595527573,-0.42250267830286825,0.8865582039264703,-0.6830279991029509,-0.9938348998509257,-0.2052037516653744,-0.6786157348562383,0.25819899859664974,0.47374094923216714,-0.6501101971379133,-0.6389039228041713,0.7785446162237977,0.8533278941502536,0.07513189132989861,0.2101107965446538,0.8761138776459105,0.5585173224837587,-0.9276987198321309,-0.7261365595658882,0.5390079198674602,0.46364020636873393,-0.9710856928889615,0.00691547932523795,0.8297153880260417,0.6818882528757935,-0.2135303572105025,0.1602276857400633,0.7420964190755468],"bias":-0.30128575776494193},{"value":0.0,"weights":[0.9934498174140229,0.9054412029250514,-0.7141458735662922,0.3827047786880464,-0.3768299803434916,0.7769024120030006,0.8569044623674655,0.8573929064879107,-0.1036698966557954,0.147555812239188,-0.631929705511264,-0.28514658826451855,0.720391159587568,