{"strategyLayers":[{"neurons":[{"value":0.0,"weights":[-0.2568455971282828,0.17821204857509,0.9033137351231713,0.9377889573731972,0.8600293936865913,-0.6492055411576134,-0.5766544763914776,-0.961673816866961,0.23435206518116836,0.6581738650268301,-0.9527711261068936,-0.34242472490904374,-0.10171240554433125,-0.4369432839311642,-0.2070026524928099,-0.6156526319123758,0.5858717344810904,0.681286245873022,0.9254293513362379,-0.261474743940719,-0.33895618557079077,0.36461366458561706,-0.5845455413308012,-0.13705686470030298,0.35233738118156777,-0.47351779542702777,0.030222151754561777,0.9319429486338537,-0.06899143476214942,0.7289524358459325,-0.636535087665326,-0.5558505679678134,0.3307099304920862,-0.011651562861594744,-0.7416348912570174,-0.4622927157275396,-0.36935440157294264,-0.24084027250852147],"bias":-0.03631758711816935},{"value":0.0,"weights":[-5.701617476965293E-4,0.8104724490419022,-0.8798155520751905,-0.83627643413415,-0.2649917279831788,-0.7659611147826024,0.31385467033788306,-0.5100506100856639,0.1256370801306268,0.43038233885349353,-0.5208632050565445,0.24032303689340861,-0.08288841777156275,0.9142334355198831,-0.32964728779940655,0.33041738877382976,0.07065868575898948,-0.97539620544623,0.06872143583860413,0.7436093873602121,0.3504637053735016,0.05886224724087241,0.6703738461577387,-0.5350994114509358,0.3310599709853037,0.34103229704219507,0.6740455537996073,0.057730152820703706,0.9784507433698497,0.28687183337322364,-0.7063929122144068,0.4316921069235802,0.9920364480281096,-0.9853756452029854,-0.2149571272674533,0.11664823244194422,0.6901226765642892,0.5991588414256162],"bias":0.28021334782360774},{"value":0.0,"weights":[0.18880493657998776,-0.6200115873646845,0.6785441319282941,0.8030335280367209,-0.11309859060408001,-0.12580376164090867,-0.20406962340049928,-0.48280628626461697,-0.08826600837754128,0.09803005576965451,0.5959405466879877,-0.27407790002072163,0.41981993506921356,0.5786484640733993,-0.20639947163556638,-0.6749086057103997,-0.19791778381513714,0.01474560226557986,0.6951664348422564,0.007345486960914638,0.4810144215584098,-0.903786386075337,-0.025964750094738642,-0.5615859538066097,0.16486361436582198,-0.7234948944378068,-0.6087476069592124,0.7850836743229688,-0.7350531393856934,0.2960958198379182,-0.8010411797511936,-0.7229855554651523,-0.4877047365801799,-0.08634776295584823,-0.9235515387897497,-0.8259543130635583,-0.7976027927815983,-0.47778970992153047],"bias":-0.895555962775151},{"value":0.0,"weights":[-0.23741303321885487,0.9518914524677025,0.11087665439166483,0.662645409740453,-0.18085677011968704,0.36863779461175805,0.3782648998751543,0.9335254761955352,0.35597722982951696,0.6166718149406134,0.7120835705935884,-0.9415115522363642,-0.5966357094514865,0.5001283616864263,-0.7800042976156769,0.16406966354840247,0.08484815950138902,0.3952961648870261,-0.9699273539112676,-0.036004240954612854,0.3063599366498293,-0.872455787120731,-0.32513230357660894,0.6908452200384931,-0.9929850292900049,-0.2800610068583169,-0.4686608017815814,0.8654946966887838,0.10885576387623352,0.8329495613214652,-0.9904457487863485,0.5684749554484958,-0.9452381579943827,-0.3302848139033139,-0.5336902538527244,-0.38631265718433205,0.13820145122133032,-0.8610707540642044],"bias":0.6223335170028803},{"value":0.0,"weights":[0.8237610723238125,-0.29454793762579135,-0.8525296447927666,0.015324930138790771,0.46765911379284386,0.7503702800557686,-0.9625093502824358,-0.21706961256384494,0.84496888237961,0.4237451343481149,-0.61225204908015,0.02068174883680185,-0.012358434175852473,-0.4562785956109485,0.6665489055831362,-0.966531174962576,0.49877249022359393,0.3207325367988456,-0.4462546876407747,-0.12495218928725982,-0.34065681421570027,-0.8001626606277916,-0.8581927084722536,0.5819264454930231,0.1076733868739208,-0.024695039081640058,0.6810717950369902,-0.3634395178970371,0.6326596648422036,0.14674917234869556,0.05184600578469034,0.497324365627261,-0.07929432538178638,0.863063423113392,-0.2738789465872651,-0.059077191567880494,0.45757667979037264,-0.26013802159085153],"bias":0.6655072249157767},{"value":0.0,"weights":[0.43361285132367944,-0.7897604041500048,0.3380870832204417,-0.023129990377007692,0.7808091059480537,0.20007758859898894,0.15589263183297142,-0.9295434158737061,-0.09965143633691032,-0.37230355332142495,0.6128698588415729,0.5839171365514542,-0.2771072586858834,0.8208684839659877,-0.30486656585445804,-0.8824678791584397,0.9436508690588297,-0.049013049719948576,0.6817382916796144,0.4695725418526604,-0.3671918529817999,0.1997331156897928,0.6873527219938897,-0.765971459262931,-0.4422519121178934,-0.14351429115052783,0.633063695446058,0.37281225758501013,0.47836032010127205,0.6883302597465584,-0.3033536624943707,0.5583939947604979,0.6474279609856168,0.848354718092649,0.2955804600749661,-0.7120906736265376,0.28129359884497784,-0.42575423822352687],"bias":0.6242311194194232},{"value":0.0,"weights":[0.0373531056178964,-0.1382968956898225,0.9780273263212846,0.6641236163219897,0.054554014251972704,0.7879326817990242,-0.6608876157960555,0.5787344810654274,-0.2177984306064078,0.11900544786050027,0.4866664416537778,-0.9499025688263241,-0.6427240055742307,-0.07099188407840851,-0.9063909560537067,0.18657037523317554,0.15080879165080296,-0.8557789002129057,0.0034085332981383942,-0.5980116383364125,-0.10801936161157655,-0.3610212437225109,-0.9278473257560969,-0.09108312220628467,0.5631410408998994,0.8378787824942426,-0.5677936487491362,-0.25876569856681164,0.9574120649187203,0.10516418402651895,0.5700951767349616,0.6894056362104959,0.558117550167202,-0.20219631615761147,0.160082819359046,-0.8412375507437875,0.22935557513060245,0.016998705978257034],"bias":0.22055119883980923},{"value":0.0,"weights":[-0.8494434570388072,0.09961233267332559,0.8135502130915864,-0.28039137625179533,-0.6824906717112782,-0.02460833783480143,0.8857201459631323,-0.10652751706405938,-0.6399695534975127,0.6394137400225963,-0.34607480827003245,0.538415519429444,-0.09376601113745431,-0.531985552784372,0.00480593046452249,0.40037392321874266,0.45833174589807046,0.9449545736160434,-0.03208570171838088,0.9085589946755155,-0.010061793293630439,-0.1460732844275714,-0.8785316176392766,0.8865350870623521,0.3432737459462709,0.1996253886370989,-0.3806753467564994,0.8085414070085535,-0.29779459023325705,0.2373243894791377,0.38952212755286664,-0.7055212884113402,0.10651944847802808,-0.6165167500204614,0.27545536486799116,-0.28919096332603056,-0.7752291210854307,0.2349827157940081],"bias":0.20623722209278283},{"value":0.0,"weights":[0.9809452639905036,0.41750974769077076,0.4421681771354511,0.5701093242720474,0.007535348635005823,0.49963643092431265,0.7609563942997721,-0.2226160343859398,-0.529626078884561,-0.44990816070062367,-0.7481593450001438,-0.33874209332321037,0.18750267216605776,-0.3809591673895467,-0.7012930173601153,0.6591000605722275,-0.2866117807323776,-0.7528393988686832,0.8879516578482132,0.5036716437410804,0.3968951404222252,0.3385997356537154,0.41846928218251755,0.21636299126945224,0.7330993842433333,-0.8813752136283164,0.20565839953067022,0.6568293135544565,-0.48318461781473143,-0.34107315706239993,0.7976693404361543,-0.30109041778554424,-0.9579607138173656,0.7680112192188757,-0.7603018636921939,0.9484177830960747,-0.6096630114004358,0.9210489187360071],"bias":-0.326063622306175},{"value":0.0,"weights":[0.3265976250935354,0.7125359249445662,-0.6569809125236168,-0.5684676735991201,0.8137351838354929,0.33190597725513094,0.36092747115957047,0.7864153051428042,0.18062781622677537,0.48334379291972773,0.7053367618822275,-0.808426005778015,-0.3686903490261897,0.5519032019255177,-0.43160083214147216,-0.8304917630919371,0.9386378562702966,0.7853414994469985,0.9150341456723268,-0.1956896201602989,-0.1249530330397901,0.6291805279862732,0.7958477984885859,-0.9536682316717551,0.5239811475540501,0.06910940607960625,-0.7751575075589747,-0.8158663230578382,0.40321837120695503,0.6643828857345582,0.5619202472689562,-0.4097721585897385,0.23950238288361225,0.3171995525591642,0.279634323266027,-0.5103075386062295,0.7046022789692299,0.24686927495536248],"bias":0.5022070409167658},{"value":0.0,"weights":[0.20582549092501168,-0.5438770768685188,0.12391066744637036,-0.28358368006587376,-0.8954241463117407,-0.5779087839836397,-0.13195530115556142,0.8659420369594737,0.2895717845824546,-0.5734518468617953,0.22538026014492707,-0.1398527261079876,-0.007856729285931285,0.9740777269619696,0.913915638697413,0.7428086102805771,-0.44418653200651614,0.29440925131284357,0.8628066925755014,0.7106937144388035,-0.06768763852229687,0.593930370164504,-0.13031786474004203,-0.7661272385085109,0.6862439840509564,-0.13084746897142296,0.8616138679862184,-0.08376442109335902,-0.35188283736282266,0.6078739593970401,0.8691778811544271,0.7432481046804733,0.5605263416853525,-0.763012447593427,0.8093704963833492,-0.07156493011334919,-0.6701504695727982,-0.7284154755521228],"bias":-0.5044013218085881},{"value":0.0,"weights":[-0.3029706130797223,0.8259058330751652,0.7782080715547672,-0.7847231130069257,-0.9653199063288771,-0.4354041002706124,-0.014186327608538107,-0.9490566559254343,0.681066309350923,-0.9363758379477352,0.6611971301628001,-0.9659684002329878,-0.5372842025017619,0.17898208414240901,-0.7886471634076795,0.6731434799227456,0.43628070736018243,0.3099480440091811,0.38342938394427617,0.4368905636156857,0.2529762405201359,-0.9970613106539539,-0.09634833695213785,-0.14324501876021678,-0.34315936647489154,-0.8103755490038429,0.42978285199610666,0.21273074006287818,-0.9060713717041224,-0.9377005785196273,-0.21259851693127252,-0.41303680706375534,-0.9634969235131112,-0.5804248400164351,-0.38152700814899343,0.6819318489758812,-0.18425715391532416,-0.7919551222648293],"bias":-0.7780281775884901},{"value":0.0,"weights":[-0.5264492343327867,0.5084383080794206,-0.05935690909807745,0.2049209395661964,-0.49411291232482246,0.7375986164328208,-0.3099955564024546,0.4639926081140162,0.43302852478223164,-0.8761518567731539,-0.5647973695008928,-0.6861307184396228,0.2749570604331357,-0.43605699857149527,0.6828288094470158,0.689451737227404,0.7781150032088298,-0.48530926759858395,-0.5115526027975221,-0.22994284716145197,0.257678013578031,-0.9749894695854995,0.272045030591481,-0.474474076722885,0.34737670578672475,-0.6141761119651452,-0.8488337725848076,-0.10223264223552175,0.19403780345143162,-0.04308175860078367,0.9080077014157759,-0.5174483587107752,-0.19215721065424107,0.9818804438431066,0.16182195602151994,0.35955806797962464,-0.4843684880008776,-0.9833510548637969],"bias":0.2913977195711992},{"value":0.0,"weights":[0.06439249555395987,0.7634048998413077,-0.025812813478359065,0.5857438460362399,0.6044918383317917,0.8755096455052926,0.7272342103510978,-0.4927984070597293,0.8915335060216656,0.801816521392481,-0.2869596925717699,-0.8707531456350612,-0.0038259963259967833,0.3705309057559645,0.04845042378956066,0.48762412850933057,0.2266416032800187,0.11310295106588453,-0.7093502369234339,0.886490332046153,-0.8090871155275008,0.3390329012750579,0.1683396768849299,-0.14265401748877715,0.7229043316430188,0.8121950770585222,0.36006529834253453,-0.22311171204027214,-0.16368480971232646,0.11663211736682322,0.7108687284110222,0.6233398637235206,0.7154593931816362,0.5985992215120228,0.15539605927051503,-0.5691158727032783,-0.8393720387179024,0.6329665573115164],"bias":-0.16444232400209646},{"value":0.0,"weights":[0.14441689816538683,-0.1237726250466411,0.8859155550595172,0.6586369517128785,0.7819018894670999,0.523140213302028,-0.7678065685695088,-0.03924790950317947,0.0791958611367023,0.55246054558026,0.034018014889603876,0.35841380680050205,-0.8777130585559683,-0.504043225924043,-0.3999461390450496,-0.8032307465379163,0.8644684758723338,0.609319750508438,0.8167072946555727,-0.45403995245852635,-0.11895162526154879,-0.4525434626965541,0.18031782278071895,-0.633966787763306,0.23177209195733517,0.0967923368019381,-0.2423496106427121,0.5936372304701933,0.8812156298690192,-0.10225194568852314,0.9634211977351497,0.6237093118481061,-0.2300168199356536,0.5612629430889127,0.46741866585525593,-0.8386879178617639,-0.6653781799614322,0.616434257917887],"bias":0.05503772041299859},{"value":0.0,"weights":[-0.5167683145580246,0.041743984339106976,0.32205093487931236,-0.3855631754428135,0.7759024788749909,0.33192662060887335,0.5329996107081518,-0.26711097954397656,-0.5943242002019555,-0.7384657360219329,-0.4667747371105737,0.6626560789422415,-0.27059514450101063,0.08569043612561322,0.030131785289466473,0.8981326701649939,-0.6322310377215024,-0.9567985959028324,-0.6489892816923455,-0.9912372885307752,-0.2592843446792905,-0.3156868563809683,-0.709709889254055,-0.06840476770384019,0.10385061551331587,-0.7752390980584212,0.02709730140998934,0.6517358838768712,0.32655902399571013,-0.38535038432951185,-0.9341658405424087,0.2102080601718992,0.21709577349619047,0.2782798379832161,-0.7518345891391147,-0.9724337670484844,-0.6731663871113827,-0.18888570620971135],"bias":-0.9698921644858582},{"value":0.0,"weights":[-0.3570684843363483,0.855313291285072,0.31265585949646346,0.5419395386834716,-0.8580516897935615,0.5296907988149484,0.48908777555619865,-0.6297957788499275,0.7834886247123491,0.14663206866117373,0.17710424145543824,0.07008244807789166,0.6337588584841629,-0.15834324631237817,-0.4795626268663493,-0.5795122164651612,0.3777915786250694,-0.9096127177281381,0.6731654182327791,0.6282428319961038,-0.09786582235890395,-0.051888777721901036,0.6089646811328495,0.35924566941673897,0.7288725637944218,-0.9014805365108167,0.3830455062398084,0.1735691002041846,-0.0700419194125308,-0.09056522893324415,-0.9764078140704029,-0.4132785530321592,-0.2378675933066574,-0.11720137918240314,-0.8778977145061488,0.7000009069324782,0.9365741239756473,0.6381380667470058],"bias":-0.4569762004639746},{"value":0.0,"weights":[-0.3739208763093602,-0.8262810510745209,0.8831862389838165,0.5232892347583746,-0.21834811359150308,-0.5074669067308832,-0.2977153953689371,0.5982380169986408,0.5271986715151398,0.5448476706083696,-0.06735284017276189,-0.23862971804317734,-0.39540429988876324,0.22919021624676805,-0.5994798376001944,0.1849863323957821,-0.6434695696823847,-0.19512243534564,-0.6462753609401442,0.9247170747442637,0.8073677454547232,0.7759624439248498,0.554021099799205,-0.5531568708195835,0.3433224569277036,0.9259538712556339,0.18219009227581884,-0.9574976878937562,0.9504952704893836,-0.9419398313569189,0.960674138975848,0.04388567568695523,-0.2474683841144112,0.2320311668766173,-0.2869190416100118,0.27510056933992444,-0.06463177057210112,0.5875045378611672],"bias":0.14710190970155557},{"value":0.0,"weights":[-0.24954320507754035,0.054732195893866464,-0.79491132962013,0.06443835779841245,0.2755101721880657,-0.8072363019100639,-0.11975617555862939,-0.9682662247952103,0.3112767436596351,0.4633341148245502,0.17135026221093064,-0.045942101065718166,-0.7703924326179077,-0.03866412885196713,0.6321805931086704,0.9405736396532369,0.9177936384612553,-0.5905770077914709,-0.2496778627493288,0.38456520620414736,0.5830474324404158,0.47638432615858095,-0.2130773976764826,0.2604118218094078,0.5625862861550859,-0.9754651475774847,-0.5505396660591164,-0.5678704621208746,0.9626209703560573,0.38921336602172474,-0.8719300289797347,0.8353587699405338,-0.9703692792707659,0.2016780206228499,-0.7127197294698857,-0.1658725903474132,-0.7001157239859332,-0.7626054860934872],"bias":-0.043199970823918354},{"value":0.0,"weights":[0.0556743129832995,0.7782440508472461,-0.6950855468994332,0.8277217976441724,-0.428931167520177,-0.335129841254056,0.2862448977793124,-0.5080817746190776,0.41631734481400495,0.47851702426100706,0.09781313861288776,0.5085808698482006,0.13809898938202547,0.8176951737511078,-0.438166207713079,0.11212030577596899,-0.6997726187553761,-0.5439513698012899,0.9610881848945803,0.6468220159569908,-0.29861259151289254,-0.014125155538740053,0.3958302190451577,-0.9049427111162909,0.43164958880658433,0.8037951741860636,-0.03026605621771372,0.003582219022115307,0.8347174122862164,0.8751591713044038,0.3025037985785606,0.9642364801399905,0.9448166203693729,-0.5811544182439208,0.8999694464285457,0.29168043045603587,-0.9684118463017888,0.421701364240878],"bias":0.5288508788940294},{"value":0.0,"weights":[-0.9103613834640405,0.5132993185917878,-0.2780636361165847,-0.26369458899054266,-0.4915559406213381,0.688142123229079,-0.7066279117567382,0.9535413159797486,-0.32949201643235226,-0.5146611973109265,0.31751825391835276,-0.2509546357541965,-0.5233344559405677,-0.24776996451278976,-0.35196848165742156,0.08885079596264855,0.3051783770247525,-0.5295276279572083,-0.6478130793237438,-0.2874659055619053,-0.5234988338957456,0.7339260240449974,0.15657201495329898,-0.7171966993742998,-0.7192518680243192,0.32276626367730854,0.8292908850446903,0.33446549887600185,0.35112481192902334,0.2728056340529572,0.7985439992216332,0.16492443239757648,0.21541563081484605,-0.034033152236442765,0.6375280165839201,0.4665626409912853,-0.031050755499590688,-0.04270106935076856],"bias":-0.4918087963809883},{"value":0.0,"weights":[-0.2779352248022884,-0.8137108167184595,0.00588367070299145,-0.44865553236013933,-0.83305757715861,-0.5747729912596515,-0.40856889173745436,0.6886081866810185,0.4692241873335663,-0.024517563003368492,0.5753163322837396,0.9609474363463715,0.18447707734520935,-0.1341562131053362,0.6042637980199819,0.07213391738675679,-0.4849709622187719,-0.4326911014979766,0.3568374888747823,-0.41025511412094096,-0.06453456279884695,0.31611684880289515,-0.2026515102178268,0.9842905032083467,-0.1578246981987097,0.5293870064711905,0.2287454443651269,-0.042975718110263905,0.5429262594148232,-0.602589316787133,0.12550554913933842,0.46958336335667994,-0.37684967991675244,-0.5895303499998883,-0.520502437168646,-0.15631639040584444,0.008826100430441075,0.3143824699782305],"bias":0.4381767811271644},{"value":0.0,"weights":[0.31667319538907024,-0.10845501001905977,0.7878089328969802,0.03593794973934705,0.5188258532736525,0.0895541251014551,0.9956701200324456,0.7531121651664039,0.4808326092645461,-0.6107307026595898,-0.9031296698002418,0.6506316042390592,-0.01496898077281883,0.9449568064304699,-0.2291649487608851,0.6283592998248209,0.3414859139249855,-0.09001589512788444,0.8762073209620127,-0.5063827474382494,1.169594401848606E-4,0.13124428836631763,-0.5336275878890242,-0.2898917396399907,0.8026442263646516,-0.040939429250735015,0.5603102412047523,0.09389194424705893,0.13320201902434214,0.008081651710475368,-0.6963988251827937,-0.7305363393907673,0.7440491534848817,-0.9496189180403087,-0.5467591565939502,0.07593939769191804,0.6128821505026161,0.1301771683450328],"bias":-0.29375920276627543},{"value":0.0,"weights":[-0.9471984559176239,-0.16916402009988896,-0.5397069984127751,0.015865844490175807,0.6366148638243039,0.2253344004065625,-0.30632018474106215,-0.17447249919431673,0.7645742590230828,0.1895310276022939,0.7590285036023752,0.09950111260080319,-0.7923011330771468,0.020160022207933226,-0.39230045080496123,0.39056134289254407,0.14594126091288873,-0.04180657970466983,0.9399025840998227,0.25878008754438664,0.24943245727488073,0.08177931476662126,0.261261316993624,0.3918983353620684,0.8445370652258661,0.2185158139984329,0.4666020010218914,-0.22344225753842517,-0.37965362060267593,-0.8758096474677746,-0.4439931163997335,0.35599889341020075,-0.22931045235486502,-0.6823050623223506,0.05887754422988478,-0.46633627368375663,0.46869677561198575,-0.8330951757316385],"bias":0.48124655615160394},{"value":0.0,"weights":[0.8684651537381012,0.13540120035673842,-0.9121144630710032,-0.4630481037758587,0.3563162778820643,-0.9091803352131778,0.04987325084513072,0.3576377885901212,-0.19615945486988817,0.8654050962196074,-0.028950437149774633,-0.4550438440730593,-0.02599017934069403,-0.2982830498548983,-0.9547886465437609,0.15191223407927823,0.4197887784912344,-0.4093911004159876,0.5570136179793821,0.47370700270705735,0.22068885758189927,-0.4368136103307194,-0.676458532967259,-0.7872188937982032,0.19846557928402841,0.8992391672955424,-0.4574532750453948,-0.5968629186782259,0.6120201957789542,0.4148081190886408,-0.46723993014466747,-0.28148573148078415,0.8178946748137521,0.05599783324437513,0.6192712658605524,0.3846913747166911,0.9315768206053407,0.6530998182508341],"bias":0.2749556167264473},{"value":0.0,"weights":[0.07439572270102057,0.13616211926088284,0.8785445654095145,-0.7017808271829495,-0.1159980781582699,-0.04125531075370814,-0.7958463675929837,-0.4560865067927631,0.7744044469842895,-0.42876035065403006,0.9676161287985372,-0.8211535885095331,-0.2958469039192968,-0.028833685546386878,0.5350668349025913,0.46714690685031024,-0.9088574347840581,0.759250780996926,-0.013903392854698993,-0.32968214701544674,0.20985065081903143,-0.8454673081594848,0.7494790596811811,-0.36661117491983775,-0.3356769118480156,-0.12600803586971754,-0.8176502193210751,-0.3271249755517054,-0.8271940122122332,0.5525362044962765,-0.7874715075748042,0.7402348903490643,0.558129327127127,0.4905205836667186,0.8531269912858552,0.22709965342138028,0.058649316644495686,0.6897975037603876],"bias":-0.7529551974034783},{"value":0.0,"weights":[-0.7663764034781158,0.8577593691585803,0.37562353950270655,0.9413626417445153,-0.36111511469277646,0.07568335514437319,-0.49942170043719214,-0.82924689905767,0.8923412936133679,0.37546737087069815,0.08797758261096966,0.4641697811858412,-0.912072657686114,0.805790269786393,-0.3039071941497533,0.14641738985207464,-0.4125460235177463,0.5364144791589891,-0.22918514313046545,-0.03365128677925289,-0.7724479924390426,0.7378046834798708,0.2032304152550306,0.4125418723243326,0.9744784856554942,0.01464171712544804,-0.9800941480278023,-0.30527968107140224,0.7836824619428222,-0.4763351310290376,0.8075019461951165,-0.2823628948737251,-0.6238946613260861,-0.8105223716974292,-0.7903280197761924,0.688597403676765,0.6607694856264827,0.2776547310567772],"bias":0.6505392377930139},{"value":0.0,"weights":[0.8767467774152129,-0.38671422457090254,-0.007307146214771132,0.16024098095098216,0.48170619209902044,-0.43751002937091843,0.7390490092512916,-0.40766044965339177,0.5710865392265263,0.042495638214189224,0.21671430117731783,-0.47174336482523493,-0.38912944995406207,-0.36497121617573147,0.6184746764596531,0.4389311790668833,-0.7603985941753879,-0.44301134494276373,-0.14578848789397125,-0.19574369279977444,-0.3732288378568056,-0.859243743020552,0.948300384179795,-0.44483435110529657,-0.9922447333209505,-0.19014892349249757,-0.46063269393462725,0.2994282279031799,-0.19790729429306775,-0.3298863399490073,-0.24263344274108056,-0.8914434683320662,-0.9011362595000592,0.41667102420492697,-0.338854171117553,0.004561127398206244,0.23237114534394654,-0.10048091898028155],"bias":-0.36697812735096047},{"value":0.0,"weights":[-0.2908875435041285,0.673283681577207,-0.6043656923119363,-0.7811300505423764,-0.29600113797497185,-0.4751465411710367,0.40310644102273385,-0.707790624276954,-0.7994011392621208,-0.4592281545435062,-0.3971404239676475,-0.009579179852236663,0.22741209199447754,-0.22931699362846447,0.5261100233604812,0.5776207472605062,-0.2814766893808003,-0.30867533680919546,0.420785201523989,0.08337206598427804,0.22220044439265374,-0.0042777570827816636,0.8277069322106896,-0.7936115637989611,0.6476569805416685,-0.9101878760611664,0.457420598048474,-0.5606292524571108,-0.6706635718770562,-0.21467420811954874,-0.8988700956684519,0.08447062013131945,-0.38809538062327165,-0.32028197192650265,-0.4857259713276003,0.3620783524184503,-0.8545353900096675,-0.7216239283078709],"bias":0.8903692255201499},{"value":0.0,"weights":[0.9113365879718782,0.1293358163158833,0.04129947646119203,0.5807697690103266,0.638983468383364,0.8540681380715265,0.2258943296465179,0.6307361151025985,-0.9061675217499954,-0.9348102097421362,-0.35052278267465975,-0.8870328572086923,-0.6726008005321424,0.9085149443835909,-0.690460859679954,-0.43728201616545403,-0.4531115982589691,-0.4843335293958413,0.176770714732555,-0.6456061955214092,-0.22504223219779784,0.6497965325584885,-0.584694583238281,0.02424279956318398,0.20137839666556667,-0.7446840108659403,-0.21341122964655623,-0.04319461697429361,0.944914244872042,0.24177169743737603,-0.9422643808013358,-0.9681399686967596,0.5394466092317824,-0.6191605746633246,0.8621899946700522,-0.3413148717788279,0.6165729130093651,-0.19327276707413232],"bias":0.4788636793473593},{"value":0.0,"weights":[-0.4829664855669289,0.9776114904370206,0.28411323779544784,0.11662397418313075,0.2792945561179325,0.5311479176482223,-0.8559308179818292,0.8148542246868833,-0.39410207691306254,-0.5820389110065487,0.5872497620666353,0.528966909250586,0.7860888691102137,0.05337083199921211,-0.08504428324417357,0.432697437154276,-0.4612138857168222,-0.21224869420214798,-0.8274937476492306,-0.9478366709304815,0.6933088475084905,-0.5808418195201701,0.6756855447556724,0.6205259823894183,0.7373389102538015,-0.11227961647467377,0.9398552199275878,0.5377870176832764,-0.45043783138862103,0.13965066338619048,-0.35734669739821445,-0.6613872317187324,0.027010740635613706,0.36943142226123626,-0.5749716480616471,0.823033189659603,-0.2277935985318844,0.6319372036490276],"bias":0.6499566415902249},{"value":0.0,"weights":[-0.18068602399789735,0.5227832921336859,-0.8380442075801919,-0.08915354943833043,0.42525485560621146,0.5863462906037276,-0.3532240693114943,-0.36543420264823534,0.5136194972155255,-0.8141005004674859,0.1682098766136204,-0.8353517426879953,0.7893553118617367,-0.6737423187913127,0.5636247602747573,-0.3244273659192949,0.7507159012817508,-0.4405692441774205,-0.448742301201952,0.4346300213617287,-0.4666502011634732,0.8570510119895374,0.12329414734467292,0.7308244038925744,0.8058748465494818,0.6904893325909429,-0.5691082617555823,0.8379092279588503,-0.36259151414136115,0.3743860874323488,-0.3314657912541388,0.19326169696735174,-0.4280211262023874,-0.2531007986320264,-0.6891953196189504,0.7731238839052668,0.021693663086731707,-0.6599483929815368],"bias":0.5716850131721585}]},{"neurons":[{"value":0.0,"weights":[0.5060693212085356,-0.47000228056652493,0.3361369639567826,0.05666447656174256,-0.5096191791288163,-0.5416971039861325,0.8112211780455423,-0.8420092803774262,0.767353380421214,-0.7862729879949326,-0.9656439026613768,-0.2545949077281531,-0.5486349457395412,0.26263166387384485,0.9211984998318334,-0.019974939219686405,-0.8711141866026921,-0.13589758487182602,-0.8666934360924672,-0.7939542818371614,0.6124228090363342,0.7094670139566583,-0.23053546625855925,0.7049822685470222,-0.6282709164514555,-0.5315986960967682,-0.8870375587154835,-0.4276491616733038,0.26343038433276367,-0.3808746789889681,-0.5211611151274875,-0.00629547925010332],"bias":-0.5371309240196287},{"value":0.0,"weights":[-0.12035527500153242,-0.1523300646110679,0.6676434682650001,0.5552621090107324,-0.9410532582769324,-0.3224322222875391,0.15662299283138648,-0.9735446917397126,-0.7884879297991296,-0.9463711368489487,-0.45791578971620717,0.3486690980487748,-0.39454196216135995,-0.8358485076479409,-0.08136275213903454,0.9601034220514133,0.20408075167552542,-0.014481059636667348,0.9827288112981525,0.5173817490027044,-0.8874825244943279,-0.9872765501525709,0.25442898622952326,-0.6669992800958988,-0.24429613992216392,-0.10991530878871614,0.3166764684461656,0.33824841858066224,0.4307531316772124,0.8767935301997087,-0.13547713391263994,0.6946994292491266],"bias":-0.45844726729833507},{"value":0.0,"weights":[0.22449062790582808,-0.6723787156258143,-0.8987773625767919,0.02360815123867388,0.7491681840704394,-0.6375931253812401,0.8297662654093554,0.33763297325713304,-0.8527407496406447,0.6061197583429994,-0.4279885031503414,-0.07469552058474305,0.9358599068013009,-0.25697493447774744,-0.7096835483455894,-0.5249012893929026,-0.7103950402599932,0.15388655110400995,0.44019769977084433,-0.013961669999151605,-0.49820167706814833,-0.7970455575650355,-0.832072947455919,0.7376573252655414,0.31497561628250903,0.5624309179567442,-0.6143523437902467,-0.15028047508797227,0.946155554092025,0.8825791761992008,-0.012257116104273269,0.2798971626990565],"bias":-0.6836621297582539},{"value":0.0,"weights":[-0.4136533709179253,0.8960184285546178,0.6095672950562225,0.365098401585108,0.6005742188317182,0.10758743569650897,0.032338939004867395,0.26695704902911954,-0.5684321539317276,-0.5318245251477665,0.5868749313373816,-0.1402202963864343,0.15101133818105872,-0.4951091058960295,0.8650271048207194,-0.5913314354388306,0.5789027753464806,-0.6736657216118671,0.17825595029401553,0.44738159217853046,0.23339923380205363,0.3342482800010733,0.47975886891872066,-0.3748541473470073,0.46315883405142855,0.28973809498346714,-0.7833155536849647,-0.766977184109771,-0.4140289290427517,-0.8615800756403242,-0.2737363683403349,0.2682852379820768],"bias":0.27461479048662096},{"value":0.0,"weights":[-0.07731588350632967,0.7916412071434684,0.10034310703990257,-0.6074685341966057,-0.9044133428713774,-0.46235533793705064,-0.9306652943625806,0.07804380313453319,0.5997111313049528,-0.026320260171552645,0.6785762376298532,0.5331755583181759,-0.8143273697449949,-0.8196033521628769,0.43464206583939635,-0.5550722357119116,0.6187604587730515,0.3887226960507786,0.8439257708922927,-0.2508073320386828,-0.3414520123580045,-0.985689748228396,0.5921104173954994,0.29362841570431475,0.9951231936968032,0.08740324631384011,0.5130539758018946,-0.7075330548921785,-0.31307639770276685,-0.5424227408688804,-0.4038254151282141,0.38337459495479687],"bias":-0.17182943212131496},{"value":0.0,"weights":[0.6547620856402105,0.9864984028510453,-0.8703122036304514,-0.413248818740068,0.35240841802888023,0.6991103939688001,-0.5929494310860499,0.5593885919709818,0.005613890108880248,0.5998272591449438,-0.7283180246977583,0.48794028800844,-0.5735237687832986,0.0964893126923978,0.6282063565201046,0.19740334505359947,-0.18910503514410637,-0.05965348353637223,0.2981808467711051,0.8382056574422214,-0.954504259958765,0.5545914701976404,-0.06384065489897761,-0.4286469875441583,-0.9996949762952416,0.38717154437696344,0.6483340459197964,-0.3771434531449147,0.9522553056847842,0.9275887315300084,-0.8605011429323342,-0.6831243921357528],"bias":0.06898608911393334},{"value":0.0,"weights":[0.2324753526934884,-0.2527167364666534,0.6833411850692526,-0.8125899142868394,0.07231124247344978,0.8183066723351342,-0.7153488319658392,-0.8434649592623333,-0.8582739881882684,0.5391078108735485,-0.9826413557076317,-0.1126491183986964,0.1684089588167379,0.5554060126407774,0.8186016378097065,-0.7252885406145204,0.21072588659785874,-0.5035451833911819,0.44335028789621744,-0.8455395556884806,0.9517217977650778,0.8669510841475669,-0.2226226395921651,0.7440705594115475,-0.622734643333603,0.6771664688762871,0.5121839084407951,0.6950701967171189,0.868669761895656,-0.3473297939566198,0.4319419648120424,0.16991700626274886],"bias":-0.7134448758284624},{"value":0.0,"weights":[0.8982169613830382,-0.9511572163517021,-0.579570554954852,-0.34052366934262945,0.4860744576114986,0.8720684032462578,-0.028158285583886222,0.4787844274031059,-0.40272878614246754,-0.7930683231340832,-0.29400000657248815,-0.6219627106227004,0.5649450055934309,-0.9454415478848661,0.8891711640065867,0.825015364576315,-0.5478213334919269,0.41881327632070087,-0.49561172156233346,-0.6437523201734638,0.6424108506042672,-0.8740011384850881,0.12521055571794104,-0.4781047508312912,0.328713488642455,-0.8758132728236574,0.0072278035917279215,-0.8794009129885685,-0.24106962206091054,0.15286555773027022,-0.9244063080508831,-0.6496694223334121],"bias":0.445202809321702},{"value":0.0,"weights":[-0.3400790688687121,-0.9486758155937303,-0.2311400686582865,0.09548813860625982,-0.10821075226590704,-0.9139486527694212,0.2875362684197691,0.5960595799567097,0.19395556396904845,0.9643755094858533,0.8146516215914548,-0.23167947095182173,0.7327947092740787,0.1849116566528919,-0.3802610484272695,0.6894176933510929,-0.9139183635660746,0.04558025372675445,0.0077321500195872694,-0.11451813010886558,-0.5516738828146679,0.23564382334611822,-0.5280054213079004,0.5277076292629945,-0.44158528724419943,-0.6235544167796192,0.13780062581587127,0.6855640604465243,0.8808709428325925,0.4547587780803579,0.01293270459226381,0.5429588323113239],"bias":-0.37312503695835986},{"value":0.0,"weights":[-0.8428919355745705,-0.6703653588365985,0.0788818904503461,0.20199523925724217,-0.2596214460379638,-0.9077598410606558,0.8722574915630037,0.19697195964384617,-0.7365201294879862,-0.16262667466637515,0.41143681323421544,0.8756020889735268,0.7567871003254285,-0.4313035845681643,0.5719665149070312,0.6452509849669652,-0.7794675472566694,0.8457580258084358,-0.22802863387705896,-0.041773183249327106,-0.7797248220374686,0.0865731228184079,0.7226926524032355,-0.12836031259531855,-0.7129693643123562,-0.7138560662186753,0.6624270571530637,0.8691802525870183,0.3315915084478114,-0.44178958152444103,0.4953133083033554,-0.8969189755007436],"bias":-0.9416271344830562},{"value":0.0,"weights":[-0.8249056006829558,-0.6478819023775046,0.2633535131023883,0.8003129836137113,0.11058280172999968,-0.2516249773514794,-0.6072789023075555,0.8034442702518565,0.48337094059738805,-0.2640667219749837,0.13949622730476174,-0.5935536387468139,-0.24633369152005136,0.22717713071623513,-0.8230211066465476,-0.8309858106204715,-0.9568688157291343,0.016878799013448464,0.8167808553935996,-0.4554261790285279,0.528420196433893,-0.06514808933130833,-0.7951914405472922,-0.4500422604762295,-0.4988526609974864,-0.9667256003512616,0.9124659355267095,-0.30414505962618543,0.39219534445699344,-0.2542453468302881,-0.7780337332279375,0.717647387094132],"bias":0.8470290594226704},{"value":0.0,"weights":[-0.4490846587409665,0.9534700578468307,0.273197778435742,-0.40061797599928184,-0.168524276718639,-0.7069051863214277,-0.03639314162762397,0.3760632726058468,0.34051260406714445,-0.2453301969738324,-0.21508880589106427,0.835109141797761,-0.0302128903656238,-0.8555622001649434,-0.5668537640195914,-0.9609165122921033,-0.6392760109790738,-0.8032664808691401,-0.2378487490779404,0.8598079545245374,0.30683617193338875,-0.5900035764335476,-0.8670522777462795,0.4461809963287049,0.8670884968861359,-0.46369584083754356,0.3954740591470127,-0.07754733246230883,-0.3571012311333044,-0.8360590482274115,0.8079138138684863,-0.22692953034699404],"bias":-0.1741423670432758},{"value":0.0,"weights":[-0.11865728964832489,-0.6741925258437036,-0.2997100203862417,0.8120047904059435,0.6220897829959355,-0.6174094962116028,0.1333226135818626,-0.9577310396287468,0.9644456908812553,0.5351543154663461,-0.9771295820679085,-0.7742522151728375,0.39526825684309097,-0.8375212401033449,-0.9275239554704306,0.5558751605372849,-0.15305144196243092,0.7823395697960001,-0.861805655205943,-0.848407923032457,-0.8226402123581509,0.490545450966565,0.17067003835343075,0.0694072323862438,0.6866278329155455,-0.47088612989407475,0.778784183917586,0.7959894107760992,0.2508621162825404,-0.9457524197162357,0.26160983809123883,-0.2146824371242393],"bias":-0.23282333786486542},{"value":0.0,"weights":[0.8019261758841725,-0.21450382006623547,-0.23738275392608799,-0.3072393826244344,0.5383814893118486,-0.7243222366473829,0.2380159413304468,0.9647300925649482,-0.06532239608303003,0.5468839988837657,0.9560521581924084,-0.3364679929832324,-0.1809303450819535,0.2150023285796978,-0.1471228584605988,0.15686123711975442,0.637769468920381,-0.988073723651248,-0.49880990212366094,0.6620896283333491,0.394197800533153,-0.7317022661452093,0.9936520688948711,-0.08082030189414935,0.3387576173823854,-0.46606864021579364,-0.2512739786532421,-0.8705155501364787,0.24561469144263404,0.5732864570111489,-0.18140583337120741,-0.06997397749716927],"bias":0.201814337019538},{"value":0.0,"weights":[0.30343074074371135,-0.06299405568831284,-0.7158270311562489,0.8284071110656881,0.6345172362186862,-0.23438513118291238,-0.6565343546618745,-0.9619098711761231,0.6278748854996299,0.5805633188721637,0.5716651262766743,0.38256255233195846,-0.09560875369344135,0.986779481284056,-0.2790683967462644,-0.24805156905269676,-0.18405717436474145,-0.8443474364060659,0.6113645136383032,-0.737667893888484,-0.4647913463136677,0.5524561902919745,-0.911034485202527,-0.3977152283230221,-0.07572133422705574,0.15309219703545462,0.02341369497553858,-0.5213940831049688,-0.18995178097279686,0.7454314129910657,-0.24413000235827576,-0.6096562065440427],"bias":0.2399257414619782},{"value":0.0,"weights":[0.0687298536595009,0.018356611328226524,-0.8503859397912079,-0.7397076737379147,-0.7346970174791048,-0.9799154619072539,-0.6803136346601988,0.9480626897685602,-0.5981576672263775,0.1324311445465125,-0.9447350711605835,-0.022389729011194293,-0.3365355139535131,0.4030975807621531,0.7068388498771259,-0.832521788589696,0.23178199085126572,-0.008696207463430472,0.9904339674517586,-0.8717883644977418,0.8289927105562089,-0.46029277370736077,-0.4739507360963602,0.5705565016453893,0.4431835368496333,-0.5149405116980301,0.1125149469829867,-0.8228169545422477,0.8457510527687284,-0.6415569483101482,0.23346200681729834,0.38662683021846944],"bias":-0.8755325422025031},{"value":0.0,"weights":[0.23725867872655315,-0.02145354551644507,-0.16927964108117322,-0.958978809297208,-0.31503836513244665,0.8160242380619351,-0.3781354814783964,0.5289764375638342,-0.24912582607458522,-0.5327737184736285,-0.7959313559833909,0.5459754113211324,0.9012279850336076,0.5104361287299688,0.061765045381941164,-0.7880109052311062,0.11392061326676628,-0.7188743134996973,0.22298302415411264,0.18830265176147987,-0.20670404773775486,0.13745763687787127,-0.801455513953887,0.009035915573208486,-0.35241131363773426,0.2244166460429975,0.7665221658372652,-0.9627000219862727,0.2204995049557561,-0.503115923831523,-0.15872070003520689,-0.16928210952191103],"bias":0.17004204913778742},{"value":0.0,"weights":[-0.048575824762705055,0.5589874731649007,-0.5782573669379691,-0.2611323345809944,0.7685032913465932,-0.33340186719639764,-0.6985928144896472,0.7262720145085197,-0.6186838089237314,0.3188204048094412,0.7408446614729569,-0.18842421798853737,-0.6356532153322025,0.4677374412897546,-0.5068791334949301,-0.7359248125283135,0.4742440270012962,-0.8277301400665942,0.8886231679426555,-0.2607547722544399,0.1775469660369513,-0.6402256337201571,-0.12954629516169103,-0.023121659052634858,-0.43575501476656386,0.8396432260652122,0.611978112476038,0.9429041590925951,-0.3268861306458859,0.6988484093384273,-0.9831169412070693,-0.14168828782440368],"bias":0.37969667200650203},{"value":0.0,"weights":[-0.39804769477749025,0.6228005357981681,0.7324222146265291,0.7659428670744568,-0.0268148555022798,0.21275859377246498,0.2540892974604523,-0.10169736914822547,-0.4442324824085895,-0.21557821177689918,-0.8067688534830333,-0.06863337882826892,-0.5762659281689997,0.4352888669706405,-0.1735722958335777,0.8769186968043383,-0.8359071045491169,-0.8072843725997525,-0.6758559590157454,0.4935632644478889,-0.34776658762362445,-0.14916241558491072,-0.4765310795757294,-0.9901288085712052,-0.38892656619215016,-0.5278333924703007,-0.9409142385220908,0.5371336480470583,-0.025486183066927515,-0.6301581012805011,0.43652147287568877,-0.34725881734253994],"bias":0.9442206158477906},{"value":0.0,"weights":[-0.8927834788415467,0.30554701737157686,0.38716008125014323,0.7768541309935826,0.3346651829337093,-0.07206930485597396,-0.838070193410072,0.6808631546287875,0.12920173500368737,0.6325746174299269,-0.8969411519347115,-0.3667986179510607,0.9106971107620212,-0.08760827200577026,0.5936502415763403,-0.6200503204289791,-0.02080617833503795,-0.25888994247905717,-0.06846061137352244,-0.5589327178357344,0.2510129569985702,-0.32548252111344156,0.5221821121807668,-0.46850749726566976,0.8670561051540748,-0.6505100593978337,-0.8360178532065616,-0.6660855597580113,0.00490535078138854,0.1054735972652765,-0.3272988522929736,0.9269883478191858],"bias":-0.03165151237601416},{"value":0.0,"weights":[-0.37308103715595586,-0.6564518939244224,-0.37215624269400216,-0.7593997087941209,0.7414937810716604,0.5639964505827051,-0.47468546011672363,0.13015276093766737,-0.1922699482962953,0.26733223879053547,0.5603966015554942,-0.6475295358157713,-0.5129128421018629,-0.14361172621048923,0.6530178574133587,-0.14614805650574825,-0.8807572674609829,-0.27112666076288194,-0.9207165995654223,0.023057983015867478,-0.5942494056631087,-0.3998419483118927,0.07093611084287033,0.6289747699471127,0.6560322681171753,0.4463325999036498,0.4388516951233601,-0.1897809001828148,-0.539001503496372,0.0798039261522776,-0.08503442884781798,0.6846189428477902],"bias":0.44702847740096185},{"value":0.0,"weights":[0.12165416145072316,-0.13789412415806357,-0.570296080753554,0.5905224933538247,-0.5505659660987996,-0.9812136038376866,-0.4689552104982446,-0.4469817883204372,0.07601911632087943,0.026091002623066295,0.30348260368965985,0.9962932826501023,-0.1453904696540116,-0.37364187982345576,0.7609927809357051,0.7130762816414489,0.40690615201071156,0.6284537793110936,-0.555868377115998,-0.9665823578543418,0.23595097184494196,-0.9980013490182333,0.9097162689845446,-0.8034483736416937,0.1120710142125032,0.7929924446930179,0.2455917904642757,0.5805627219296146,0.5098191823174738,0.9458586759512395,0.19404305035399583,-0.03039362628100295],"bias":-0.6665768042937692},{"value":0.0,"weights":[-0.4279914259865558,-0.7493889407362773,0.27476000955161517,0.32138462844251814,0.7226037440688549,-0.5492225035809539,-0.576590802438981,-0.2875463554523323,0.3032729273083534,-0.5348158990232599,0.4934021120516512,0.06539608666466767,-0.5888825991684634,0.0947559188410183,-0.40796704289660246,-0.8364997270497105,-0.9205815280801315,-0.7096980748631303,0.46624401635554835,0.36996267093733337,0.183036704076726,0.4168681465598545,0.3792630468754872,0.24187427047601662,0.0875723132956101,0.6413230712793017,0.4002219274586096,0.738660913397011,-0.4820661595817195,0.0423568666573082,0.9271296943999194,0.32044888380778724],"bias":-0.874242188051884},{"value":0.0,"weights":[0.32527973354938355,-9.80133922179327E-5,0.546279312869048,0.862955334250515,0.8697082559905989,-0.2410237119520664,0.6590498886987881,0.7128509412360386,-0.7535693354492357,-0.7336286718450937,0.08351333980002384,0.7447320772653918,-0.6895541713787459,-0.17012378763389369,-0.23438244644296735,0.07298843746292238,0.510373994177246,-0.04261605879580688,-0.15407700040724714,-0.15862813584231494,-0.8498602108576854,-0.8827889965503835,-0.7132119465951436,-0.9529013497015144,-0.0029682642838366746,0.59157410765087,0.762465510805344,0.022348273410732755,0.8509452027366182,-0.11577792185635838,-0.6267942827916844,0.8945087936635079],"bias":-0.9229605024779584},{"value":0.0,"weights":[0.37954968901904595,0.5589161091611619,0.8640965804598044,-0.3840194878898824,0.24934853672363677,0.9648798236032055,0.7193569948330583,0.8123112099213843,-0.035322517647225604,-0.048511673162932256,-0.35086911514759556,-0.9641401537566032,0.19416366536512575,0.9418974025184854,0.12064886077734549,0.3997181740956257,-0.6436261436584845,0.8659676967499386,-0.6435058629196644,-0.36230939359814074,0.6427225337456237,0.585805295787837,0.7750536503477694,-0.7195161592477195,-0.06128727597879102,-0.6223299028016083,-0.3486467947562333,0.15684999786517229,0.745133179978869,0.29697330677916733,0.21025238990879647,-0.8666820172810765],"bias":-0.5271808105268243},{"value":0.0,"weights":[0.5675381948413956,0.3815526192742382,-0.14814832010794965,0.998164150753019,0.01325170703394507,-0.47335049739351454,0.6329760564599651,-0.7737308894872519,0.9896877229113334,-0.4110616270823684,0.6826164557007068,0.3357003673323391,-0.7247651147572969,-0.6747379676898493,-0.7259017302580306,-0.13891445872324337,0.9457168291257847,0.5432647506517836,0.6724581600798949,-0.17813972099085906,-0.616555965980444,0.5995977492959206,0.22642086276775664,-0.7848203400146863,-0.7389095760893134,0.8064970945593712,0.27409835348648004,0.0795866769968474,0.5927413601566518,-0.15066507769234194,0.29167209777343395,-0.8919862005786163],"bias":-0.06283696494796964},{"value":0.0,"weights":[0.8353217646972158,0.06002144218046368,0.08752357900797714,-0.2107119567308524,0.17361640006967005,-0.4675351365133764,0.8045198853636109,-0.87360409371591,0.12967762359294088,0.5574834309220478,-0.5220081593700097,0.5953588606453029,0.60177080178783,-0.35650055257752,0.2696790684621486,0.36935279109797325,-0.5648803125374755,-0.4515137294916336,0.9688756802253697,0.3473256883111211,0.4192723421264555,0.6353878608751236,0.5609186004891593,0.5499990738663285,0.006828574425107536,0.6550307235524129,0.062233205602551855,0.8921223937927805,-0.2532470008316048,-0.09858695393633865,0.7411387042091946,0.0034051535966492796],"bias":-0.241088085967049},{"value":0.0,"weights":[-0.4700402147124061,-0.35755745196120237,0.6475036137083452,0.12987850614218388,0.23753499104035658,-0.8048183130742459,0.7278932394843933,0.09597375298401634,0.47370583612018,-0.3933027865577403,-0.12858987461290328,-0.6020985567099544,-0.114043380115878,-0.26744396795192893,0.14469828223586667,0.5672723012970065,0.7972531007770844,0.1606621817285261,-0.4142468284624754,-0.45129677641501087,0.17256140928108787,-0.6407720577481573,0.9222037017428422,-0.7029001172793976,0.7516288440909831,-0.08789630635335155,-0.9000699551690394,0.9181384125835479,0.8085360013467751,-0.898707423160368,0.06006513067201791,-0.24662445682145595],"bias":-0.5569217748485784},{"value":0.0,"weights":[0.3953052843100542,-0.42061615723513346,0.39149238636086503,-0.5735105491327592,-0.23666226000327928,0.9285341194831378,-0.7702432954677869,0.8623342720092142,-0.8409176082802579,-0.3954804940423413,-0.08513317420287647,0.42138236191256007,-0.9956872755158579,0.458294679712169,-0.24008304572626527,-0.5760006324390794,0.05120808463399906,-0.8347111732783368,0.0643036190283437,0.6665780437383375,0.6137140690868677,0.17612501336471298,0.15596964432352856,-0.6231559125427839,-0.16793768742215498,-0.9632430864048855,-0.0695390300240275,0.1753280915624198,-0.6290986335074473,0.2816968433200482,0.6788495359500948,-0.13515746082037627],"bias":-0.655764868410053},{"value":0.0,"weights":[0.9809627837786314,-0.9233464188306866,0.2780051032777884,-0.6296441813080256,0.4608250651200101,0.3484647352804029,0.3835528612517449,-0.7865267912278158,0.7203860774187629,-0.17193034920722527,0.38539519100854913,0.19569320136160084,-0.36951999906734345,-0.5985682028313926,0.6440564103859723,-0.8139500260347852,0.12833284880609797,0.6499771929219151,0.9083620597968387,-0.17475569315153727,-0.6891251282432058,-0.09579368360274021,0.5659254962090576,-0.5517402351286302,-0.4184470202264974,-0.12726804105573009,0.40419619149607433,-0.34798453400908413,-0.18005906742991207,0.029421481647385672,0.7195316705476462,0.34796019392196076],"bias":0.7503176842824404},{"value":0.0,"weights":[-0.4786002477490021,-0.4800391683474363,-0.49915872037768705,0.9855029311903156,0.003247194333665826,0.0380075393797874,0.17870840349786676,-0.038144878622500045,-0.4921945112988617,0.8031474978870345,-0.9744576462937293,-0.4295328283602875,0.23158203402599087,0.1191743875555975,-0.18327432360607765,0.010701237038235556,0.9428213628108446,-0.050046234459453665,0.3689002732586726,0.10633461926454957,0.6128910748849792,-0.062252086159172215,0.749586191477837,0.3142034300066796,-0.17329297648765385,0.5614953487417635,-0.5317374058960607,0.3303519989521495,0.5455013132920892,-0.7118649332589111,0.12944129170614826,-0.09443509783826176],"bias":-0.07959873860886235},{"value":0.0,"weights":[0.9782655455844447,-0.11040986767581162,0.9216129809707714,-0.36283218458995803,-0.2218659150546054,0.9835928146798261,-0.21850358076447818,-0.2600341176209493,0.2631540208686376,-0.42724089306860846,-0.2685780561614277,-0.3752769845935602,0.6938502411084513,0.2152274042449953,0.8592039336200246,0.37883029291622305,0.9033378013793418,-0.6290691224428409,-0.7967670995146017,0.5116210064775946,-0.44385996643971115,-0.47287549604478984,-0.3418928812251971,0.837589435259745,0.30135677008051376,0.7668011919403201,0.1774765688519302,0.4311905220041541,-0.31110377964546587,0.9011502936274494,-0.8483975293422761,-0.8027729426916084],"bias":0.8753138363129438}]},{"neurons":[{"value":0.0,"weights":[0.6485423257568599,-0.2234130636064422,-0.756592072565103,-0.38051378327350105,0.7663507019419429,0.7341822846679642,-0.05325848233645902,-0.9088805365456292,-0.47175046216593186,-0.43445888080262485,0.373003309282677,-0.36834403274967387,-0.5115450036412186,-0.25077708979641233,-0.46140192600418706,-0.7607291585572185,0.08570529779926295,0.6832241483017303,-0.10328769196776832,-0.7087873666697704,-0.6863966037742035,-0.477245648717896,0.3847330738793382,0.28951599412332274,-0.5797266798474476,-0.860068633660364,0.3874856339544259,0.2647977453790742,0.3991107020889908,-0.6514762042375271,-0.9490779048783553,0.1306767838392009],"bias":-0.37431362971460014},{"value":0.0,"weights":[0.9763212740895311,-0.47653062543735625,-0.7479362122096977,-0.9359214324838654,0.36966566315759497,0.9073253417652614,0.02376710282757344,-0.05311997115538203,-0.5208691008929152,-0.030431982195268326,0.35156674522496223,0.8926688087761618,-0.19770952954630827,-0.006978148949296159,-0.41388980350590465,0.7726664722441241,-0.8510336080889103,-0.4605966257679803,0.6806866693490157,-0.17714948720456447,0.44630529964071397,-0.6476543165935036,-0.8728590776069012,-0.7712421979895943,-0.3845186757715129,-0.8545189608832415,-0.43011071371900655,0.8534331450184152,0.9287780620620498,-0.3991636786918542,-0.09379523809528423,-0.12774534220184086],"bias":0.8937348336338746},{"value":0.0,"weights":[0.5453777416722694,0.15164086779795594,0.502198402692638,0.6251583581888327,-0.02138425128285837,-0.6173333690539542,-0.5005697490874319,0.2876845567385762,0.39176165448082423,0.6642890140307922,-0.3520569698932916,-0.2963328571717154,0.6490049584825486,-0.9713584697749036,0.07328385313532504,-0.6958004806582256,-0.40594222651283096,-0.7087785634136337,-0.1107544649836989,-0.7618321099367362,-0.4998079535081257,0.7746600962757604,0.42172358254124287,0.3261177813977343,-0.5004278447037513,0.8556160305774785,-0.9472313497421574,0.8348317510545153,-0.792235196133448,0.6585808702651381,0.5891920476639501,0.18644878678950638],"bias":-0.8047448287458541},{"value":0.0,"weights":[0.19109392216678933,-0.01608908808144638,-0.2820909139215886,0.8159195040527263,0.7480624203172768,-0.7754534587265773,-0.829039078786993,0.3843313566343751,-0.49141153281870076,-0.7473811446641945,-0.28008003176019725,0.5951599136897701,0.9069072386527632,0.8880067937808835,0.033823487814368614,-0.9936322918762146,-0.42025750164886544,0.9071733940095719,-0.8784238554590984,-0.5657031020961256,0.4755906833986907,0.6599825586791122,0.5231365683569706,0.8406586592126999,-0.9428535459974732,0.9087617187881558,0.7867469474376874,0.524563349263715,0.43628630522315115,-0.06540633249534089,-0.8883386885215827,-0.63132467352467],"bias":0.9018855873134419},{"value":0.0,"weights":[0.37964847612606634,0.5377815680589484,-0.40634484622775324,-0.8672985007989717,-0.21930527757811524,0.12806242218793384,0.24263016491624234,0.18761850195079344,0.29775736905913175,0.21650049714383757,0.44751171613757057,-0.8849654908591449,0.7532174364443467,0.983976183925992,-0.5784432332324709,0.25477012994914516,0.7704772526201069,0.3761680829370566,-0.9223518266927615,-0.8196333199239692,0.5376428638992574,0.692216159865666,0.18934763562769752,0.2797006989722064,0.5205034352061895,0.049759295219611754,0.0918519691427544,0.17880120966757618,-0.689584407622615,-0.62857094458866,-0.9374374023568397,0.33461417650758274],"bias":0.7517298496715081},{"value":0.0,"weights":[-0.4601672211752956,-0.27394406588020437,-0.34433816771427495,-0.8018865350225357,0.932513082289365,-0.9041801069649766,0.10524805022199635,-0.218407086995122,0.6753231219039262,0.19520097506458733,0.9000633868721104,0.7181841441282668,-0.3578881424707494,-0.4074167495780203,0.13774720354749004,0.31191176304259893,-0.5194359204333829,0.6409002058875739,0.47016706159990895,-0.41593807811536987,-0.24150422460136278,-0.2708434448916708,-0.2151214269296957,-0.2610154143475014,0.7018562593028397,0.4337175200166845,0.7654326389627297,-0.24252345008341414,-0.06485639753142824,0.09969919027052065,0.671899138595929,0.8678058488679496],"bias":0.7165283321275051},{"value":0.0,"weights":[-0.9121271025726627,0.716180400199167,-0.8692326698248831,0.5873367852152946,0.6900744519727757,-0.9976102255879231,0.9239860437740346,-0.7876570602302331,-0.4538131937784482,0.1607749381779906,0.7220143437618121,0.9170790564222902,0.2883433569859688,0.5243673487103055,0.24259618288669937,0.7549448099931768,0.09307669200788227,-0.0192562388316857,0.765799716259238,0.7916534870621006,0.8397164678577456,0.4769876741938466,0.23154884279435373,-0.5986447544923281,0.653417333889261,0.5641427131022991,-0.41758897943328144,-0.8288700277469929,0.7537763969347566,-0.6618481392548621,0.7423273938959045,0.5921337551212524],"bias":0.13689096410934543},{"value":0.0,"weights":[-0.3325187731348216,-0.39170012058888837,-0.719864567919472,-0.3282171163719083,-0.30667169934841243,-0.5191232635501626,0.5951340405385268,0.7729503023046516,-0.7534805786809948,-0.5293922357308529,-0.780801163289669,-0.2981258651970846,0.04590315018745228,0.5914673496811107,0.5036294138931179,-0.8677260376611082,-0.6737500159109,-0.5114283196581164,-0.7890155756327293,0.6299751751939764,-0.11062835764151302,0.046345779445381874,-0.34551836136098313,-0.47091812715023074,-0.5196231640815598,0.4846222856608151,-0.8232751509218765,-0.8857721933011768,0.8616824240549941,-0.026016375482932785,0.41166635003405605,0.1255681851634889],"bias":-0.2649217459744422},{"value":0.0,"weights":[0.2879868210417986,0.8381668667935089,0.3707524913167237,-0.6979517790045944,0.5587375360531492,0.7604676228527971,0.058197295583739095,-0.7439556246913492,0.813609592681428,-0.9596571981961513,-0.6414433477230022,0.030534293549131064,0.6447329608514845,-0.3423463048274018,-0.3436359779786087,0.5230682016090185,-0.9007979288123587,-0.5095211923593936,0.9714003488746841,-0.3292619088710693,0.6767841578566889,0.5829468778061537,-0.8905818042189018,-0.4941083464794438,0.1832356617635742,0.6083542819647461,-0.7555671788205458,0.33587203017754264,0.11116257778242011,-0.7629003268745702,-0.16013371077251404,0.9682303472148579],"bias":0.9906036527294162},{"value":0.0,"weights":[-0.3165767738837604,0.08341197772278819,0.9985622818981854,-0.07097337295854511,-0.16810991185319457,-0.6594382163677897,0.8363227459902536,0.6213635184900879,0.034011297878947744,0.5243192047422285,0.364675509654822,-0.6146752878627144,0.9173482103258281,0.7336976578837906,0.9136383608095948,0.8875769040450792,0.36390013789624787,0.031182419453917865,-0.42851312567451516,0.6259848688306942,0.1915268074139742,0.80941301528588,-0.232416592385152,-0.45594843634890214,0.011612375565030142,-0.16008053718982285,-0.4694988567735836,-0.6937971724684524,0.23812842215717422,0.8018264691666601,0.8585155074418038,0.03280617404348041],"bias":0.20668913483063722},{"value":0.0,"weights":[0.8560145903005505,0.23523949073342765,-0.15735905993923893,-0.36269882815446763,0.6603088558679855,-0.5186190996448992,0.16186493446231576,0.5954114975790257,-0.8861595010202126,-0.14569511579932581,0.4323512348429839,0.39491630463928407,0.07380767231954977,0.5902859529419697,0.588597102880319,0.5298632451474246,0.3054382171475096,-0.06996178883042226,-0.5287657938889063,-0.864360351825384,0.006035583249277554,0.07631584923960832,0.20649866414817653,-0.3486609651372914,-0.6134323028056143,-0.4969225396771939,-0.49515352992739947,0.005109182810526525,0.9993360359851469,0.568912974991493,0.8182288345990871,-0.8722812633468662],"bias":0.2877088799422698},{"value":0.0,"weights":[-0.5168668000391956,-0.65563064444496,-0.27346800739255994,-0.9949620744317058,-0.668872964258654,-0.02228597430217394,-0.05846438962369116,-0.9012475422442547,-0.91370800409646,-0.5194485124253416,-0.24298760573491873,-0.0018881138033897127,0.31905008921232114,-0.6158682224390353,0.8569125527846986,-0.8475864825368806,0.6591607294728912,0.4284368800024996,0.988924035174322,-0.8660587902988783,0.975748428171999,0.7105869124045434,-0.15830177603659878,-0.18118762452119563,-0.28983566337315114,0.1356924451383852,0.9416386697813399,0.7050191475105023,0.8300042409110107,-0.7497074173413998,-0.8598838613071456,-0.2855964956217929],"bias":-0.23215878547785307},{"value":0.0,"weights":[-0.9126541745807086,-0.11107662276131558,-0.3446142094788949,-0.5298210293652763,0.26306889593852967,0.6912388917677101,0.41584374706510396,-0.21027417628298672,0.23974764878770505,0.8673199279193813,-0.08938364216633654,-0.03648823716819716,-0.5950287895326105,-0.9114000082230789,-0.1743134222424969,0.7322995758817192,-0.5834307231407592,-0.9891826087835756,-0.7188259559294301,0.29116448978540754,-0.8761391721573903,-0.2237439762807536,0.6778466312123692,-0.3812914080291727,0.2996495364674898,0.157131677302621,-0.8030604308407345,-0.13067327361032288,-0.5962692421134914,0.6766112424301876,0.6906469607244152,0.9081745570775863],"bias":-0.5316905926396778},{"value":0.0,"weights":[-0.8290961943722848,0.030729820336427682,0.72669250916397,-0.25940126886888915,-0.0546821910671198,-0.6247374342316421,0.6972431383352027,0.8742983744129913,0.9291296838569261,-0.7313815991892567,-0.5913781199015173,-0.2672200600384309,-0.951436630642396,-0.9926288849997655,0.1699047123858397,0.622132428001521,-0.5858661990245688,0.28487040033314837,0.1782993303457745,0.16835250353255682,0.8580588160134042,-0.23017534119308247,0.817368831582429,-0.5406105009547222,0.8593993947455141,-0.02069602140509641,0.5852018920720827,0.992627556336644,0.9590389584366088,-0.42584571470044885,0.7478040037707352,0.3380222493164906],"bias":0.6475023530915687},{"value":0.0,"weights":[0.03489103199890464,0.9711895150236007,-0.9615631785714298,0.8665882734474848,-0.431279931472593,-0.0936435756900682,0.9425518841196578,0.1279177166682841,-0.9465901821533438,-0.015470581860847155,0.9020500301204313,0.3456043279293606,0.8413193207903285,0.5257588924524228,0.5636051946984129,-0.8673577199681182,-0.6730382084148494,0.6721682299561762,0.8475347958319452,0.5297114754951391,0.3240651252972302,-0.3721564939623141,0.628800283202432,0.24722734224067722,0.5031650692200811,0.22056326541473759,0.12237111019572255,0.03443716743578484,0.40834805674069785,0.8962699179638338,-0.47620666424531355,-0.8297471671056711],"bias":-0.6064324580556071},{"value":0.0,"weights":[0.9153858438356566,0.5671338290609291,0.7599634940168694,-0.7223068296567208,-0.2592178625559378,0.8362990848308234,-0.226076390449099,-0.2590199472799761,0.390409500694751,-0.09794586069647249,0.5787664604305369,-0.5336748181533288,-0.12669423618019238,0.6558975500083999,0.08864484274152917,0.02987815088255119,-0.2641050600131729,0.5732743724642884,0.6034553303469057,0.6512542319237848,0.21619909787378244,0.0624390575478202,-0.09704626901724867,0.3871246611195094,0.5367846543072343,0.5416068431983725,-0.7698751755056665,-0.8143056024743307,-0.5370304733236089,-0.5641392015850462,0.4241201134238082,0.5413861687745394],"bias":0.9018372324756283},{"value":0.0,"weights":[0.8966107656332898,-0.34746753749092285,-0.618372015606796,0.11176870141449835,-0.279773357914775,0.9447286148214411,-0.22728088877767227,-0.8817083696320223,-0.3212014336310345,0.042413552361713736,0.04932753972812853,0.29197803834650515,0.2748033316286973,-0.03944527343328752,0.05225076150727648,-0.19046074591633455,-0.2072151127424986,0.09124633911826985,0.30164866395680057,0.20419807723386718,-0.5550146414387676,0.6850472945436068,0.13803687905802287,0.487508189330059,-0.605809762553708,0.1087800110585222,-0.8690943351106224,0.49395315288720254,0.4858806147811241,-0.5942701973572218,-0.6150914337558842,-0.7513198488259296],"bias":0.41101987900847914},{"value":0.0,"weights":[-0.6263622082126459,-0.23385726912353633,0.37942483967131757,-0.028629792138948895,-0.3721663769352246,0.5261208471894037,-0.6231123398994114,-0.8630235466484688,0.931307622646534,0.3186131580042346,-0.1464742412822515,0.3214538068578561,-0.5495256443625904,-0.8153843880834319,0.8589255999064833,-0.8844197780624294,0.5348333644173786,0.7232789652033758,0.7806272523926341,0.5806941880320533,0.12068566407797476,0.3717111889176219,-0.6075274775254071,-0.5288595876593076,-0.07648176713987653,0.48414380484187647,0.20825238165806237,0.08057254135466962,0.21062091186112286,0.7310314127422217,0.45663391875035253,0.7961594759407631],"bias":-0.3668877847069447},{"value":0.0,"weights":[0.23123098113637153,-0.2859526216543211,0.11856750683874373,0.363237437756774,-0.21451383342345154,0.5154200701244944,-0.3580790342109288,-0.9543129088476023,0.5970198564811058,-0.8916558446298886,-0.7132295298514328,0.0517735799837713,-0.05488362928726187,-0.07552898753113424,0.940427288337971,-0.164163963179502,0.42015250273269444,-0.6873742000930603,0.5828492371578047,0.29833330394482105,-0.466384498810257,0.6113409141044068,-0.03740724270899376,-0.42702969195966056,0.7842233560091141,-0.2657917662919431,0.9361731384502159,0.7968887362035226,-0.40865910737233224,0.09965492148897837,0.6955036184845327,-0.389434626347942],"bias":-0.8650460813788983},{"value":0.0,"weights":[-0.04255022813595066,0.28191148971902447,0.3860148189190997,-0.28737402923669286,-0.052550045659783384,0.02155821227855359,-0.003655135745227689,0.3351398018895484,0.07180195790154098,-0.1840816452494738,0.3166677732076253,0.6752075776797599,-0.829986885071289,-0.41770044668459905,0.5858231328716097,0.6104565880634245,0.45701330221700043,-0.4367840607206652,0.26031987201181606,0.11957955013900934,-0.2824705534235763,-0.29024750425382906,0.05636076936378709,-0.34818533045947575,0.34579919742682574,-0.10711092933746436,-0.4972368502786555,0.03608562622557665,-0.42214814327053807,0.30807858334741467,-0.482955358421457,-0.8758025815227783],"bias":-0.10053529938342609},{"value":0.0,"weights":[0.11220325557292354,0.2688947130385173,-0.6824357138772263,-0.4252947176331756,0.06836064831986755,-0.09029360195023917,-0.8554777006157359,-0.28943052448660556,-0.22724103562631282,0.623795967406882,-0.8646422471365272,0.43163852406184433,-0.10067014413964159,0.8963905731024,-0.6152382451866922,-0.22838205829021874,0.8214945300665877,0.8954181105732271,-0.6035024050358513,-0.8279649633035919,0.956847541420752,-0.5714142923610621,0.07264701725790923,-0.8010305826499828,-0.7706498236344557,0.06418681854814423,-0.9601202024659607,0.42549617765047376,0.15495446323925655,0.6935305354297681,-0.1022326847452435,0.5633983247457672],"bias":0.9842898909549505},{"value":0.0,"weights":[-0.9351617479817966,-0.570758360539948,0.7109089604261964,0.5412999809707222,0.6329080968427965,0.3308772471447312,-0.07105328529462285,-0.1956962810584213,0.4457988763412317,0.600752513102367,0.26651069694208807,0.4197637084954584,-0.2707604830902046,0.3642247457761081,-0.173395297767033,-0.4652266464264676,0.3314220427416128,0.623031933072195,-0.5027365145726455,-0.3969183400051244,0.25529106962397496,0.18071167745257966,-0.4320432291239684,0.47706251485955287,-0.8676067573081856,0.8274062297767066,-0.3901495645864801,-0.3217096238533659,-0.3181938091394687,0.7597004371815657,0.7191063624845908,0.167095542800493],"bias":-0.769594452113485},{"value":0.0,"weights":[0.1662178150525282,-0.4943931301244595,-0.3321996508269702,-0.5611249663654976,0.9272781513918285,0.0551915044210618,-0.5948333074605381,0.11689725387396832,0.45699769600895035,-0.4983017380909316,0.9689122186941392,0.7262544946863996,-0.14120843294621577,0.8158033992455784,-0.053018211686517436,-0.1722748237098981,0.7703158247568229,0.9508578330716844,-0.04541227232829437,-0.43204918562838057,-0.458534942064603,-0.41837892835736135,0.7348615997830368,0.2914848052773147,-0.2808803825824251,-0.6700036990683447,-0.881712058180188,-0.19362284269653562,0.2049137093399629,0.5925743701428321,-0.19808184856018785,0.36439074859171217],"bias":-0.05038306160642825},{"value":0.0,"weights":[0.8679961814113955,0.14569157113451126,-0.7686005470824835,0.22736511905271883,-0.17215234155368941,-0.5179819557335144,-0.8995302765774082,-0.7041774787959829,-0.7169969708389403,0.7961056137963953,0.5395817858200933,0.5254008774647887,-0.3319632229761855,-0.941656461587137,0.16789853613131434,0.7426566339435212,-0.3004736357238478,-0.02361933064004451,-0.6810551315917226,-0.0649681734626002,-0.5402278984597619,-0.5166345686412714,0.5760110378562378,-0.5230505621991968,-0.6843372270972876,-0.10985603895241947,-0.24545032461420746,0.5919181946853262,-0.19688039177570782,-0.6969609087246726,0.6582863330483764,0.7626221685437629],"bias":0.9073752747918149},{"value":0.0,"weights":[0.6451620415330162,-0.7497813747271989,0.8185481857018579,0.882072936642021,-0.5819630202987378,0.7566312109064379,0.5107826099898845,-0.37621190179462727,-0.7983541504969005,-0.33829294091384776,-0.47381312123653085,-0.34155126747323616,0.814829634192336,0.5522688830608,0.09823906579231223,0.4928707098943006,-0.9556892678674722,-0.6633625838106814,0.6394081086656507,-0.7505021710103637,-0.10057225529345315,-0.5114533750539452,-0.8499967423286943,-0.37394578552082547,-0.5389959737453331,0.6565086339711277,0.551021973089628,0.30954456366429195,0.5665979947383373,-0.7690250146430331,-0.45640458843630194,-0.22613791915207537],"bias":0.8907532892940229},{"value":0.0,"weights":[0.2760930968467261,0.11521029332471722,0.7359674606622892,0.6373649582366043,-0.3901892407038814,0.392963280695114,0.4538061515732619,0.6637600900882537,-0.24446608544038062,-0.8133175482713746,0.5198324275034081,0.7976115892101181,-0.009503358072165957,0.26982814353015083,-0.1627859840958601,0.1970165277171556,0.7804549595863521,0.2136645134957329,-0.9385076037481752,0.6705909675838826,0.5172696246362003,-0.5797301018656902,-0.05132148340207743,0.7269151858754097,-0.33460416732493115,-0.10746637611800947,0.7714651103654508,-0.8438384151096467,0.1752509466936507,-0.7656360518238257,-0.7515580250056373,0.7631069188619384],"bias":-0.18928791679374224},{"value":0.0,"weights":[0.39191048414834206,-0.7230983397140067,0.669558729050908,-0.8836700831423312,0.7266824938419416,-0.8319726016424596,0.4655537788293054,-0.5155381034635476,0.15402244871426385,-0.9460416813567614,-0.5874854054418004,-0.8058456859060514,0.28547240135016083,-0.330571029235202,0.8878782314492346,0.09596438482508618,0.7811492868241166,-0.19361552818379235,0.3095395134020138,-0.8464604523668788,-0.5516776909577275,-0.6018247908440866,-0.11022054935695658,0.03738798361047935,-0.9850350292182337,-0.5893616506415043,-0.25782320106119605,-0.5803905803301688,-0.03786827511791757,0.5005760874437497,0.10132988865703307,0.907635214614553],"bias":0.3358848270694439},{"value":0.0,"weights":[-0.25215577280103996,-0.285956446655951,-0.06801928438524052,-0.1148058674101633,0.6754676742123913,0.8219636860857253,0.8424644543006101,-0.9448533639769408,0.24290234418906564,-0.420529428402465,0.9693043609002456,0.9892070251568079,-0.46923389155534956,0.2369705502566577,-0.5300488141146222,0.8126915011734266,0.4310650737976056,-0.031447216330126926,-0.5905245264417667,0.21902101707650168,0.8151436392410878,0.8343066814807893,-0.28822507080039794,0.8132345793402544,-0.6277089177375745,0.04142377019170862,-0.6291753209578326,0.46794090933491694,0.5951393437339738,-0.5954645333886002,-0.3743566009697541,0.9837606132211683],"bias":-0.6834129278798307},{"value":0.0,"weights":[-0.29543371498774973,0.6796037764707823,0.4263910224087404,-0.05198312337069688,-0.4932889755671912,-0.015832672425770244,0.6550030013582699,0.8603741180004079,0.921971261946134,-0.8909225179845219,-0.23824308864531551,-0.7593181493208696,0.7830161153277451,-0.21450242385742557,0.40980410433668024,-0.34498400316970934,0.7539582970976901,0.8355341448941342,0.38721692562826715,-0.4350289623954344,0.004967693459788869,0.3910377184251441,-0.9131294236204148,0.5864476961488039,-0.7435307653045558,0.05652830908246398,-0.9226250024416616,-0.6003734598853396,-0.7659974473071314,-0.5144558772137993,-0.5522628187472132,-0.35240894416855406],"bias":0.2336906722731582},{"value":0.0,"weights":[-0.7833333994045526,-0.8114919225878283,-0.9307333671967946,0.9792546606530235,0.554926432778907,0.5147506514937157,-0.41695510735111685,0.45652156333631333,-0.21374942659083196,-0.25876005829586646,0.07066646727215287,0.7353382563809816,0.07706054785479322,-0.9121130246278941,0.2066377099707961,-0.4594150546394995,0.038088247195330105,0.6234548075839048,0.8366606819903915,-0.21705230496684158,-0.8790731902587696,-0.5517861356876235,0.12925844328682756,-0.9848806507233534,0.7677872099795608,-0.8287380415833667,-0.9920193795017287,-0.36491258527495507,0.5493861968175016,0.7558113828535751,0.21727832140934678,0.8170395347553321],"bias":-0.12635151142414935},{"value":0.0,"weights":[-0.11417451605675999,0.7833388094142111,0.011744186166328774,-0.47909376641528745,0.1499631644291768,-0.3981241422102728,-0.2179076933215962,-0.554174919794505,-0.4561300621980948,0.418072520685276,0.7258145284433981,-0.5144500310969002,0.059430315874086315,-0.4404224101231453,-0.7137840417109873,0.6970043689239986,0.4596759710954772,-0.5583400512934296,0.363099019464892,0.37054001321403685,0.7306213727142918,-0.9156726292888968,0.8098730534764926,0.20168182030806214,-0.8436227634758524,-0.335579247754473,-0.8608230642310835,0.15071019865875646,-0.5185303518127067,0.4713963091418596,-0.9418301474904605,0.3675838377861649],"bias":0.4028414808317726},{"value":0.0,"weights":[0.5437134040111693,-0.1840269156819585,-0.5008424771366569,0.6888315019615339,-0.2665538818416542,0.7695736962261299,-0.8023950304424265,-0.5153401981736703,-0.020057337573647693,-0.9391705287808523,-0.2865930745991505,-0.9827824877471172,-0.8309419279700503,-0.15395788507036468,0.08322114755026644,-0.3650781433259933,0.11268855046061854,0.13089445975578906,0.6124008871478401,0.8966690491262774,-0.09595926592283344,-0.06262491869230313,-0.8961159212732559,0.9361470606285203,0.18727020078515366,0.26564171994342933,-0.4003729279015309,-0.24240685834859255,0.7258280448217518,0.11260389050125807,-0.7222899134680743,-0.6023732524885503],"bias":0.2043716829949782}]},{"neurons":[{"value":0.0,"weights":[0.6703317561056688,-0.412304013047766,-0.9696326530609956,0.03128088763370407,-0.24877171964458666,-0.29122516981839786,0.2981248435470041,0.42683809253985117,-0.5267720280448867,-0.02031840508354965,-0.5824717263141612,0.20820466039683483,-0.7128851571542052,0.07632742310306506,-0.05896310332477017,0.30256657302943735,0.5393803427990638,-0.5974634538847994,-0.5536449936810057,0.2708948527234527,-0.062130959933267116,-0.5887641896399451,0.8813514316189557,0.8927848971376249,-0.4762107943033562,-0.6121041895880039,0.8096609780593909,-0.9299764106264052,0.05249335423427137,0.6049760770074613,0.3822252306976319,-0.642950081284676],"bias":-0.9379431687240105},{"value":0.0,"weights":[0.6955799727065493,0.5026060903380893,-0.1028202794453803,0.21014410860768873,0.5964780985508824,0.358985548540935,0.5766663708966715,-0.6257317516730976,0.4751114847745739,0.2633419861354216,-0.19562581703978554,-0.29720058572319985,0.6821404885785387,-0.4316284389501326,-0.5169573614109411,-0.5138702101995327,0.9605561320888174,0.32530267700782733,-0.5411756999906023,-0.4653493245894311,-0.10567335620696006,-0.6991727032009938,-0.9810187619708979,-0.08518327307717355,0.8940019815101117,0.9889534462736043,-0.14667150817516905,-0.4289697579752554,0.8936549160163036,0.333659468814717,0.3032160886167625,-0.7622961077616703],"bias":-0.9532392082250967},{"value":0.0,"weights":[0.020809974802714182,0.6925443332541221,-0.03031216342084231,0.3203950541218372,-0.597128841478034,0.06850968296936788,0.6055750771940038,0.3171995585986598,0.387540537376043,-0.22451721352089904,-0.472772058868967,0.050283930566515256,-0.048514261629978295,0.9436220168903255,-0.8098044926881667,0.249728637372872,-0.6670361133884892,-0.8054698392912383,0.07352087566308207,0.30007214413310157,0.41217179121458414,0.6494642212815029,-0.06623529926058702,0.5882355154800942,0.30575500187018023,0.6713115940763263,0.5469000672371216,0.028115333119516084,-0.2180174363995544,0.6797495176532884,-0.5169386954158104,0.14130050609343847],"bias":-0.6270112909634145},{"value":0.0,"weights":[0.8497071184978084,0.8829578978652677,0.5753212392431266,0.7470223054464689,-0.46354694654668327,0.6910928817939115,0.005292370303997984,-0.763888284284417,-0.1336658228816654,0.34975255624365187,0.9917659839670403,-0.8851482631240388,0.09039474388515223,0.5690633307732647,-0.44293881798021095,0.03082211227526721,-0.9811918829603996,-0.5377611078116875,-0.00570792726836844,0.8124450692000389,-0.8627441431259504,-0.9285301474831269,0.7377690360191946,-0.5374425837339023,-0.147906531027725,-0.8912650312386867,3.996665484864437E-4,0.20751172976789212,-0.2806568450733,0.5971425497799943,0.32317087249827736,-0.7584847801766592],"bias":-0.2543287841683739},{"value":0.0,"weights":[-0.9777624059511965,-0.8162548883450405,0.010994606743933044,-0.7165876710801209,0.5890388263868287,0.3756580863321042,0.1513521095280168,-0.5150522804829303,0.22939863188719878,-0.0034423144587645282,-0.48144270702651215,-0.755136162789666,0.11560497084319432,-0.42662290991868024,0.15059539171665826,0.1478762739239159,0.6099753884003607,-0.8957116734693249,0.44887365001429536,0.028622900001985307,-0.18348187946638972,0.6117358416908185,-0.6127370369008396,0.4426743293788806,-0.8004332604664997,0.17780197577759171,0.13653123272231404,0.15701695607787203,-0.9043800375105806,-0.6273894791870847,0.13450360095541147,0.5013775137322116],"bias":-0.5167410180806356},{"value":0.0,"weights":[-0.5115734312936644,0.33736131432381833,0.45496228712943765,0.9438559779555991,0.056564723951931795,0.15507040166681096,-0.06111351629680217,-0.4906823220927583,0.751170736889512,0.4040089150074315,0.9427731912963908,-0.7249685473675569,0.9733940627171738,0.502439626952208,-0.1652961738370866,0.3667655260261897,0.16142327229036968,0.08955365171828356,0.4869052174346393,0.15719789590698818,0.18630825225915681,-0.7336125965576998,0.6952621235275542,0.6412800413214501,-0.929553659638622,-0.26300454706212584,-0.22105402416401554,0.822481463479398,0.7050636486818589,-0.7291627348810752,-0.7828447427012954,-0.9993978513321173],"bias":-0.6315518078614406},{"value":0.0,"weights":[0.11241692470730436,0.7131649326089466,0.8381663859492499,-0.5766416625929809,0.23179040310800048,-0.828414551530037,-0.8687592162496012,0.15623591132216919,0.6396348768578539,-0.2670640134335296,0.32184602594705525,0.4958022991495865,0.38315168685834977,0.2303386601792332,0.962962267435264,0.24369779024373717,-0.7058464741365309,-0.7836560770945054,0.583453269974938,0.3497754856372379,-0.9217366042990285,-0.9463990939704086,-0.3009345220511985,0.5988646595828389,-0.08576771438951147,-0.528711531981668,-0.9230161240803998,0.0274859890063599,0.3749597099198332,-0.5400723128733191,0.7852561028252174,0.0144270923813421],"bias":0.24497494258106634},{"value":0.0,"weights":[0.41039747185451625,-0.9552756517089491,-0.9464590567076832,0.11195418345081132,0.9986796227961907,-0.5500685579058249,0.8440810509480599,0.0665883381961252,0.47606262924867604,0.7367973512026149,-0.4766574643384991,-0.5156275722240147,-0.25476417252288575,-0.05131073181274459,-0.38167085361187425,0.8846176042936671,0.8859094007435471,-0.411163098302046,-0.39237812988889087,0.6262432871123602,-0.36070137970501404,0.14587285478386636,0.8615752046103358,-0.0933539588782264,-0.23098597721696312,-0.7593939892860899,0.16842280796440323,0.20776009371228898,-0.8133985970671467,-0.4340358249415468,0.05582550366188066,-0.4034038731893319],"bias":-0.8131200378554058},{"value":0.0,"weights":[-0.2216307025930384,0.6818487216024969,-0.4448748209334559,0.8443321449147754,-0.45236114323546417,0.1963091904231249,-0.6555494980060976,-0.8564110629424473,0.08383266298682157,-0.8371157291407374,0.30078990037956177,0.9105855189136547,0.6332942836698112,0.884329647087611,-0.08413103205597672,-0.9468706034401118,-0.3275366604534915,-0.7123949061830821,-0.9280976104676724,0.2381556036575574,0.8268640284464963,-0.5973396861622511,-0.6185794086278447,-0.09526825886533552,-0.0959981513105459,0.4080873277137891,-0.7752238965336982,0.5929821821451666,0.852730855897341,-0.28120342577140955,0.7832416888701947,-0.47399401587740897],"bias":-0.736819525201488},{"value":0.0,"weights":[0.6553302540331643,0.13319145770964802,-0.022437611168253158,-0.951448980314517,-0.13862334165281331,0.29693371987804373,0.11650427272150954,-0.6129490887296758,-0.17449615062571522,-0.96165749560792,0.7396411954322666,-0.9751980426618692,0.6150843176493419,-0.8534873490838784,-0.41208270580119466,-0.15903788757953552,-0.7551658959592922,0.9682421434636486,0.7864924442995702,-0.27613369959266443,0.979344930140235,-0.9697774168307987,-0.6424817917358379,0.4939535216199511,0.3084385604993469,0.7343975453417151,0.725103248471993,0.011464319459002947,0.336128490155301,-0.6849737358557444,-0.334834218967071,0.9084231914796592],"bias":0.9479791109371749},{"value":0.0,"weights":[-0.48643139685081493,0.24857413790056482,0.4332477952792122,-0.2278287244817081,0.7575847241453932,-0.015820434248466908,-0.9923442687457995,-0.6934374171823845,-0.9775779982609234,-0.4109522141486426,-0.7306327279437828,-0.4990709348123761,-0.9904612672056188,0.5964001915232031,0.610430768414427,0.0668474610036287,0.7928932299301821,0.3574780840455112,0.5198254604097821,-0.17042568888445953,-0.3350954899450771,-0.09825413823042828,-0.5996754906840998,0.04325962704788888,0.5560690188407682,0.5905532200963637,-0.046570494014556374,-0.3836503841094452,-0.8926038067259048,0.5325792114511931,-0.2874843866110717,0.3180391766091655],"bias":-0.11157543888360677},{"value":0.0,"weights":[-0.6749162937576532,-0.14684589827618422,0.663590471230664,-0.08451243079507731,-0.15680430071164975,-0.9790912515064363,-0.6342151218149135,0.6060768053740839,0.5201696834873315,-0.40927164676238337,0.9917291171594835,0.08302552782000472,0.8447469240459624,-0.49161190015239153,-0.22130871813478348,-0.018681399605340987,0.6474581968273476,-0.33674113285514484,0.4395924322293081,-0.1867921786140201,0.15591089049016138,0.6030128441653504,-0.7717642156094795,-0.821506567123734,0.7698043335416793,-0.6752987583660348,0.5363064149778205,0.14373754090526303,0.039621615702543744,0.8629680982114565,-0.1413716812606427,-0.9722248165021656],"bias":0.24240308408803313},{"value":0.0,"weights":[0.4449930400569242,-0.9098806227790825,0.1609668784936764,0.09617121894675562,0.09308268285549315,0.8073363141083967,-0.4217851416778404,-0.8395809517485993,0.7296599648901514,0.43945684150204567,0.060842692108535656,0.6829963046281367,-0.9242728328719831,-0.9520025097995253,0.4600167525456267,-0.037716961841434804,-0.06729146362335792,0.8115201589923866,-0.1855339015308899,0.6314614686166877,0.7989042039159591,0.25103261014714273,0.41783475442994744,-0.47245932501199683,-0.8043826938864838,0.7337416762495126,-0.303920748666054,0.33095231861937924,-0.4356565851958123,-0.14272887149304858,0.5229022632300695,0.5709927831267438],"bias":0.42864803781435556},{"value":0.0,"weights":[0.9434088992625291,-0.5687090501683143,-0.2494090568198064,0.8584143407182561,-0.940098066826967,0.07180711622044345,0.06458375856910314,0.883426268053177,0.7407699318483583,-0.7766457808912894,-0.5311148379885293,-0.631331371909549,0.8900618047066371,0.6797246261047842,-0.29636425090637797,0.5011944749369046,0.23093306896085197,0.4153080891355292,-0.7183741815616991,-0.9711751669063016,0.10137395584295628,0.575921390510205,-0.5760139981935788,0.25023159717859045,0.3998726282623002,0.045796281801561145,-0.5416572238927246,-0.5249917793404995,-0.9512504123897165,-0.3906581427362221,-0.7096594377761842,0.004570510577932341],"bias":0.14523888171831367},{"value":0.0,"weights":[0.05637483842514257,0.2176336572239237,-0.20394211715798827,0.2567641840589052,-0.027909767353408776,-0.42384433122637133,-0.8547658470704573,0.47958962999611976,0.40812177033743624,-0.5083234343845637,0.9607135085409477,0.8729220333837342,0.14862101272437878,-0.644639660187565,-0.49933254407385963,-0.4655601525692654,-0.1346390118155114,-0.44975954064603285,0.8044949785116231,0.7011203845127043,0.09844930933948248,0.42623216759043014,0.47576736217835025,0.6719690015783526,0.7043127432399272,-0.44549536024546366,-0.04091355287744469,0.010626741846092136,0.18019465319457173,-0.11226106290735793,-0.997675902445877,-0.2118284884430075],"bias":-0.5301460547774992},{"value":0.0,"weights":[-0.38899950005781503,-0.39296213872848473,-0.1841188904498634,0.8247701161651368,-0.811341394271178,-0.5563136003458011,0.5696788068153773,-0.519392254655554,0.39598784916859,0.44459678491451693,-0.17756389305516196,0.465529496498025,-0.030209961716681777,-0.9135374237743927,-0.12273966704454242,-0.48704657274581,0.9205782259158914,0.7354819149967038,-0.2656529802909511,-0.2668150098216806,-0.48043289239692943,-0.6479299205715383,0.5259312773110996,-0.8661950111376273,-0.4930820220960608,-0.16158790398722345,0.11832490215782876,0.4233078686044174,-0.8366113402568394,-0.6390533232479003,-0.093021192940143,-0.7720648978557751],"bias":0.1044835367271193},{"value":0.0,"weights":[0.09120238289869431,-0.4800354878068831,0.24422474976637742,-0.5930233886786522,0.982234697501774,-0.6027800388001638,0.30487818031360225,0.10561879080212422,0.43423999090681686,-0.9726398505207878,0.8531215807360373,0.15407516953934186,-0.9982480428074203,8.036299185021356E-4,-0.09918146825207264,-0.035823587467189055,-0.34384717044436974,-0.022578180805959747,-0.8118313213767998,0.8188030402908966,0.5410608834753126,0.1688687047029931,-0.0320952599922526,0.13165929555880274,-0.3555172112460272,-0.9997963852840324,0.6044782176494881,-0.34702828087740145,0.36044892439029974,0.24237132445711174,-0.9911963270154478,0.4370913310902327],"bias":-0.4542569398972862},{"value":0.0,"weights":[-0.9034420812111228,0.8217074051860278,0.10868201358949814,-0.8213672986529468,0.46339361389894207,0.21430627996355112,0.24737974098935478,0.06670481503304937,-0.05557326462002643,0.19111994140063482,0.5565113702308182,0.6419981680619222,2.461987543291855E-4,-0.6382026571613242,-0.11033519358542065,0.2526283388399657,-0.870916441942057,0.2899175897503392,0.179604408027626,-0.9238106578402794,0.9316774155608167,0.7324022194350142,-0.15277019984178564,0.37041245868769,0.4926379364721212,-0.6493449956921169,0.3639794848874429,0.6528584816191187,-0.36449893153639845,-0.19537718031824736,-0.7007178798946454,0.5343139632536209],"bias":-0.4758237791288398},{"value":0.0,"weights":[-0.4664501055222192,-0.5946364052904474,-0.8956106362030596,0.5269561425564175,-0.017724817961425998,0.07491969833114287,0.004145990381698494,0.40342288550143635,-0.4504986398338202,0.8528678106283696,-0.38059282003891504,-0.40788989736850456,-0.8854583789245083,0.5915941153975219,-0.8102646713915345,0.14052020671883536,0.6416287908844991,0.3098162127385604,-0.9481129840083977,-0.33838136445145617,0.06594935167306537,0.8483833767796158,0.7228848256975269,-0.9049035202548446,0.4331433422872204,0.012040858625992135,-0.9233269536283517,-0.12984541732601285,0.0940883670278867,0.044386838965297715,0.4796531393375545,-0.51792254280841],"bias":0.29811499937088004},{"value":0.0,"weights":[-0.9960453825788973,-0.5757781424595139,0.2468181308388615,0.29288123588950077,0.8925545418035103,-0.06423559956489466,-0.6877317504190319,-0.7782999178374919,-0.7672848739466496,0.8273816552012272,0.881840933760802,0.8592172236846192,-0.8007362822330415,-0.2620398119298317,0.045446750128661506,-0.21861746114677305,0.3807921205570093,-0.18697986909444864,-0.3851032460808379,0.440762762204864,-0.2200451311848084,0.874106282237582,0.9252194940602112,0.05080726317351858,0.7572503729268429,-0.028686557137328705,0.6903311627182467,0.32276176029866077,0.28113995800627367,0.32486726399449517,0.6909531943805238,-0.8597479318700008],"bias":-0.350634558393746},{"value":0.0,"weights":[0.8355089223820102,-0.675377692217586,0.7116371096912693,0.9790950320372569,0.5797602817475931,-0.13790667408624802,0.25781067452936357,0.3857537729913667,0.004973916193374617,-0.3686138952181064,0.8732068932747299,-0.8744500142255698,0.9004018430618113,-0.7098165385352981,-0.15965470313387575,0.13872245472200118,0.6443430035250579,-0.15076248009362936,-0.6166730370839,0.9106880084709699,0.7137592040439977,-0.8261028955500858,0.6132727724260136,0.44049629789795786,0.9915767581428823,-0.6821791019461747,-0.7512268591939815,0.6137668415876851,0.018219038491510187,-0.7676055447494394,-0.41300446069974184,-0.42071045383068717],"bias":0.06806100791457159},{"value":0.0,"weights":[0.14732185221787097,-0.8438250054819667,-0.9883250309402307,0.18528628506255762,-0.7676826393474201,0.4977913692585667,-0.011858084180785822,-0.1986609291732313,-0.9732269716088511,0.6068138288531233,-0.384265562208427,-0.9602748754986286,-0.43626581672837683,0.7009729972632754,0.515962404542837,-0.040048943355206035,-0.8835339918517227,-0.804902544412541,-0.19293631745794904,0.6009548808668901,0.06034731878759003,-0.975868938165829,-0.6802111554567187,-0.5779104840939893,0.46978287021997556,0.7885243990989905,0.44081209768638674,0.3685135289549377,-0.24072405274749142,-0.4117274141688032,-0.8014240852693211,0.02198728051730825],"bias":-0.9922562273100299},{"value":0.0,"weights":[-0.13305042254972932,-0.010420612710266841,-0.46559924750360215,0.7957267015930647,-0.8953328845364559,-0.31117623198276356,0.34018835391405355,-0.05431308301004201,-0.2210355105678714,-0.20366822129471718,0.005113518443418785,0.12786416901927455,-0.3447861055182537,0.7423601226049303,0.9927340209774154,0.25508491938722333,-0.826796037953238,-0.49287188376855107,0.6161868122807308,-0.7128056892080419,-0.5358583599816913,-0.6934118032239995,0.9917607087349152,0.8763232095310682,-0.6376076749779063,0.25396760711597843,-0.5779488563315527,0.8497731183918658,0.6688539245044669,0.6275128145423148,0.31032122577702936,-0.6427597525620155],"bias":-0.07024156357452149},{"value":0.0,"weights":[-0.3419273910291858,-0.5559794150594877,0.8235528017815632,-0.402267331098241,0.59585755340207,0.28424190984291986,-0.27495063535603337,-0.027088237286047256,-0.776081962829571,-0.24077727175224828,0.6471782897389302,-0.4372879784808925,-0.04341508116680215,-0.01617112386995956,-0.9171474392053585,0.33115330414381683,-0.8056792336037117,0.31328374272440707,0.9955463230522188,0.67443532136919,-0.2978673299083223,-0.8117648641785227,0.2980732486274491,-0.25956826457801396,0.43690056019667955,-0.6604190841550965,0.08743993545667972,-0.3121924157524305,-0.5303218521663242,-0.9046987739571928,-0.27187974578714913,-0.01264082132336486],"bias":-0.1220587692512698},{"value":0.0,"weights":[0.7678746533556786,-0.3094496800193536,-0.6142442514476341,-0.7372562867714498,0.39968223832941785,-0.5714039575767742,0.7319382306330786,0.9339587401154685,-0.4948666796733765,0.5191993077147616,-0.49098994219890724,-0.6825446870055829,0.8720732758684695,-0.2106388682302791,0.6195328872222978,-0.6286973605229027,0.9713628530034741,-0.7799259754614469,-0.2602825093409018,-0.5662331819126822,-0.9276537585023985,-0.9562322867207997,-0.611921301288328,0.564081828701331,-0.22674653397673383,-0.35871267465291923,-0.253298266976679,-0.40803697035580644,-0.6705899387696328,0.5963743630457559,0.2283446121678243,-0.1792519894231246],"bias":-0.5677736353394358},{"value":0.0,"weights":[-0.4199246224032356,-0.19981976955322867,0.1747530313352308,-0.37939291862226954,-0.3855448537490169,0.15505914432601853,0.9896370052916759,-0.6866957285877842,0.7044458298003393,-0.0362474080699704,0.6152671542548107,0.4834583251808924,0.828614719165425,0.6467135055887909,-0.46621553213393097,0.34678269102208725,-0.15591154166930754,0.37147122609188044,-0.20873030455737163,-0.4074305917483738,-0.01217728797577533,-0.6881465013356158,-0.8003861613875041,-0.25642575986302774,0.3458611470182382,-0.4021919215859775,-0.014099865376432152,-0.8654893817007443,-0.08582059837925637,-0.16032624865917278,0.3498085149764365,0.7689784315819292],"bias":0.8984566512728902},{"value":0.0,"weights":[0.6283290807288708,0.735254707135838,-0.3865171756699963,0.6027253455635744,-0.007274384832093528,0.5306815518659855,0.24852583782128246,0.05651053640662074,0.4388891534652688,-0.6168782220094668,0.22058199064094453,-0.688392580825617,-0.10044745713738856,0.3443545659003546,-0.07490335359268396,-0.9453807647843537,-0.3088397490103638,-0.33681725907833027,0.3994750187767391,-0.9120859985221876,-0.5949361857256947,0.19605874835336712,0.01635663582360647,0.2813204390947972,-0.44769511177398,0.12899154464315776,-0.25870085857158487,0.674491289324888,-0.2635389951295113,-0.013129309597653904,0.355323022944976,-0.06639204607542526],"bias":0.6891634952329428},{"value":0.0,"weights":[0.7520445552705965,-0.15840281088897834,-0.7569461115674923,-0.7574722463449761,0.3221951654992501,0.9968727897982392,0.1521382093242596,-0.3531225094272237,0.5082541700487373,0.25210207118651096,-0.10109847372999514,-0.5359027606191542,0.3063071999454221,0.673005747130627,0.2974927347360121,-0.4865676600351754,-0.7268618851400794,-0.8398182659137705,0.4025549908718862,0.29350796667251244,-0.5067332761237813,-0.020324893617166717,-0.1464846230873258,-0.11151995165283135,-0.1539628895025642,-0.0712417189739174,0.05362327461818195,-0.519137833387505,0.06451731417302153,0.677997832474732,0.15303765718631368,-0.34629315113472536],"bias":-0.8533923164039408},{"value":0.0,"weights":[-0.8704871710068642,0.1822149525557064,0.24489775613326348,-0.19651763378762355,0.9926575340995463,0.6213040054150758,0.1588864974974351,0.34336101924993345,0.2021893849653651,0.1932057295981784,-0.7537123309692493,0.9374706679057669,-0.7096880595828983,-0.2675899843343599,0.12932219610114726,0.41618671627637926,-0.6271906381531924,-0.39132503733891477,-0.318822154332042,0.4172038933758957,-0.9791817874197366,-0.6259345245699903,-0.2400657229335128,-0.3295376557811376,0.9636102693995587,-0.9461761181692163,0.7527774110622245,-0.29572086288760624,0.30408764724686765,-0.18400452265329736,-0.49619396439412045,0.825773489030623],"bias":0.42367303389420097},{"value":0.0,"weights":[-0.3683125327424701,-0.7211869414181826,0.6368779181680677,0.04538312481938167,0.9772914695332042,-0.43700052268852474,-0.6820711630544269,0.33998084442209975,0.6319529591916757,-0.3073400380486875,0.44403526697691764,0.9618712320936262,0.18802524057536063,0.5894546634105595,-0.8048737627614333,0.6809321791973393,0.019197121765494263,-0.8040378880400676,-0.5212194223252173,0.40324189051815607,-0.8595621706089733,0.6037842872397503,-0.2943531149125318,0.03977007407323474,0.6458551336317448,-0.6794454951195641,-0.2595368618507341,0.3492078518793069,-0.7749837482944817,-0.3602236551954554,0.8973901977622465,-0.12390940729826672],"bias":-0.27247981424628964},{"value":0.0,"weights":[-0.34250062136184356,0.7565747210543754,0.4666965498867961,0.9467706145014696,0.12241723329954968,-0.9504378265668205,-0.730967341955072,0.8798788654839129,0.011049296266807396,-0.1056182841171438,0.6095466545737256,-0.382976488197156,-0.512752083061462,-0.7431704474963432,-0.31196800520273826,-0.8993832285267573,-0.2646505335942497,0.672679379046744,-0.3564775710665191,0.01602497351027643,0.048865717487080795,0.9862521982306336,0.21779837974326566,0.41157072134367434,-0.48830803373510756,-0.8560193328420387,-0.020542406042552974,-0.7782950350443727,-0.3736163017053544,0.9273064486719009,0.8703295639689372,0.8364760199922012],"bias":-0.36476655042114325},{"value":0.0,"weights":[0.9174520665467032,-0.30265824320745294,-0.7001238424500476,0.9336611379920683,-0.044688366794195966,0.11677342035377536,0.7215997102268423,0.8912931654918435,-0.10709104128475255,0.6441616297231694,0.05119916190787577,0.24211654111064163,-0.4714274496339379,-0.728048751872099,-0.5094205628109605,-0.6878684904934937,0.27618321788699784,-0.6116903076348621,0.5102233163515921,0.3239364880736373,-0.6604499444661682,0.864354875706048,-0.31350596630362815,-0.8164579768436921,-0.053824583564383355,0.4133727780960268,0.3918148794507794,-0.8165079450614354,0.5403728681540574,0.624429823030602,-0.25352239561865564,0.9475488468123032],"bias":-0.6758659667055082}]},{"neurons":[{"value":0.0,"weights":[-0.5658871652218735,-0.8197143848064743,0.584776358660724,-0.636997863929359,-0.7760428502656929,-0.5458094967219977,-0.2740655254269506,-0.24613754693958878,-0.7825470780563533,-0.9434661272357192,0.882674585727329,0.45436241799043575,0.39934617584901444,0.5154589976332911,-0.5998938850171096,0.14800367485579446,0.7912802623647899,0.35851101541349517,-0.8341202231893095,-0.2532495124398517,0.5916512825163773,-0.7976036877596706,-0.8059860634772544,0.6626516678509595,-0.5761207537344932,0.7703255537146934,0.21926639584199203,-0.8161647822651978,-0.2638756017184176,0.5113180242622564,0.5179334237153175,-0.7213342083883201],"bias":-0.25609636600051333},{"value":0.0,"weights":[-0.06470262424235318,0.3135349412529884,0.12256085789267646,-0.665883457661206,-0.22023670415023733,0.33092455397437726,-0.824837623830097,0.9740238371255978,-0.311725317106865,0.32993877842096886,0.7312657255789972,0.44013992600126994,0.20793567448018302,-0.22021963623325025,-0.47289110656215927,-0.6099095926556566,0.6025262768976984,-0.7720928187787848,-0.7956701080680053,0.6969045351077965,-0.770125155986862,-0.627723026533274,0.21710242823437587,0.3402459953713548,0.046521136621621606,-0.6366239849579658,-0.886337085901874,0.05113984527220561,-0.820327435347721,0.44253813120984264,-0.9683544227827245,0.755178069938572],"bias":-0.7431929445362448},{"value":0.0,"weights":[-0.334361157827457,-0.2826545529901796,-0.7169839751786997,0.19804509377895685,-0.8336735505661141,0.41223157036077795,0.30329725023769494,0.9460123598744292,-0.8194684044481801,0.5457366371987289,-0.0180242905383714,-0.17542558312346168,-0.11592615692890296,-0.668448212024471,-0.5166705526957995,0.17014527549799774,-0.012238052239294195,0.08535929817501309,-0.8982101458457625,0.22093092323789465,0.9894636858061399,0.3651374530092679,-0.4499617765300232,0.2690683710042745,-0.9998026293889359,0.8808767519000926,-0.27235076202383013,0.47039022820381904,-0.8586225235141263,0.5287488653403392,0.15588908349907915,0.9568948609622105],"bias":-0.5540910418313321},{"value":0.0,"weights":[-0.12452772209905949,0.18810487412809973,-0.10104386412503419,0.0570179509502049,0.951823793889657,-0.9085311510168421,0.7287591841628638,0.9898844597638787,-0.6900552583710393,0.14466983964001656,0.8634027867717731,0.644021565480511,0.9572981995480998,-0.9925273210227468,0.9555606180815455,0.1559218806630296,8.323419893387918E-4,0.7918939440915305,-0.04845176229529624,-0.2706271615221254,0.6181114560879277,0.5010703834352284,-0.9489052462760641,0.802017509455279,-0.6821225613037103,0.8007253761252813,-0.9599282416299528,-0.857067104577667,0.3607084522936588,-0.5505342303827319,0.40688507439321553,0.41155950122580975],"bias":0.652923235731192},{"value":0.0,"weights":[0.13797052355260275,0.15518791149747835,-0.586605370780422,0.6858517110564726,0.9734602656973628,-0.7099726337970038,0.055440766177377254,-0.10189636428240312,0.3946648988358683,0.5814892391286237,0.8344772531199851,-0.4229449705009347,0.9138345468420415,-0.6006409302373519,0.5838026754693695,0.1609934853900219,0.7561679899732399,-0.8357293036413658,-0.8408272373754675,-0.33304782179362014,0.20335945269176303,-0.7247333266111637,-0.23776294747099658,0.024773243250190147,-0.7532059702029068,-0.749352210769535,-0.3201437956060187,-0.26808767245809273,0.017249638394160938,0.2584428549385114,0.3602583366751586,-0.8140203607470564],"bias":0.6811444142812539},{"value":0.0,"weights":[0.21478139420109188,-0.047926792650965444,-0.4147848122179809,0.08487206768441746,-0.8070930058421917,-0.3001409051542081,-0.6172013490794273,0.8594829418475731,0.012521141363554866,-0.08018348993493296,-0.06090170899275549,-0.9544781188088662,0.5685999430782342,-0.328039067817794,0.23666603568177313,-0.5736190103973753,-0.28921922902226394,0.70010420949225,-0.6940113584762624,0.23107791237573916,-0.7011325636861809,0.7285733365111828,0.35570866457105454,-0.45191322577938764,-0.5630429972329474,-0.21532759612218122,0.5092316246898407,0.7583510548360646,-0.17185689670358628,-0.14152703058574634,0.5203389101388689,0.018789973741],"bias":-0.6182086900032571},{"value":0.0,"weights":[0.9165944631829819,-0.12637061398017324,0.31393702322522166,-0.23485574269124188,-0.945783718348177,0.27131518333834026,-0.8578214717814325,0.4843829492493579,-0.6003602660183218,0.6661012873176695,0.5143868456268643,0.7368931667883589,-0.7217027347231573,-0.27941953009248643,0.6165726162780227,-0.8055224527215845,0.09818380782554703,0.8567790838465952,0.22450706177165092,-0.34112431263922405,-0.5637365562768291,0.9051920653211318,-0.24290560172328868,0.6743241743817081,-0.11451685483884266,-0.2291511816603451,0.7166023539883719,0.11665024319742345,0.3646022847323429,-0.4953458050819137,0.18768651001391423,-0.5315669420266891],"bias":-0.3062949555880887},{"value":0.0,"weights":[0.7014526868046826,-0.9465269229871194,0.054219527894799,0.3412105860609227,0.24196673317971018,-0.3642081784613478,0.6367343604660094,0.6544753928443807,-0.9460372621815729,0.5779801900308768,0.4644773323249638,-0.8737404894295175,-0.21129765048500837,-0.03749346397634956,0.11305475366906825,0.39490684325933767,0.09193919832722286,-0.10801013663741599,0.27704309317160525,0.041267567322641474,-0.5055758826638574,-0.9389801861903586,0.04613840467820096,-0.09833045115081651,0.85508586879428,0.2075109337176213,-0.8612033856950152,0.09419384275217557,0.7607566141351754,0.756151564453982,-0.9314765864739829,0.5561676174795138],"bias":0.7981264669059256},{"value":0.0,"weights":[-0.5471633391357518,0.28242553980894614,0.6583647471161111,0.38042310068788776,-0.6621981547924973,-0.061411673409503154,-0.7085168399063841,0.3706348817657581,0.016504302367990498,0.17829798610979997,-0.2869541498650845,-0.33843945950279375,-0.1388764465429504,-0.49892081511551734,-0.6020493885943485,0.6589702614030539,-0.48811560862250114,0.16497286731677585,-0.8465281524937212,-0.34237425204313476,-0.15376864018068348,0.41143112027612805,-0.16040449233974208,0.9092323444089303,0.4452125337580719,-0.2463396042703314,-0.8218528886238896,-0.6767951415189541,0.5102593293826527,0.5691960167457415,-0.6607501048535815,0.7529462199942711],"bias":-0.6804849024111099},{"value":0.0,"weights":[-0.1980546338708309,0.26122919589498883,-0.08396149988988055,0.16457953703250405,0.7058893705604501,-0.009843061965769229,-0.3450484701449055,-0.9902335532454194,0.2520854822880929,-0.2821922043518237,-0.5344246782258817,0.9099945564908576,-0.9274315821849122,-0.34812246002764624,0.004087208582107982,0.9345167811496129,-0.370802412361263,0.3698917218025297,-0.3716335783631528,0.2627158160809544,0.6724543502963514,0.8883108476601838,0.9383734619862705,-0.3305758652213331,-0.005356164982842415,-0.6790834125264871,-0.24938707162908869,-0.15605934385583864,0.9839107924267483,0.705641853163895,-0.02499662597363428,-0.3771173198740818],"bias":-0.8301243457458192},{"value":0.0,"weights":[-0.6534148735942855,-0.5418204082890439,-0.23415924832747992,0.6190914943558385,-0.15197190269915595,0.01545642126589808,-0.485868229441037,-0.41356653123843956,-0.09014652277999424,-0.40561343937041117,-0.15322623349161812,-0.13643074995748017,0.9088381395185123,-0.20395322271636163,-0.9158657544699893,0.9762576170923534,-0.6921250748129337,-0.17410792862717162,-0.7114685161800578,0.5422586824714684,-0.9847458010761663,0.35421834323841694,-0.22760271786690733,-0.10044872402944338,-0.04128522349287689,-0.2630215825853539,0.9484364431168466,-0.843054126577031,-0.6559481743958195,0.5808997297392062,-0.2574520090804684,-0.9964199635060493],"bias":-0.4500692680745917},{"value":0.0,"weights":[0.7325536404453841,0.8390996281601124,-0.25926348863623616,0.22636854495985737,-0.5707688886800755,0.1394764083593225,0.6888766356139489,-0.44314929875068576,0.570181716784965,-0.011348123219533157,-0.6252643310113919,-0.9007257105141087,0.8499756869316832,-0.03914157342262237,-0.2822210938128471,-0.8616953235372347,0.8414534548182591,0.2942615718605073,-0.18772841566526477,-0.9380435601085197,0.023928070083264252,-0.5741288809628071,0.8406674919465078,0.9177155074355487,0.22301080333772205,0.5017505245355645,-0.8440242923672674,0.2943310531985044,-0.03836746424235593,0.2239128090857887,-0.36478349774832663,0.6572687690589809],"bias":-0.6643523664617892},{"value":0.0,"weights":[0.9441214880371827,0.03303196896131899,-0.9041062297402758,0.04072322421793406,